<?xml version="1.0"?>
<MethodSetup Method="DNN::DNN">
  <GeneralInfo>
    <Info name="TMVA Release" value="4.2.1 [262657]"/>
    <Info name="ROOT Release" value="6.12/07 [396295]"/>
    <Info name="Creator" value="addropul"/>
    <Info name="Date" value="Wed Aug 14 22:42:17 2019"/>
    <Info name="Host" value="Linux cmsbuild89.cern.ch 2.6.32-696.30.1.el6.x86_64 #1 SMP Tue May 22 06:09:36 CEST 2018 x86_64 x86_64 x86_64 GNU/Linux"/>
    <Info name="Dir" value="/afs/cern.ch/user/a/addropul/CMSSW_10_6_0_pre4/src/L1Trigger/Run3Ntuplizer/test/June_July_2019"/>
    <Info name="Training events" value="21883"/>
    <Info name="TrainingTime" value="1.94110658e+01"/>
    <Info name="AnalysisType" value="Classification"/>
  </GeneralInfo>
  <Options>
    <Option name="V" modified="Yes">True</Option>
    <Option name="VerbosityLevel" modified="No">Verbose</Option>
    <Option name="VarTransform" modified="Yes">G</Option>
    <Option name="H" modified="Yes">False</Option>
    <Option name="CreateMVAPdfs" modified="No">False</Option>
    <Option name="IgnoreNegWeightsInTraining" modified="No">False</Option>
    <Option name="Layout" modified="Yes">TANH|100,TANH|50,TANH|10,LINEAR</Option>
    <Option name="ValidationSize" modified="No">20%</Option>
    <Option name="ErrorStrategy" modified="Yes">CROSSENTROPY</Option>
    <Option name="WeightInitialization" modified="Yes">XAVIERUNIFORM</Option>
    <Option name="Architecture" modified="No">CPU</Option>
    <Option name="TrainingStrategy" modified="Yes">LearningRate=1e-3,Momentum=0.9,Repetitions=1,ConvergenceSteps=10,BatchSize=128,TestRepetitions=1,MaxEpochs=30,WeightDecay=1e-4,Regularization=None,Optimizer=ADAM,DropConfig=0.0+0.0+0.0+0.</Option>
  </Options>
  <Variables NVar="5">
    <Variable VarIndex="0" Expression="l1Pt_1" Label="l1Pt_1" Title="l1Pt_1" Unit="" Internal="l1Pt_1" Type="D" Min="5.50000000e+00" Max="5.11500000e+02"/>
    <Variable VarIndex="1" Expression="l1Pt_2" Label="l1Pt_2" Title="l1Pt_2" Unit="" Internal="l1Pt_2" Type="D" Min="5.50000000e+00" Max="5.11500000e+02"/>
    <Variable VarIndex="2" Expression="l1DeltaEta" Label="l1DeltaEta" Title="l1DeltaEta" Unit="" Internal="l1DeltaEta" Type="D" Min="-8.57999992e+00" Max="8.93999958e+00"/>
    <Variable VarIndex="3" Expression="l1DeltaPhi" Label="l1DeltaPhi" Title="l1DeltaPhi" Unit="" Internal="l1DeltaPhi" Type="D" Min="-6.19119978e+00" Max="6.10400009e+00"/>
    <Variable VarIndex="4" Expression="l1Mass" Label="l1Mass" Title="l1Mass" Unit="" Internal="l1Mass" Type="D" Min="8.66790962e+00" Max="5.37381055e+03"/>
  </Variables>
  <Spectators NSpec="0"/>
  <Classes NClass="2">
    <Class Name="Signal" Index="0"/>
    <Class Name="Background" Index="1"/>
  </Classes>
  <Transformations NTransformations="1">
    <Transform Name="Gauss" FlatOrGauss="Gauss">
      <Selection>
        <Input NInputs="5">
          <Input Type="Variable" Label="l1Pt_1" Expression="l1Pt_1"/>
          <Input Type="Variable" Label="l1Pt_2" Expression="l1Pt_2"/>
          <Input Type="Variable" Label="l1DeltaEta" Expression="l1DeltaEta"/>
          <Input Type="Variable" Label="l1DeltaPhi" Expression="l1DeltaPhi"/>
          <Input Type="Variable" Label="l1Mass" Expression="l1Mass"/>
        </Input>
        <Output NOutputs="5">
          <Output Type="Variable" Label="l1Pt_1" Expression="l1Pt_1"/>
          <Output Type="Variable" Label="l1Pt_2" Expression="l1Pt_2"/>
          <Output Type="Variable" Label="l1DeltaEta" Expression="l1DeltaEta"/>
          <Output Type="Variable" Label="l1DeltaPhi" Expression="l1DeltaPhi"/>
          <Output Type="Variable" Label="l1Mass" Expression="l1Mass"/>
        </Output>
      </Selection>
      <Variable VarIndex="0">
        <CumulativePDF_cls0>
          <PDF Name="GaussTransform var0 cls0" MinNSmooth="0" MaxNSmooth="0" InterpolMethod="1" KDE_type="0" KDE_iter="1" KDE_border="1" KDE_finefactor="0.0000000000000000e+00">
            <Histogram Name="Cumulative_Var0_cls0_original" NBins="412" XMin="5.4998998641967773e+00" XMax="5.1150000000000000e+02" HasEquidistantBins="0">
              3.89883615e-04 7.79767230e-04 1.21838623e-03 1.75447622e-03 2.33930163e-03 2.92412704e-03 3.48458462e-03 3.98750743e-03 4.53645829e-03 5.30742574e-03 6.27604313e-03 7.31979404e-03 8.42040312e-03 9.57380887e-03 1.07434597e-02 1.19659072e-02 1.32939480e-02 1.46910306e-02 1.61693394e-02 1.77938547e-02 1.95930041e-02 2.15573143e-02 2.35974342e-02 2.56917048e-02 2.78929230e-02 3.01997345e-02 3.26040164e-02 3.50570343e-02 3.75466049e-02 4.01092768e-02 4.27085012e-02 4.53077257e-02 4.79556844e-02 5.07853851e-02 5.39596193e-02 5.75129092e-02 6.13602996e-02 6.54510334e-02 6.96636066e-02 7.37502724e-02 7.75743127e-02 8.12859908e-02 8.51790756e-02 8.93997699e-02 9.38346982e-02 9.83183533e-02 1.02802016e-01 1.07285678e-01 1.11769341e-01 1.16228633e-01 1.20809093e-01 1.25753701e-01 1.31014422e-01 1.36575684e-01 1.42532244e-01 1.48640424e-01 1.54434517e-01 1.59760222e-01 1.64940387e-01 1.70219392e-01 1.75547794e-01 1.80941194e-01 1.86464548e-01 1.92052871e-01 1.97641209e-01 2.03229532e-01 2.08784029e-01 2.14264959e-01 2.19722420e-01 2.25268334e-01 2.30936542e-01 2.36654833e-01 2.42373124e-01 2.48176709e-01 2.54150867e-01 2.60222495e-01 2.66318470e-01 2.72428691e-01 2.78542966e-01 2.84716100e-01 2.91019231e-01 2.97387332e-01 3.03645104e-01 3.09701145e-01 3.15657705e-01 3.21700901e-01 3.27925503e-01 3.34263831e-01 3.40561509e-01 3.46734673e-01 3.52777869e-01 3.58691096e-01 3.64527166e-01 3.70355129e-01 3.76217604e-01 3.82140994e-01 3.87956738e-01 3.93480092e-01 3.98879588e-01 4.04560298e-01 4.10708070e-01 4.17132020e-01 4.23678488e-01 4.30279434e-01 4.36577141e-01 4.42188472e-01 4.47294861e-01 4.52422917e-01 4.57881302e-01 4.63599592e-01 4.69366610e-01 4.75101143e-01 4.80819434e-01 4.86383408e-01 4.91638720e-01 4.96796548e-01 5.02068102e-01 5.07396519e-01 5.12724936e-01 5.18053353e-01 5.23365498e-01 5.28466463e-01 5.33193827e-01 5.37742436e-01 5.42291105e-01 5.46855986e-01 5.51453352e-01 5.56066990e-01 5.60658276e-01 5.65204859e-01 5.69688559e-01 5.74085534e-01 5.78460932e-01 5.82947314e-01 5.87601542e-01 5.92345119e-01 5.97021699e-01 6.01564229e-01 6.06047869e-01 6.10450327e-01 6.14690304e-01 6.18849039e-01 6.23030186e-01 6.27259970e-01 6.31473601e-01 6.35484099e-01 6.39204800e-01 6.42749071e-01 6.46227419e-01 6.49721146e-01 6.53360069e-01 6.57215595e-01 6.61144197e-01 6.64872468e-01 6.68251455e-01 6.71392202e-01 6.74554586e-01 6.77949846e-01 6.81612074e-01 6.85400248e-01 6.89115345e-01 6.92676067e-01 6.96107864e-01 6.99417770e-01 7.02666819e-01 7.05883384e-01 7.09034920e-01 7.12153971e-01 7.15224326e-01 7.18148470e-01 7.20926344e-01 7.23655581e-01 7.26384759e-01 7.29130149e-01 7.31908083e-01 7.34734774e-01 7.37642646e-01 7.40615487e-01 7.43604600e-01 7.46593714e-01 7.49501586e-01 7.52247036e-01 7.54911244e-01 7.57575452e-01 7.60239661e-01 7.62966812e-01 7.65840828e-01 7.68798769e-01 7.71672845e-01 7.74371564e-01 7.76873291e-01 7.79196382e-01 7.81470716e-01 7.83794224e-01 7.86143899e-01 7.88383424e-01 7.90365338e-01 7.92184830e-01 7.94090927e-01 7.96210885e-01 7.98455477e-01 8.00654650e-01 8.02742839e-01 8.04784954e-01 8.06848764e-01 8.08928132e-01 8.11023772e-01 8.13151896e-01 8.15304399e-01 8.17476511e-01 8.19662154e-01 8.21809888e-01 8.23826969e-01 8.25680852e-01 8.27453017e-01 8.29272389e-01 8.31207037e-01 8.33206773e-01 8.35174918e-01 8.37038338e-01 8.38797569e-01 8.40519547e-01 8.42209041e-01 8.43833566e-01 8.45414758e-01 8.46971571e-01 8.48517597e-01 8.50150228e-01 8.51956129e-01 8.53818893e-01 8.55508387e-01 8.56943429e-01 8.58242989e-01 8.59520972e-01 8.60820591e-01 8.62163484e-01 8.63533497e-01 8.64892721e-01 8.66213977e-01 8.67513597e-01 8.68847013e-01 8.70246351e-01 8.71676385e-01 8.73086572e-01 8.74464691e-01 8.75813067e-01 8.77128899e-01 8.78428519e-01 8.79728138e-01 8.81027758e-01 8.82327378e-01 8.83645892e-01 8.85007799e-01 8.86404872e-01 8.87805104e-01 8.89180124e-01 8.90472054e-01 8.91588867e-01 8.92547369e-01 8.93457115e-01 8.94366801e-01 8.95276546e-01 8.96202505e-01 8.97166371e-01 8.98151934e-01 8.99115801e-01 9.00041759e-01 9.00951505e-01 9.01861250e-01 9.02819693e-01 9.03875649e-01 9.04980302e-01 9.06084955e-01 9.07128751e-01 9.08046603e-01 9.08883214e-01 9.09703612e-01 9.10536170e-01 9.11389053e-01 9.12260830e-01 9.13143516e-01 9.13982809e-01 9.14738238e-01 9.15453017e-01 9.16167796e-01 9.16882575e-01 9.17597353e-01 9.18295920e-01 9.18961942e-01 9.19611752e-01 9.20261562e-01 9.20911372e-01 9.21593666e-01 9.22340989e-01 9.23120737e-01 9.23900485e-01 9.24680293e-01 9.25460041e-01 9.26239789e-01 9.27019536e-01 9.27799344e-01 9.28579092e-01 9.29293871e-01 9.29863811e-01 9.30349827e-01 9.30891335e-01 9.31541145e-01 9.32255924e-01 9.32999134e-01 9.33745086e-01 9.34457123e-01 9.35125887e-01 9.35775697e-01 9.36409235e-01 9.37010348e-01 9.37595129e-01 9.38179970e-01 9.38764811e-01 9.39422727e-01 9.40226853e-01 9.41029668e-01 9.41683531e-01 9.42230463e-01 9.42706943e-01 9.43161845e-01 9.43704665e-01 9.44369376e-01 9.45096374e-01 9.45847690e-01 9.46599007e-01 9.47326005e-01 9.48040783e-01 9.48755562e-01 9.49470341e-01 9.50185120e-01 9.50899959e-01 9.51614738e-01 9.52329516e-01 9.53044295e-01 9.53742862e-01 9.54406202e-01 9.55053270e-01 9.55726087e-01 9.56444919e-01 9.57185447e-01 9.57898915e-01 9.58567619e-01 9.59217429e-01 9.59867239e-01 9.60517049e-01 9.61166859e-01 9.61816669e-01 9.62466478e-01 9.63116288e-01 9.63766098e-01 9.64415908e-01 9.65065718e-01 9.65715528e-01 9.66365337e-01 9.67015147e-01 9.67664957e-01 9.68328297e-01 9.69023228e-01 9.69736159e-01 9.70431149e-01 9.71094489e-01 9.71744239e-01 9.72394049e-01 9.73043859e-01 9.73693669e-01 9.74343479e-01 9.74993289e-01 9.75643098e-01 9.76292908e-01 9.76942718e-01 9.77592528e-01 9.78242338e-01 9.78892148e-01 9.79541957e-01 9.80191767e-01 9.80841577e-01 9.81491387e-01 9.82141137e-01 9.82790947e-01 9.83440757e-01 9.84090567e-01 9.84740376e-01 9.85390186e-01 9.86039996e-01 9.86689806e-01 9.87339616e-01 9.87989426e-01 9.88639235e-01 9.89289045e-01 9.89938855e-01 9.90588665e-01 9.91238475e-01 9.91888285e-01 9.92538035e-01 9.93187845e-01 9.93837655e-01 9.94487464e-01 9.95137274e-01 9.95787084e-01 9.96436894e-01 9.97086704e-01 9.97752726e-01 9.98456717e-01 9.99182343e-01 9.99756336e-01 1.00000000e+00 1.00000000e+00 
            </Histogram>
            <HistogramBinning NBins="412">
              5.49989986e+00 5.50000000e+00 7.00000000e+00 9.00000000e+00 9.50000000e+00 1.05000000e+01 1.10000000e+01 1.20000000e+01 1.25000000e+01 1.30000000e+01 1.35000000e+01 1.40000000e+01 1.45000000e+01 1.50000000e+01 1.55000000e+01 1.60000000e+01 1.65000000e+01 1.70000000e+01 1.75000000e+01 1.80000000e+01 1.85000000e+01 1.90000000e+01 1.95000000e+01 2.00000000e+01 2.05000000e+01 2.10000000e+01 2.15000000e+01 2.20000000e+01 2.25000000e+01 2.30000000e+01 2.35000000e+01 2.40000000e+01 2.45000000e+01 2.50000000e+01 2.55000000e+01 2.60000000e+01 2.65000000e+01 2.70000000e+01 2.75000000e+01 2.80000000e+01 2.85000000e+01 2.90000000e+01 2.95000000e+01 3.00000000e+01 3.05000000e+01 3.10000000e+01 3.15000000e+01 3.20000000e+01 3.25000000e+01 3.30000000e+01 3.35000000e+01 3.40000000e+01 3.45000000e+01 3.50000000e+01 3.55000000e+01 3.60000000e+01 3.65000000e+01 3.70000000e+01 3.75000000e+01 3.80000000e+01 3.85000000e+01 3.90000000e+01 3.95000000e+01 4.00000000e+01 4.05000000e+01 4.10000000e+01 4.15000000e+01 4.20000000e+01 4.25000000e+01 4.30000000e+01 4.35000000e+01 4.40000000e+01 4.45000000e+01 4.50000000e+01 4.55000000e+01 4.60000000e+01 4.65000000e+01 4.70000000e+01 4.75000000e+01 4.80000000e+01 4.85000000e+01 4.90000000e+01 4.95000000e+01 5.00000000e+01 5.05000000e+01 5.10000000e+01 5.15000000e+01 5.20000000e+01 5.25000000e+01 5.30000000e+01 5.35000000e+01 5.40000000e+01 5.45000000e+01 5.50000000e+01 5.55000000e+01 5.60000000e+01 5.65000000e+01 5.70000000e+01 5.75000000e+01 5.80000000e+01 5.85000000e+01 5.90000000e+01 5.95000000e+01 6.00000000e+01 6.05000000e+01 6.10000000e+01 6.15000000e+01 6.20000000e+01 6.25000000e+01 6.30000000e+01 6.35000000e+01 6.40000000e+01 6.45000000e+01 6.50000000e+01 6.55000000e+01 6.60000000e+01 6.65000000e+01 6.70000000e+01 6.75000000e+01 6.80000000e+01 6.85000000e+01 6.90000000e+01 6.95000000e+01 7.00000000e+01 7.05000000e+01 7.10000000e+01 7.15000000e+01 7.20000000e+01 7.25000000e+01 7.30000000e+01 7.35000000e+01 7.40000000e+01 7.45000000e+01 7.50000000e+01 7.55000000e+01 7.60000000e+01 7.65000000e+01 7.70000000e+01 7.75000000e+01 7.80000000e+01 7.85000000e+01 7.90000000e+01 7.95000000e+01 8.00000000e+01 8.05000000e+01 8.10000000e+01 8.15000000e+01 8.20000000e+01 8.25000000e+01 8.30000000e+01 8.35000000e+01 8.40000000e+01 8.45000000e+01 8.50000000e+01 8.55000000e+01 8.60000000e+01 8.65000000e+01 8.70000000e+01 8.75000000e+01 8.80000000e+01 8.85000000e+01 8.90000000e+01 8.95000000e+01 9.00000000e+01 9.05000000e+01 9.10000000e+01 9.15000000e+01 9.20000000e+01 9.25000000e+01 9.30000000e+01 9.35000000e+01 9.40000000e+01 9.45000000e+01 9.50000000e+01 9.55000000e+01 9.60000000e+01 9.65000000e+01 9.70000000e+01 9.75000000e+01 9.80000000e+01 9.85000000e+01 9.90000000e+01 9.95000000e+01 1.00000000e+02 1.00500000e+02 1.01000000e+02 1.01500000e+02 1.02000000e+02 1.02500000e+02 1.03000000e+02 1.03500000e+02 1.04000000e+02 1.04500000e+02 1.05000000e+02 1.05500000e+02 1.06000000e+02 1.06500000e+02 1.07000000e+02 1.07500000e+02 1.08000000e+02 1.08500000e+02 1.09000000e+02 1.09500000e+02 1.10000000e+02 1.10500000e+02 1.11000000e+02 1.11500000e+02 1.12000000e+02 1.12500000e+02 1.13000000e+02 1.13500000e+02 1.14000000e+02 1.14500000e+02 1.15000000e+02 1.15500000e+02 1.16000000e+02 1.16500000e+02 1.17000000e+02 1.17500000e+02 1.18000000e+02 1.18500000e+02 1.19000000e+02 1.19500000e+02 1.20000000e+02 1.20500000e+02 1.21000000e+02 1.21500000e+02 1.22000000e+02 1.22500000e+02 1.23000000e+02 1.23500000e+02 1.24000000e+02 1.24500000e+02 1.25000000e+02 1.25500000e+02 1.26000000e+02 1.26500000e+02 1.27000000e+02 1.27500000e+02 1.28000000e+02 1.28500000e+02 1.29000000e+02 1.29500000e+02 1.30000000e+02 1.30500000e+02 1.31000000e+02 1.31500000e+02 1.32000000e+02 1.32500000e+02 1.33000000e+02 1.33500000e+02 1.34000000e+02 1.34500000e+02 1.35000000e+02 1.35500000e+02 1.36000000e+02 1.36500000e+02 1.37000000e+02 1.37500000e+02 1.38000000e+02 1.38500000e+02 1.39000000e+02 1.39500000e+02 1.40000000e+02 1.40500000e+02 1.41000000e+02 1.41500000e+02 1.42000000e+02 1.42500000e+02 1.43000000e+02 1.43500000e+02 1.44000000e+02 1.44500000e+02 1.45000000e+02 1.45500000e+02 1.46000000e+02 1.46500000e+02 1.47000000e+02 1.47500000e+02 1.48000000e+02 1.48500000e+02 1.49000000e+02 1.49500000e+02 1.50000000e+02 1.50500000e+02 1.51000000e+02 1.51500000e+02 1.52000000e+02 1.52500000e+02 1.53000000e+02 1.53500000e+02 1.54000000e+02 1.54500000e+02 1.55000000e+02 1.55500000e+02 1.56000000e+02 1.56500000e+02 1.57000000e+02 1.57500000e+02 1.58000000e+02 1.58500000e+02 1.59000000e+02 1.59500000e+02 1.60000000e+02 1.60500000e+02 1.61000000e+02 1.61500000e+02 1.62000000e+02 1.62500000e+02 1.63000000e+02 1.63500000e+02 1.64000000e+02 1.64500000e+02 1.65000000e+02 1.65500000e+02 1.66500000e+02 1.67000000e+02 1.67500000e+02 1.68000000e+02 1.69000000e+02 1.69500000e+02 1.70500000e+02 1.71500000e+02 1.72000000e+02 1.72500000e+02 1.73000000e+02 1.73500000e+02 1.74000000e+02 1.75000000e+02 1.76000000e+02 1.76500000e+02 1.77000000e+02 1.78500000e+02 1.79500000e+02 1.80000000e+02 1.81000000e+02 1.82000000e+02 1.83000000e+02 1.84000000e+02 1.85000000e+02 1.86000000e+02 1.87000000e+02 1.88000000e+02 1.89000000e+02 1.90500000e+02 1.91500000e+02 1.92000000e+02 1.93500000e+02 1.94500000e+02 1.96000000e+02 1.97500000e+02 1.98500000e+02 1.99000000e+02 2.01000000e+02 2.02500000e+02 2.03000000e+02 2.04500000e+02 2.06000000e+02 2.07000000e+02 2.09000000e+02 2.10500000e+02 2.12000000e+02 2.13500000e+02 2.15500000e+02 2.18000000e+02 2.19000000e+02 2.20500000e+02 2.24000000e+02 2.25500000e+02 2.27000000e+02 2.28000000e+02 2.31000000e+02 2.33500000e+02 2.36000000e+02 2.39500000e+02 2.42000000e+02 2.45000000e+02 2.49500000e+02 2.52000000e+02 2.55500000e+02 2.58500000e+02 2.61500000e+02 2.64000000e+02 2.65000000e+02 2.67500000e+02 2.70000000e+02 2.72500000e+02 2.77500000e+02 2.80000000e+02 2.84000000e+02 2.86000000e+02 2.87500000e+02 2.92500000e+02 2.95500000e+02 3.00000000e+02 3.05000000e+02 3.09000000e+02 3.14500000e+02 3.18500000e+02 3.26000000e+02 3.31500000e+02 3.39000000e+02 3.44000000e+02 3.50500000e+02 3.61000000e+02 3.70500000e+02 3.82000000e+02 4.02000000e+02 4.19500000e+02 4.38500000e+02 4.85000000e+02 5.11500000e+02 5.11500000e+02 
            </HistogramBinning>
          </PDF>
        </CumulativePDF_cls0>
        <CumulativePDF_cls1>
          <PDF Name="GaussTransform var0 cls1" MinNSmooth="0" MaxNSmooth="0" InterpolMethod="1" KDE_type="0" KDE_iter="1" KDE_border="1" KDE_finefactor="0.0000000000000000e+00">
            <Histogram Name="Cumulative_Var0_cls1_original" NBins="186" XMin="5.9998998641967773e+00" XMax="4.8250000000000000e+02" HasEquidistantBins="0">
              1.10111758e-03 2.20223516e-03 3.34267830e-03 4.64042416e-03 6.17412338e-03 7.98310246e-03 1.00673605e-02 1.22695966e-02 1.46045554e-02 1.72707774e-02 2.02133730e-02 2.32040323e-02 2.60330196e-02 2.86399797e-02 3.11568212e-02 3.36736590e-02 3.65739241e-02 4.02410403e-02 4.43309024e-02 4.86173965e-02 5.31791672e-02 5.79375662e-02 6.28532693e-02 6.78476170e-02 7.28419721e-02 7.79542997e-02 8.32485110e-02 8.85361731e-02 9.37582850e-02 9.93015543e-02 1.05573989e-01 1.12416647e-01 1.19455934e-01 1.26534536e-01 1.34026065e-01 1.42402425e-01 1.51250690e-01 1.59862995e-01 1.68042719e-01 1.76002875e-01 1.83989257e-01 1.92342669e-01 2.01448187e-01 2.11150140e-01 2.21101150e-01 2.31232405e-01 2.41457075e-01 2.51681715e-01 2.61945695e-01 2.72445649e-01 2.83338845e-01 2.94654787e-01 3.06354135e-01 3.18181336e-01 3.29979002e-01 3.41698021e-01 3.53259772e-01 3.64742845e-01 3.76225919e-01 3.88141572e-01 4.01092798e-01 4.14804339e-01 4.28620726e-01 4.42345351e-01 4.56030667e-01 4.69715983e-01 4.83401299e-01 4.97086585e-01 5.11099637e-01 5.25912285e-01 5.41249275e-01 5.56271613e-01 5.70245326e-01 5.83082974e-01 5.95453024e-01 6.07923627e-01 6.20586455e-01 6.33327961e-01 6.45931840e-01 6.58260405e-01 6.70097411e-01 6.81226552e-01 6.91923141e-01 7.02147782e-01 7.11654723e-01 7.20788121e-01 7.29675710e-01 7.38209367e-01 7.46546388e-01 7.54386902e-01 7.61349201e-01 7.67905116e-01 7.74533093e-01 7.81257808e-01 7.88021803e-01 7.94756293e-01 8.01435113e-01 8.07930350e-01 8.13861966e-01 8.19141448e-01 8.24175119e-01 8.29051495e-01 8.33613276e-01 8.38017762e-01 8.42422247e-01 8.46826673e-01 8.51034522e-01 8.54809761e-01 8.58309746e-01 8.61770451e-01 8.65231097e-01 8.68691742e-01 8.72113049e-01 8.75455737e-01 8.78749251e-01 8.81978869e-01 8.85116756e-01 8.88202131e-01 8.91005754e-01 8.93257141e-01 8.95184100e-01 8.97071719e-01 8.98959339e-01 9.00846958e-01 9.02734637e-01 9.04582918e-01 9.06352580e-01 9.08082902e-01 9.09813225e-01 9.11494374e-01 9.13077235e-01 9.14610982e-01 9.16144669e-01 9.17737365e-01 9.19448018e-01 9.21217680e-01 9.22987282e-01 9.24668491e-01 9.26168859e-01 9.27575290e-01 9.28990483e-01 9.30424213e-01 9.31826830e-01 9.33137715e-01 9.34396088e-01 9.35706973e-01 9.37103033e-01 9.38525319e-01 9.39939380e-01 9.41448510e-01 9.43178833e-01 9.45014060e-01 9.46668983e-01 9.48002756e-01 9.49156344e-01 9.50418055e-01 9.52003360e-01 9.53915834e-01 9.55976844e-01 9.57958162e-01 9.59765494e-01 9.61495817e-01 9.63226140e-01 9.64917183e-01 9.66529548e-01 9.68102574e-01 9.69675601e-01 9.71248567e-01 9.72821593e-01 9.74394619e-01 9.75967646e-01 9.77540672e-01 9.79113698e-01 9.80719507e-01 9.82401788e-01 9.84127760e-01 9.85809982e-01 9.87415791e-01 9.88988817e-01 9.90561843e-01 9.92134869e-01 9.93707895e-01 9.95280921e-01 9.96853948e-01 9.98426974e-01 1.00000000e+00 
            </Histogram>
            <HistogramBinning NBins="186">
              5.99989986e+00 6.00000000e+00 7.00000000e+00 8.00000000e+00 8.50000000e+00 9.00000000e+00 9.50000000e+00 1.05000000e+01 1.10000000e+01 1.15000000e+01 1.20000000e+01 1.25000000e+01 1.30000000e+01 1.35000000e+01 1.40000000e+01 1.45000000e+01 1.50000000e+01 1.55000000e+01 1.60000000e+01 1.65000000e+01 1.70000000e+01 1.75000000e+01 1.80000000e+01 1.85000000e+01 1.90000000e+01 1.95000000e+01 2.00000000e+01 2.05000000e+01 2.10000000e+01 2.15000000e+01 2.20000000e+01 2.25000000e+01 2.30000000e+01 2.35000000e+01 2.40000000e+01 2.45000000e+01 2.50000000e+01 2.55000000e+01 2.60000000e+01 2.65000000e+01 2.70000000e+01 2.75000000e+01 2.80000000e+01 2.85000000e+01 2.90000000e+01 2.95000000e+01 3.00000000e+01 3.05000000e+01 3.10000000e+01 3.15000000e+01 3.20000000e+01 3.25000000e+01 3.30000000e+01 3.35000000e+01 3.40000000e+01 3.45000000e+01 3.50000000e+01 3.55000000e+01 3.60000000e+01 3.65000000e+01 3.70000000e+01 3.75000000e+01 3.80000000e+01 3.85000000e+01 3.90000000e+01 3.95000000e+01 4.00000000e+01 4.05000000e+01 4.10000000e+01 4.15000000e+01 4.20000000e+01 4.25000000e+01 4.30000000e+01 4.35000000e+01 4.40000000e+01 4.45000000e+01 4.50000000e+01 4.55000000e+01 4.60000000e+01 4.65000000e+01 4.70000000e+01 4.75000000e+01 4.80000000e+01 4.85000000e+01 4.90000000e+01 4.95000000e+01 5.00000000e+01 5.05000000e+01 5.10000000e+01 5.15000000e+01 5.20000000e+01 5.25000000e+01 5.30000000e+01 5.35000000e+01 5.40000000e+01 5.45000000e+01 5.50000000e+01 5.55000000e+01 5.60000000e+01 5.65000000e+01 5.70000000e+01 5.75000000e+01 5.80000000e+01 5.85000000e+01 5.90000000e+01 5.95000000e+01 6.00000000e+01 6.05000000e+01 6.10000000e+01 6.15000000e+01 6.20000000e+01 6.25000000e+01 6.30000000e+01 6.35000000e+01 6.40000000e+01 6.45000000e+01 6.50000000e+01 6.55000000e+01 6.60000000e+01 6.65000000e+01 6.70000000e+01 6.75000000e+01 6.80000000e+01 6.85000000e+01 6.90000000e+01 6.95000000e+01 7.00000000e+01 7.05000000e+01 7.10000000e+01 7.15000000e+01 7.20000000e+01 7.25000000e+01 7.30000000e+01 7.35000000e+01 7.40000000e+01 7.45000000e+01 7.50000000e+01 7.55000000e+01 7.60000000e+01 7.65000000e+01 7.70000000e+01 7.75000000e+01 7.85000000e+01 7.90000000e+01 7.95000000e+01 8.00000000e+01 8.10000000e+01 8.15000000e+01 8.25000000e+01 8.35000000e+01 8.40000000e+01 8.45000000e+01 8.55000000e+01 8.65000000e+01 8.80000000e+01 8.85000000e+01 8.90000000e+01 9.00000000e+01 9.15000000e+01 9.30000000e+01 9.40000000e+01 9.55000000e+01 9.75000000e+01 9.85000000e+01 9.95000000e+01 1.02000000e+02 1.04000000e+02 1.07000000e+02 1.10500000e+02 1.13000000e+02 1.15000000e+02 1.17000000e+02 1.20000000e+02 1.23000000e+02 1.26000000e+02 1.28500000e+02 1.36000000e+02 1.42000000e+02 1.49500000e+02 1.57500000e+02 1.70000000e+02 1.88000000e+02 2.16000000e+02 2.54000000e+02 2.90000000e+02 3.44000000e+02 4.82500000e+02 
            </HistogramBinning>
          </PDF>
        </CumulativePDF_cls1>
        <CumulativePDF_cls2>
          <PDF Name="GaussTransform var0 cls2" MinNSmooth="0" MaxNSmooth="0" InterpolMethod="1" KDE_type="0" KDE_iter="1" KDE_border="1" KDE_finefactor="0.0000000000000000e+00">
            <Histogram Name="Cumulative_Var0_cls2_original" NBins="383" XMin="5.4998998641967773e+00" XMax="5.1150000000000000e+02" HasEquidistantBins="0">
              1.96329289e-04 5.30713005e-04 9.43985011e-04 1.40140881e-03 1.94242853e-03 2.61774915e-03 3.40860267e-03 4.24682070e-03 5.09628328e-03 6.02889620e-03 7.17158010e-03 8.52169655e-03 1.00349821e-02 1.17121823e-02 1.34812500e-02 1.52621493e-02 1.70282405e-02 1.87775567e-02 2.05811616e-02 2.26474945e-02 2.50667837e-02 2.76390444e-02 3.03313565e-02 3.32534611e-02 3.62990536e-02 3.94351110e-02 4.27148528e-02 4.60503884e-02 4.95311320e-02 5.32726571e-02 5.70578352e-02 6.07783161e-02 6.47754148e-02 6.93096519e-02 7.41111338e-02 7.89487883e-02 8.38567391e-02 8.89963433e-02 9.46734324e-02 1.00841612e-01 1.07066013e-01 1.13147832e-01 1.19174756e-01 1.25250146e-01 1.31481931e-01 1.38020068e-01 1.44886687e-01 1.51973426e-01 1.59249499e-01 1.66624770e-01 1.74000040e-01 1.81395024e-01 1.88851357e-01 1.96472317e-01 2.04386726e-01 2.12526008e-01 2.20704958e-01 2.29010969e-01 2.37623006e-01 2.46421441e-01 2.55242139e-01 2.64062852e-01 2.72939801e-01 2.81929225e-01 2.90974885e-01 3.00101995e-01 3.09391946e-01 3.18797201e-01 3.28270137e-01 3.37776899e-01 3.47283691e-01 3.56896847e-01 3.66722733e-01 3.76655012e-01 3.86587292e-01 3.96396846e-01 4.05902982e-01 4.15182769e-01 4.24572796e-01 4.34277833e-01 4.44090337e-01 4.53634650e-01 4.62812811e-01 4.71731305e-01 4.80245292e-01 4.88280654e-01 4.96085882e-01 5.03770053e-01 5.11314690e-01 5.18709660e-01 5.25969803e-01 5.33180177e-01 5.40201664e-01 5.46838820e-01 5.53260624e-01 5.59645295e-01 5.66008925e-01 5.72368681e-01 5.78692436e-01 5.84944189e-01 5.91147065e-01 5.97249091e-01 6.03063345e-01 6.08505607e-01 6.13757670e-01 6.19115472e-01 6.24691486e-01 6.30361736e-01 6.36031985e-01 6.41424119e-01 6.46178305e-01 6.50468409e-01 6.54668510e-01 6.59003317e-01 6.63553238e-01 6.68175578e-01 6.72666907e-01 6.76972985e-01 6.81202948e-01 6.85425580e-01 6.89633727e-01 6.93705142e-01 6.97517455e-01 7.01200247e-01 7.04883039e-01 7.08565831e-01 7.12248623e-01 7.15797663e-01 7.19079256e-01 7.22227156e-01 7.25375056e-01 7.28511333e-01 7.31624484e-01 7.34726071e-01 7.37822890e-01 7.40910351e-01 7.43993104e-01 7.47075796e-01 7.50195920e-01 7.53401220e-01 7.56650865e-01 7.59846628e-01 7.62930870e-01 7.65916407e-01 7.68851042e-01 7.71736026e-01 7.74533212e-01 7.77263999e-01 7.79979825e-01 7.82679319e-01 7.85346210e-01 7.87996829e-01 7.90573299e-01 7.92966545e-01 7.95224309e-01 7.97529578e-01 7.99986482e-01 8.02509725e-01 8.04962754e-01 8.07255983e-01 8.09340000e-01 8.11277509e-01 8.13221931e-01 8.15307498e-01 8.17570627e-01 8.19933236e-01 8.22266102e-01 8.24445367e-01 8.26452255e-01 8.28367352e-01 8.30232680e-01 8.32067549e-01 8.33896637e-01 8.35731924e-01 8.37573290e-01 8.39414716e-01 8.41216624e-01 8.42939675e-01 8.44623327e-01 8.46306920e-01 8.47984850e-01 8.49656105e-01 8.51344943e-01 8.53069127e-01 8.54804158e-01 8.56517375e-01 8.58209014e-01 8.59888554e-01 8.61493647e-01 8.62953722e-01 8.64324450e-01 8.65716934e-01 8.67210209e-01 8.68813634e-01 8.70437682e-01 8.71928871e-01 8.73209834e-01 8.74388039e-01 8.75606418e-01 8.76896739e-01 8.78215909e-01 8.79532576e-01 8.80813599e-01 8.82030785e-01 8.83221805e-01 8.84432018e-01 8.85670841e-01 8.86893809e-01 8.88031542e-01 8.89096379e-01 8.90169621e-01 8.91290843e-01 8.92442286e-01 8.93610001e-01 8.94808650e-01 8.96060348e-01 8.97342026e-01 8.98592412e-01 8.99742067e-01 9.00757790e-01 9.01703835e-01 9.02707279e-01 9.03840542e-01 9.05044973e-01 9.06203806e-01 9.07240510e-01 9.08172250e-01 9.09082294e-01 9.09998536e-01 9.10894275e-01 9.11771774e-01 9.12643909e-01 9.13514555e-01 9.14423645e-01 9.15411711e-01 9.16424394e-01 9.17347610e-01 9.18148220e-01 9.18900549e-01 9.19649720e-01 9.20427620e-01 9.21294153e-01 9.22220111e-01 9.23107207e-01 9.23916459e-01 9.24684525e-01 9.25447404e-01 9.26220596e-01 9.27008450e-01 9.27810550e-01 9.28616107e-01 9.29395974e-01 9.30140555e-01 9.30870891e-01 9.31601226e-01 9.32319999e-01 9.33010399e-01 9.33681428e-01 9.34363961e-01 9.35075223e-01 9.35798585e-01 9.36502874e-01 9.37154293e-01 9.37720895e-01 9.38200712e-01 9.38632965e-01 9.39077437e-01 9.39561725e-01 9.40064073e-01 9.40566421e-01 9.41094995e-01 9.41676080e-01 9.42283392e-01 9.42890704e-01 9.43492770e-01 9.44084287e-01 9.44670618e-01 9.45256948e-01 9.45843220e-01 9.46420133e-01 9.46978211e-01 9.47526872e-01 9.48075533e-01 9.48624194e-01 9.49172795e-01 9.49721456e-01 9.50236797e-01 9.50674593e-01 9.51068580e-01 9.51508105e-01 9.52038169e-01 9.52625751e-01 9.53198612e-01 9.53704953e-01 9.54169333e-01 9.54658031e-01 9.55202758e-01 9.55789089e-01 9.56373692e-01 9.56930935e-01 9.57450032e-01 9.57920015e-01 9.58379567e-01 9.58867669e-01 9.59370017e-01 9.59872365e-01 9.60374653e-01 9.60862935e-01 9.61321890e-01 9.61772084e-01 9.62260664e-01 9.62811112e-01 9.63394105e-01 9.63937044e-01 9.64386165e-01 9.64791894e-01 9.65264440e-01 9.65837300e-01 9.66451108e-01 9.67066824e-01 9.67685878e-01 9.68302906e-01 9.68912363e-01 9.69517410e-01 9.70118046e-01 9.70682085e-01 9.71176863e-01 9.71634328e-01 9.72126603e-01 9.72681046e-01 9.73262250e-01 9.73843515e-01 9.74424720e-01 9.75005984e-01 9.75574076e-01 9.76116002e-01 9.76622760e-01 9.77078795e-01 9.77508485e-01 9.77975428e-01 9.78503227e-01 9.79057014e-01 9.79610741e-01 9.80164468e-01 9.80718195e-01 9.81267214e-01 9.81806874e-01 9.82341766e-01 9.82876658e-01 9.83411610e-01 9.83946502e-01 9.84481394e-01 9.85016346e-01 9.85551238e-01 9.86086130e-01 9.86621022e-01 9.87155974e-01 9.87690866e-01 9.88225758e-01 9.88760710e-01 9.89295602e-01 9.89830494e-01 9.90365446e-01 9.90901530e-01 9.91439939e-01 9.91979539e-01 9.92519200e-01 9.93058801e-01 9.93591368e-01 9.94109809e-01 9.94621158e-01 9.95132565e-01 9.95649815e-01 9.96178806e-01 9.96713758e-01 9.97248650e-01 9.97783542e-01 9.98314679e-01 9.98836994e-01 9.99352872e-01 9.99782979e-01 1.00000000e+00 1.00000000e+00 
            </Histogram>
            <HistogramBinning NBins="383">
              5.49989986e+00 5.50000000e+00 6.50000000e+00 7.00000000e+00 7.50000000e+00 8.00000000e+00 8.50000000e+00 9.00000000e+00 9.50000000e+00 1.00000000e+01 1.05000000e+01 1.10000000e+01 1.15000000e+01 1.20000000e+01 1.25000000e+01 1.30000000e+01 1.35000000e+01 1.40000000e+01 1.45000000e+01 1.50000000e+01 1.55000000e+01 1.60000000e+01 1.65000000e+01 1.70000000e+01 1.75000000e+01 1.80000000e+01 1.85000000e+01 1.90000000e+01 1.95000000e+01 2.00000000e+01 2.05000000e+01 2.10000000e+01 2.15000000e+01 2.20000000e+01 2.25000000e+01 2.30000000e+01 2.35000000e+01 2.40000000e+01 2.45000000e+01 2.50000000e+01 2.55000000e+01 2.60000000e+01 2.65000000e+01 2.70000000e+01 2.75000000e+01 2.80000000e+01 2.85000000e+01 2.90000000e+01 2.95000000e+01 3.00000000e+01 3.05000000e+01 3.10000000e+01 3.15000000e+01 3.20000000e+01 3.25000000e+01 3.30000000e+01 3.35000000e+01 3.40000000e+01 3.45000000e+01 3.50000000e+01 3.55000000e+01 3.60000000e+01 3.65000000e+01 3.70000000e+01 3.75000000e+01 3.80000000e+01 3.85000000e+01 3.90000000e+01 3.95000000e+01 4.00000000e+01 4.05000000e+01 4.10000000e+01 4.15000000e+01 4.20000000e+01 4.25000000e+01 4.30000000e+01 4.35000000e+01 4.40000000e+01 4.45000000e+01 4.50000000e+01 4.55000000e+01 4.60000000e+01 4.65000000e+01 4.70000000e+01 4.75000000e+01 4.80000000e+01 4.85000000e+01 4.90000000e+01 4.95000000e+01 5.00000000e+01 5.05000000e+01 5.10000000e+01 5.15000000e+01 5.20000000e+01 5.25000000e+01 5.30000000e+01 5.35000000e+01 5.40000000e+01 5.45000000e+01 5.50000000e+01 5.55000000e+01 5.60000000e+01 5.65000000e+01 5.70000000e+01 5.75000000e+01 5.80000000e+01 5.85000000e+01 5.90000000e+01 5.95000000e+01 6.00000000e+01 6.05000000e+01 6.10000000e+01 6.15000000e+01 6.20000000e+01 6.25000000e+01 6.30000000e+01 6.35000000e+01 6.40000000e+01 6.45000000e+01 6.50000000e+01 6.55000000e+01 6.60000000e+01 6.65000000e+01 6.70000000e+01 6.75000000e+01 6.80000000e+01 6.85000000e+01 6.90000000e+01 6.95000000e+01 7.00000000e+01 7.05000000e+01 7.10000000e+01 7.15000000e+01 7.20000000e+01 7.25000000e+01 7.30000000e+01 7.35000000e+01 7.40000000e+01 7.45000000e+01 7.50000000e+01 7.55000000e+01 7.60000000e+01 7.65000000e+01 7.70000000e+01 7.75000000e+01 7.80000000e+01 7.85000000e+01 7.90000000e+01 7.95000000e+01 8.00000000e+01 8.05000000e+01 8.10000000e+01 8.15000000e+01 8.20000000e+01 8.25000000e+01 8.30000000e+01 8.35000000e+01 8.40000000e+01 8.45000000e+01 8.50000000e+01 8.55000000e+01 8.60000000e+01 8.65000000e+01 8.70000000e+01 8.75000000e+01 8.80000000e+01 8.85000000e+01 8.90000000e+01 8.95000000e+01 9.00000000e+01 9.05000000e+01 9.10000000e+01 9.15000000e+01 9.20000000e+01 9.25000000e+01 9.30000000e+01 9.35000000e+01 9.40000000e+01 9.45000000e+01 9.50000000e+01 9.55000000e+01 9.60000000e+01 9.65000000e+01 9.70000000e+01 9.75000000e+01 9.80000000e+01 9.85000000e+01 9.90000000e+01 9.95000000e+01 1.00000000e+02 1.00500000e+02 1.01000000e+02 1.01500000e+02 1.02000000e+02 1.02500000e+02 1.03000000e+02 1.03500000e+02 1.04000000e+02 1.04500000e+02 1.05000000e+02 1.05500000e+02 1.06000000e+02 1.06500000e+02 1.07000000e+02 1.07500000e+02 1.08000000e+02 1.08500000e+02 1.09000000e+02 1.09500000e+02 1.10000000e+02 1.10500000e+02 1.11000000e+02 1.11500000e+02 1.12000000e+02 1.12500000e+02 1.13000000e+02 1.13500000e+02 1.14000000e+02 1.14500000e+02 1.15000000e+02 1.15500000e+02 1.16000000e+02 1.16500000e+02 1.17000000e+02 1.17500000e+02 1.18000000e+02 1.18500000e+02 1.19000000e+02 1.19500000e+02 1.20000000e+02 1.20500000e+02 1.21000000e+02 1.21500000e+02 1.22000000e+02 1.22500000e+02 1.23000000e+02 1.23500000e+02 1.24000000e+02 1.24500000e+02 1.25000000e+02 1.25500000e+02 1.26000000e+02 1.26500000e+02 1.27000000e+02 1.27500000e+02 1.28000000e+02 1.28500000e+02 1.29000000e+02 1.29500000e+02 1.30000000e+02 1.30500000e+02 1.31000000e+02 1.31500000e+02 1.32000000e+02 1.32500000e+02 1.33000000e+02 1.33500000e+02 1.34000000e+02 1.34500000e+02 1.35000000e+02 1.35500000e+02 1.36000000e+02 1.36500000e+02 1.37000000e+02 1.37500000e+02 1.38000000e+02 1.38500000e+02 1.39000000e+02 1.39500000e+02 1.40000000e+02 1.40500000e+02 1.41000000e+02 1.41500000e+02 1.42000000e+02 1.42500000e+02 1.43000000e+02 1.43500000e+02 1.44000000e+02 1.44500000e+02 1.45000000e+02 1.45500000e+02 1.46000000e+02 1.46500000e+02 1.47000000e+02 1.47500000e+02 1.48000000e+02 1.48500000e+02 1.49000000e+02 1.49500000e+02 1.50000000e+02 1.50500000e+02 1.51000000e+02 1.52000000e+02 1.52500000e+02 1.53000000e+02 1.53500000e+02 1.54500000e+02 1.55000000e+02 1.55500000e+02 1.56000000e+02 1.56500000e+02 1.57000000e+02 1.57500000e+02 1.58500000e+02 1.59000000e+02 1.59500000e+02 1.60000000e+02 1.61000000e+02 1.61500000e+02 1.62500000e+02 1.63000000e+02 1.63500000e+02 1.64500000e+02 1.65500000e+02 1.67000000e+02 1.67500000e+02 1.68000000e+02 1.69500000e+02 1.70500000e+02 1.71500000e+02 1.72500000e+02 1.73000000e+02 1.74000000e+02 1.75500000e+02 1.76500000e+02 1.77500000e+02 1.79500000e+02 1.80500000e+02 1.82000000e+02 1.83500000e+02 1.85000000e+02 1.86500000e+02 1.88000000e+02 1.89500000e+02 1.91000000e+02 1.92000000e+02 1.94000000e+02 1.96000000e+02 1.98000000e+02 1.99000000e+02 2.02000000e+02 2.03000000e+02 2.06000000e+02 2.07500000e+02 2.10000000e+02 2.12000000e+02 2.14000000e+02 2.16500000e+02 2.18500000e+02 2.20500000e+02 2.24500000e+02 2.26500000e+02 2.28500000e+02 2.33500000e+02 2.37000000e+02 2.41500000e+02 2.46500000e+02 2.51500000e+02 2.55500000e+02 2.59500000e+02 2.63500000e+02 2.65500000e+02 2.68500000e+02 2.72500000e+02 2.78000000e+02 2.82000000e+02 2.85500000e+02 2.90500000e+02 2.95000000e+02 3.01500000e+02 3.05500000e+02 3.12000000e+02 3.19500000e+02 3.29500000e+02 3.38500000e+02 3.44000000e+02 3.52500000e+02 3.68000000e+02 3.83500000e+02 4.11500000e+02 4.29000000e+02 4.80000000e+02 5.11500000e+02 5.11500000e+02 
            </HistogramBinning>
          </PDF>
        </CumulativePDF_cls2>
      </Variable>
      <Variable VarIndex="1">
        <CumulativePDF_cls0>
          <PDF Name="GaussTransform var1 cls0" MinNSmooth="0" MaxNSmooth="0" InterpolMethod="1" KDE_type="0" KDE_iter="1" KDE_border="1" KDE_finefactor="0.0000000000000000e+00">
            <Histogram Name="Cumulative_Var1_cls0_original" NBins="301" XMin="5.4998998641967773e+00" XMax="5.1150000000000000e+02" HasEquidistantBins="0">
              0.00000000e+00 3.39571678e-04 9.58077260e-04 1.79487898e-03 2.79742386e-03 4.02635010e-03 5.48974238e-03 7.24419625e-03 9.44332685e-03 1.19577749e-02 1.45530729e-02 1.73302833e-02 2.04874929e-02 2.38953363e-02 2.74082869e-02 3.10950652e-02 3.51052433e-02 3.94792520e-02 4.40230444e-02 4.86476868e-02 5.34097776e-02 5.82688861e-02 6.31765053e-02 6.81892261e-02 7.33474866e-02 7.87159503e-02 8.43754783e-02 9.02654305e-02 9.63251665e-02 1.02465756e-01 1.08598262e-01 1.14985444e-01 1.21890068e-01 1.29069582e-01 1.36410803e-01 1.44026905e-01 1.51917905e-01 1.60099968e-01 1.68427557e-01 1.76755145e-01 1.85022101e-01 1.93167776e-01 2.01252818e-01 2.09337860e-01 2.17620984e-01 2.26401344e-01 2.35581905e-01 2.45089233e-01 2.55087525e-01 2.65243888e-01 2.74813652e-01 2.83571094e-01 2.91995734e-01 3.00420344e-01 3.08986425e-01 3.17835510e-01 3.26826066e-01 3.35816652e-01 3.44645500e-01 3.53080899e-01 3.61227244e-01 3.69482756e-01 3.78079832e-01 3.86811674e-01 3.95295590e-01 4.03380632e-01 4.11260843e-01 4.19281214e-01 4.27576452e-01 4.35990959e-01 4.44401413e-01 4.52809870e-01 4.61218297e-01 4.69626755e-01 4.77885634e-01 4.85803574e-01 4.93408889e-01 5.00744700e-01 5.07879794e-01 5.14978409e-01 5.22093296e-01 5.29208124e-01 5.36322951e-01 5.43437779e-01 5.50504088e-01 5.57473421e-01 5.64394176e-01 5.71314991e-01 5.78235805e-01 5.85160613e-01 5.91867149e-01 5.98124981e-01 6.04140282e-01 6.10123217e-01 6.16085887e-01 6.21959686e-01 6.27550483e-01 6.32763982e-01 6.37729585e-01 6.42692447e-01 6.47907257e-01 6.53421283e-01 6.59048438e-01 6.64675653e-01 6.70076430e-01 6.75024509e-01 6.79746151e-01 6.84467852e-01 6.89197600e-01 6.93946838e-01 6.98709607e-01 7.03434646e-01 7.08081543e-01 7.12669790e-01 7.17152953e-01 7.21486509e-01 7.25755453e-01 7.30038464e-01 7.34349847e-01 7.38618731e-01 7.42758274e-01 7.46789992e-01 7.50856817e-01 7.55104125e-01 7.59437740e-01 7.63588011e-01 7.67495155e-01 7.71346986e-01 7.75227785e-01 7.79108644e-01 7.82973289e-01 7.86740899e-01 7.90363014e-01 7.93871880e-01 7.97283769e-01 8.00647140e-01 8.04042876e-01 8.07518125e-01 8.11052620e-01 8.14479291e-01 8.17652702e-01 8.20660353e-01 8.23587120e-01 8.26384544e-01 8.29036415e-01 8.31611514e-01 8.34238470e-01 8.37008297e-01 8.39853525e-01 8.42592359e-01 8.45147252e-01 8.47605050e-01 8.49945724e-01 8.52100372e-01 8.54170144e-01 8.56239915e-01 8.58309686e-01 8.60379457e-01 8.62538159e-01 8.64785790e-01 8.66944492e-01 8.69014263e-01 8.71035516e-01 8.72959733e-01 8.74835491e-01 8.76711249e-01 8.78612578e-01 8.80580604e-01 8.82578254e-01 8.84451985e-01 8.86106014e-01 8.87636781e-01 8.89189124e-01 8.90851974e-01 8.92636716e-01 8.94460559e-01 8.96191478e-01 8.97759259e-01 8.99230778e-01 9.00657773e-01 9.02028203e-01 9.03406680e-01 9.04857934e-01 9.06345606e-01 9.07833219e-01 9.09320891e-01 9.10808504e-01 9.12296176e-01 9.13872778e-01 9.15538251e-01 9.17171478e-01 9.18715715e-01 9.20098245e-01 9.21351433e-01 9.22547996e-01 9.23631430e-01 9.24553096e-01 9.25393939e-01 9.26234782e-01 9.27075624e-01 9.27916467e-01 9.28757310e-01 9.29598153e-01 9.30438995e-01 9.31279838e-01 9.32165146e-01 9.33191955e-01 9.34364319e-01 9.35568988e-01 9.36745346e-01 9.37909603e-01 9.38992977e-01 9.39914703e-01 9.40755546e-01 9.41596389e-01 9.42437232e-01 9.43310380e-01 9.44248259e-01 9.45137620e-01 9.45865273e-01 9.46512043e-01 9.47158873e-01 9.47805703e-01 9.48452473e-01 9.49115455e-01 9.49810743e-01 9.50522244e-01 9.51233745e-01 9.51945245e-01 9.52704549e-01 9.53572750e-01 9.54493999e-01 9.55329955e-01 9.56032634e-01 9.56679463e-01 9.57326233e-01 9.57973063e-01 9.58591580e-01 9.59153473e-01 9.59755838e-01 9.60495591e-01 9.61267710e-01 9.61967051e-01 9.62630033e-01 9.63293016e-01 9.63935792e-01 9.64538097e-01 9.65120256e-01 9.65702355e-01 9.66300666e-01 9.66931283e-01 9.67578113e-01 9.68224883e-01 9.68871713e-01 9.69534695e-01 9.70246136e-01 9.71006155e-01 9.71782327e-01 9.72569942e-01 9.73385394e-01 9.74172115e-01 9.74836648e-01 9.75408018e-01 9.76007640e-01 9.76698935e-01 9.77445424e-01 9.78170395e-01 9.78841424e-01 9.79488254e-01 9.80135083e-01 9.80781853e-01 9.81428683e-01 9.82075453e-01 9.82738435e-01 9.83433723e-01 9.84145224e-01 9.84856725e-01 9.85568225e-01 9.86263514e-01 9.86926496e-01 9.87573266e-01 9.88220096e-01 9.88866925e-01 9.89513695e-01 9.90160525e-01 9.90807295e-01 9.91454124e-01 9.92100894e-01 9.92747724e-01 9.93394494e-01 9.94041324e-01 9.94688153e-01 9.95334923e-01 9.95981753e-01 9.96628523e-01 9.97275352e-01 9.97922122e-01 9.98568952e-01 9.99187469e-01 9.99692798e-01 1.00000000e+00 
            </Histogram>
            <HistogramBinning NBins="301">
              5.49989986e+00 5.50000000e+00 6.50000000e+00 7.00000000e+00 7.50000000e+00 8.00000000e+00 8.50000000e+00 9.00000000e+00 9.50000000e+00 1.00000000e+01 1.05000000e+01 1.10000000e+01 1.15000000e+01 1.20000000e+01 1.25000000e+01 1.30000000e+01 1.35000000e+01 1.40000000e+01 1.45000000e+01 1.50000000e+01 1.55000000e+01 1.60000000e+01 1.65000000e+01 1.70000000e+01 1.75000000e+01 1.80000000e+01 1.85000000e+01 1.90000000e+01 1.95000000e+01 2.00000000e+01 2.05000000e+01 2.10000000e+01 2.15000000e+01 2.20000000e+01 2.25000000e+01 2.30000000e+01 2.35000000e+01 2.40000000e+01 2.45000000e+01 2.50000000e+01 2.55000000e+01 2.60000000e+01 2.65000000e+01 2.70000000e+01 2.75000000e+01 2.80000000e+01 2.85000000e+01 2.90000000e+01 2.95000000e+01 3.00000000e+01 3.05000000e+01 3.10000000e+01 3.15000000e+01 3.20000000e+01 3.25000000e+01 3.30000000e+01 3.35000000e+01 3.40000000e+01 3.45000000e+01 3.50000000e+01 3.55000000e+01 3.60000000e+01 3.65000000e+01 3.70000000e+01 3.75000000e+01 3.80000000e+01 3.85000000e+01 3.90000000e+01 3.95000000e+01 4.00000000e+01 4.05000000e+01 4.10000000e+01 4.15000000e+01 4.20000000e+01 4.25000000e+01 4.30000000e+01 4.35000000e+01 4.40000000e+01 4.45000000e+01 4.50000000e+01 4.55000000e+01 4.60000000e+01 4.65000000e+01 4.70000000e+01 4.75000000e+01 4.80000000e+01 4.85000000e+01 4.90000000e+01 4.95000000e+01 5.00000000e+01 5.05000000e+01 5.10000000e+01 5.15000000e+01 5.20000000e+01 5.25000000e+01 5.30000000e+01 5.35000000e+01 5.40000000e+01 5.45000000e+01 5.50000000e+01 5.55000000e+01 5.60000000e+01 5.65000000e+01 5.70000000e+01 5.75000000e+01 5.80000000e+01 5.85000000e+01 5.90000000e+01 5.95000000e+01 6.00000000e+01 6.05000000e+01 6.10000000e+01 6.15000000e+01 6.20000000e+01 6.25000000e+01 6.30000000e+01 6.35000000e+01 6.40000000e+01 6.45000000e+01 6.50000000e+01 6.55000000e+01 6.60000000e+01 6.65000000e+01 6.70000000e+01 6.75000000e+01 6.80000000e+01 6.85000000e+01 6.90000000e+01 6.95000000e+01 7.00000000e+01 7.05000000e+01 7.10000000e+01 7.15000000e+01 7.20000000e+01 7.25000000e+01 7.30000000e+01 7.35000000e+01 7.40000000e+01 7.45000000e+01 7.50000000e+01 7.55000000e+01 7.60000000e+01 7.65000000e+01 7.70000000e+01 7.75000000e+01 7.80000000e+01 7.85000000e+01 7.90000000e+01 7.95000000e+01 8.00000000e+01 8.05000000e+01 8.10000000e+01 8.15000000e+01 8.20000000e+01 8.25000000e+01 8.30000000e+01 8.35000000e+01 8.40000000e+01 8.45000000e+01 8.50000000e+01 8.55000000e+01 8.60000000e+01 8.65000000e+01 8.70000000e+01 8.75000000e+01 8.80000000e+01 8.85000000e+01 8.90000000e+01 8.95000000e+01 9.00000000e+01 9.05000000e+01 9.10000000e+01 9.15000000e+01 9.20000000e+01 9.25000000e+01 9.30000000e+01 9.35000000e+01 9.40000000e+01 9.45000000e+01 9.50000000e+01 9.55000000e+01 9.60000000e+01 9.65000000e+01 9.70000000e+01 9.75000000e+01 9.80000000e+01 9.85000000e+01 9.90000000e+01 9.95000000e+01 1.00000000e+02 1.00500000e+02 1.01000000e+02 1.01500000e+02 1.02000000e+02 1.02500000e+02 1.03000000e+02 1.03500000e+02 1.04000000e+02 1.04500000e+02 1.05000000e+02 1.05500000e+02 1.06000000e+02 1.06500000e+02 1.07000000e+02 1.07500000e+02 1.08000000e+02 1.08500000e+02 1.09000000e+02 1.09500000e+02 1.10000000e+02 1.10500000e+02 1.11000000e+02 1.11500000e+02 1.12000000e+02 1.12500000e+02 1.13000000e+02 1.13500000e+02 1.14000000e+02 1.14500000e+02 1.15000000e+02 1.15500000e+02 1.16000000e+02 1.16500000e+02 1.17000000e+02 1.17500000e+02 1.18000000e+02 1.18500000e+02 1.19000000e+02 1.19500000e+02 1.20000000e+02 1.20500000e+02 1.21500000e+02 1.22000000e+02 1.22500000e+02 1.23000000e+02 1.23500000e+02 1.24000000e+02 1.24500000e+02 1.25000000e+02 1.25500000e+02 1.26000000e+02 1.26500000e+02 1.27000000e+02 1.27500000e+02 1.28000000e+02 1.28500000e+02 1.29000000e+02 1.29500000e+02 1.30500000e+02 1.31000000e+02 1.32000000e+02 1.33000000e+02 1.34000000e+02 1.34500000e+02 1.35500000e+02 1.36000000e+02 1.36500000e+02 1.37500000e+02 1.38000000e+02 1.39000000e+02 1.40000000e+02 1.41000000e+02 1.42000000e+02 1.43000000e+02 1.43500000e+02 1.45000000e+02 1.46500000e+02 1.47500000e+02 1.48500000e+02 1.49500000e+02 1.50500000e+02 1.52500000e+02 1.53500000e+02 1.55500000e+02 1.57500000e+02 1.60000000e+02 1.62000000e+02 1.63000000e+02 1.65000000e+02 1.67500000e+02 1.69000000e+02 1.72000000e+02 1.75500000e+02 1.79500000e+02 1.84000000e+02 1.88000000e+02 1.92000000e+02 1.99500000e+02 2.14000000e+02 2.22500000e+02 2.43000000e+02 2.55500000e+02 2.61000000e+02 2.67500000e+02 2.78000000e+02 2.85000000e+02 2.94000000e+02 3.09500000e+02 3.25500000e+02 3.51500000e+02 4.19000000e+02 5.11500000e+02 
            </HistogramBinning>
          </PDF>
        </CumulativePDF_cls0>
        <CumulativePDF_cls1>
          <PDF Name="GaussTransform var1 cls1" MinNSmooth="0" MaxNSmooth="0" InterpolMethod="1" KDE_type="0" KDE_iter="1" KDE_border="1" KDE_finefactor="0.0000000000000000e+00">
            <Histogram Name="Cumulative_Var1_cls1_original" NBins="156" XMin="5.4998998641967773e+00" XMax="4.2850000000000000e+02" HasEquidistantBins="0">
              1.40963402e-03 2.81926803e-03 4.22890205e-03 5.67769259e-03 7.20479619e-03 8.96683894e-03 1.13162296e-02 1.42529672e-02 1.74344331e-02 2.07137894e-02 2.41987165e-02 2.81143654e-02 3.24607380e-02 3.69588360e-02 4.14047316e-02 4.59158830e-02 5.08120768e-02 5.63200898e-02 6.23240843e-02 6.83802888e-02 7.42537603e-02 8.00489187e-02 8.60398635e-02 9.24223661e-02 9.91181284e-02 1.06048822e-01 1.13096990e-01 1.20301783e-01 1.27819821e-01 1.35465130e-01 1.43090859e-01 1.50922149e-01 1.59145012e-01 1.67641968e-01 1.76559851e-01 1.86123833e-01 1.95991263e-01 2.05858693e-01 2.15726122e-01 2.25593552e-01 2.35460997e-01 2.45680824e-01 2.56644636e-01 2.68195808e-01 2.80099362e-01 2.92159557e-01 3.04376394e-01 3.16906452e-01 3.29573572e-01 3.42193395e-01 3.55289608e-01 3.69495243e-01 3.84555817e-01 4.00022626e-01 4.15685207e-01 4.31543589e-01 4.47930574e-01 4.64944065e-01 4.82212067e-01 4.99480069e-01 5.16699135e-01 5.33663690e-01 5.50266027e-01 5.66711724e-01 5.83157480e-01 5.99524856e-01 6.15735650e-01 6.31868124e-01 6.48000598e-01 6.64133072e-01 6.79913104e-01 6.94988370e-01 7.09711194e-01 7.24277377e-01 7.38412917e-01 7.51755476e-01 7.64099538e-01 7.75454938e-01 7.85479009e-01 7.94289172e-01 8.02688241e-01 8.11056316e-01 8.19417834e-01 8.27418864e-01 8.34688902e-01 8.41666877e-01 8.48325133e-01 8.53882074e-01 8.58486235e-01 8.63220930e-01 8.68751764e-01 8.74546945e-01 8.79539371e-01 8.83435428e-01 8.86881232e-01 8.90291095e-01 8.93629193e-01 8.97009730e-01 9.00559902e-01 9.04162288e-01 9.07562375e-01 9.10688341e-01 9.13546801e-01 9.16052818e-01 9.18284714e-01 9.20399189e-01 9.22503829e-01 9.24667239e-01 9.26892638e-01 9.29195285e-01 9.31349933e-01 9.33039129e-01 9.34373677e-01 9.35626686e-01 9.36931908e-01 9.38341558e-01 9.39832747e-01 9.41291332e-01 9.42596555e-01 9.43849564e-01 9.45255935e-01 9.46859181e-01 9.48545098e-01 9.50148344e-01 9.51578081e-01 9.52892542e-01 9.54224408e-01 9.55635667e-01 9.57113862e-01 9.58650708e-01 9.60226774e-01 9.61822391e-01 9.63418067e-01 9.64994073e-01 9.66628850e-01 9.68400717e-01 9.70172524e-01 9.71807301e-01 9.73373592e-01 9.74939823e-01 9.76506114e-01 9.78072345e-01 9.79638636e-01 9.81204867e-01 9.82771158e-01 9.84337389e-01 9.85903680e-01 9.87469912e-01 9.89036202e-01 9.90602434e-01 9.92168725e-01 9.93734956e-01 9.95301247e-01 9.96867478e-01 9.98433769e-01 1.00000000e+00 
            </Histogram>
            <HistogramBinning NBins="156">
              5.49989986e+00 5.50000000e+00 6.50000000e+00 7.00000000e+00 7.50000000e+00 8.00000000e+00 8.50000000e+00 9.00000000e+00 9.50000000e+00 1.00000000e+01 1.05000000e+01 1.10000000e+01 1.15000000e+01 1.20000000e+01 1.25000000e+01 1.30000000e+01 1.35000000e+01 1.40000000e+01 1.45000000e+01 1.50000000e+01 1.55000000e+01 1.60000000e+01 1.65000000e+01 1.70000000e+01 1.75000000e+01 1.80000000e+01 1.85000000e+01 1.90000000e+01 1.95000000e+01 2.00000000e+01 2.05000000e+01 2.10000000e+01 2.15000000e+01 2.20000000e+01 2.25000000e+01 2.30000000e+01 2.35000000e+01 2.40000000e+01 2.45000000e+01 2.50000000e+01 2.55000000e+01 2.60000000e+01 2.65000000e+01 2.70000000e+01 2.75000000e+01 2.80000000e+01 2.85000000e+01 2.90000000e+01 2.95000000e+01 3.00000000e+01 3.05000000e+01 3.10000000e+01 3.15000000e+01 3.20000000e+01 3.25000000e+01 3.30000000e+01 3.35000000e+01 3.40000000e+01 3.45000000e+01 3.50000000e+01 3.55000000e+01 3.60000000e+01 3.65000000e+01 3.70000000e+01 3.75000000e+01 3.80000000e+01 3.85000000e+01 3.90000000e+01 3.95000000e+01 4.00000000e+01 4.05000000e+01 4.10000000e+01 4.15000000e+01 4.20000000e+01 4.25000000e+01 4.30000000e+01 4.35000000e+01 4.40000000e+01 4.45000000e+01 4.50000000e+01 4.55000000e+01 4.60000000e+01 4.65000000e+01 4.70000000e+01 4.75000000e+01 4.80000000e+01 4.85000000e+01 4.90000000e+01 4.95000000e+01 5.00000000e+01 5.05000000e+01 5.10000000e+01 5.15000000e+01 5.20000000e+01 5.25000000e+01 5.30000000e+01 5.35000000e+01 5.40000000e+01 5.45000000e+01 5.50000000e+01 5.55000000e+01 5.60000000e+01 5.65000000e+01 5.70000000e+01 5.75000000e+01 5.80000000e+01 5.85000000e+01 5.90000000e+01 5.95000000e+01 6.00000000e+01 6.05000000e+01 6.10000000e+01 6.15000000e+01 6.20000000e+01 6.25000000e+01 6.30000000e+01 6.35000000e+01 6.40000000e+01 6.50000000e+01 6.55000000e+01 6.60000000e+01 6.70000000e+01 6.75000000e+01 6.80000000e+01 6.85000000e+01 6.90000000e+01 6.95000000e+01 7.00000000e+01 7.05000000e+01 7.10000000e+01 7.15000000e+01 7.25000000e+01 7.30000000e+01 7.45000000e+01 7.55000000e+01 7.70000000e+01 7.90000000e+01 8.10000000e+01 8.25000000e+01 8.45000000e+01 8.65000000e+01 8.95000000e+01 9.20000000e+01 9.55000000e+01 9.90000000e+01 1.02500000e+02 1.08500000e+02 1.13000000e+02 1.19000000e+02 1.27000000e+02 1.33000000e+02 1.48500000e+02 1.63000000e+02 1.90500000e+02 2.62000000e+02 3.77500000e+02 4.28500000e+02 
            </HistogramBinning>
          </PDF>
        </CumulativePDF_cls1>
        <CumulativePDF_cls2>
          <PDF Name="GaussTransform var1 cls2" MinNSmooth="0" MaxNSmooth="0" InterpolMethod="1" KDE_type="0" KDE_iter="1" KDE_border="1" KDE_finefactor="0.0000000000000000e+00">
            <Histogram Name="Cumulative_Var1_cls2_original" NBins="282" XMin="5.4998998641967773e+00" XMax="5.1150000000000000e+02" HasEquidistantBins="0">
              0.00000000e+00 2.77007086e-04 8.70688353e-04 1.82916876e-03 2.99273734e-03 4.21756273e-03 5.64329978e-03 7.49626523e-03 9.87479836e-03 1.26687931e-02 1.56795308e-02 1.88550726e-02 2.22755577e-02 2.60066818e-02 2.99339499e-02 3.38967666e-02 3.80017757e-02 4.24824581e-02 4.74286601e-02 5.27414009e-02 5.81781231e-02 6.36000484e-02 6.90219775e-02 7.45030940e-02 8.01101476e-02 8.60372484e-02 9.25667435e-02 9.95947421e-02 1.06664762e-01 1.13531932e-01 1.20361514e-01 1.27343372e-01 1.34559751e-01 1.42043874e-01 1.49832219e-01 1.58068016e-01 1.66687250e-01 1.75448701e-01 1.84357375e-01 1.93508491e-01 2.02786207e-01 2.12045476e-01 2.21393481e-01 2.30995923e-01 2.40829825e-01 2.50827581e-01 2.61032820e-01 2.71693140e-01 2.82845914e-01 2.94161320e-01 3.05480421e-01 3.16854745e-01 3.28314751e-01 3.39842975e-01 3.51626903e-01 3.63922268e-01 3.76626462e-01 3.89534235e-01 4.02538806e-01 4.15479928e-01 4.28255409e-01 4.40938264e-01 4.53568608e-01 4.66128230e-01 4.78546172e-01 4.90740091e-01 5.02822042e-01 5.14903963e-01 5.26985824e-01 5.39218783e-01 5.51753759e-01 5.64179480e-01 5.76084614e-01 5.87729514e-01 5.99316239e-01 6.10599518e-01 6.21220350e-01 6.31158888e-01 6.40504479e-01 6.49025977e-01 6.56848729e-01 6.64444983e-01 6.71972811e-01 6.79433942e-01 6.86840713e-01 6.94184303e-01 7.01496959e-01 7.08425701e-01 7.14586735e-01 7.20363915e-01 7.26201475e-01 7.32145369e-01 7.38100469e-01 7.43698657e-01 7.48672545e-01 7.53344297e-01 7.57956386e-01 7.62424648e-01 7.66783416e-01 7.71115899e-01 7.75447547e-01 7.79779136e-01 7.84110725e-01 7.88409472e-01 7.92615056e-01 7.96568573e-01 8.00166190e-01 8.03600788e-01 8.07037473e-01 8.10478330e-01 8.13926041e-01 8.17259133e-01 8.20335984e-01 8.23242545e-01 8.26115489e-01 8.29002559e-01 8.31909120e-01 8.34732354e-01 8.37340891e-01 8.39788079e-01 8.42251956e-01 8.44822466e-01 8.47446978e-01 8.50055635e-01 8.52734387e-01 8.55605125e-01 8.58607471e-01 8.61572087e-01 8.64382744e-01 8.67065966e-01 8.69714856e-01 8.72360468e-01 8.74999583e-01 8.77570271e-01 8.79934788e-01 8.82018149e-01 8.83896947e-01 8.85711253e-01 8.87525618e-01 8.89386594e-01 8.91346812e-01 8.93330753e-01 8.95175636e-01 8.96834731e-01 8.98394704e-01 8.99904191e-01 9.01400447e-01 9.02957857e-01 9.04598653e-01 9.06264424e-01 9.07864809e-01 9.09367263e-01 9.10816193e-01 9.12238121e-01 9.13625836e-01 9.14989233e-01 9.16345835e-01 9.17702496e-01 9.19050395e-01 9.20390308e-01 9.21730876e-01 9.23008323e-01 9.24157560e-01 9.25228894e-01 9.26286280e-01 9.27342415e-01 9.28398609e-01 9.29457605e-01 9.30523276e-01 9.31580067e-01 9.32583570e-01 9.33519423e-01 9.34420407e-01 9.35305476e-01 9.36210334e-01 9.37177896e-01 9.38174725e-01 9.39119399e-01 9.39992189e-01 9.40847456e-01 9.41710651e-01 9.42573845e-01 9.43409204e-01 9.44187701e-01 9.44935858e-01 9.45682764e-01 9.46427822e-01 9.47171092e-01 9.47914302e-01 9.48704362e-01 9.49543417e-01 9.50384557e-01 9.51225698e-01 9.52017009e-01 9.52754974e-01 9.53489542e-01 9.54164445e-01 9.54720020e-01 9.55215931e-01 9.55711842e-01 9.56207752e-01 9.56703663e-01 9.57175612e-01 9.57592130e-01 9.57978487e-01 9.58400548e-01 9.58934486e-01 9.59617555e-01 9.60377991e-01 9.61103022e-01 9.61759031e-01 9.62370038e-01 9.62938190e-01 9.63470936e-01 9.64002013e-01 9.64551866e-01 9.65110838e-01 9.65667307e-01 9.66222525e-01 9.66777742e-01 9.67332959e-01 9.67881382e-01 9.68416214e-01 9.68944311e-01 9.69472349e-01 9.70000446e-01 9.70548809e-01 9.71145988e-01 9.71776366e-01 9.72392023e-01 9.72972572e-01 9.73523498e-01 9.74046528e-01 9.74555671e-01 9.75064754e-01 9.75557029e-01 9.76015508e-01 9.76494431e-01 9.77047920e-01 9.77622986e-01 9.78166759e-01 9.78694797e-01 9.79222894e-01 9.79750991e-01 9.80291724e-01 9.80857849e-01 9.81436670e-01 9.82015491e-01 9.82581615e-01 9.83122408e-01 9.83650446e-01 9.84173894e-01 9.84687984e-01 9.85197484e-01 9.85706985e-01 9.86224473e-01 9.86758113e-01 9.87299740e-01 9.87841368e-01 9.88374949e-01 9.88892496e-01 9.89401996e-01 9.89911437e-01 9.90422189e-01 9.90938842e-01 9.91463542e-01 9.91991580e-01 9.92519677e-01 9.93047774e-01 9.93580043e-01 9.94120836e-01 9.94665861e-01 9.95214283e-01 9.95769501e-01 9.96328115e-01 9.96886730e-01 9.97437954e-01 9.97971237e-01 9.98489141e-01 9.98999894e-01 9.99504328e-01 1.00000000e+00 
            </Histogram>
            <HistogramBinning NBins="282">
              5.49989986e+00 5.50000000e+00 6.00000000e+00 6.50000000e+00 7.00000000e+00 7.50000000e+00 8.00000000e+00 8.50000000e+00 9.00000000e+00 9.50000000e+00 1.00000000e+01 1.05000000e+01 1.10000000e+01 1.15000000e+01 1.20000000e+01 1.25000000e+01 1.30000000e+01 1.35000000e+01 1.40000000e+01 1.45000000e+01 1.50000000e+01 1.55000000e+01 1.60000000e+01 1.65000000e+01 1.70000000e+01 1.75000000e+01 1.80000000e+01 1.85000000e+01 1.90000000e+01 1.95000000e+01 2.00000000e+01 2.05000000e+01 2.10000000e+01 2.15000000e+01 2.20000000e+01 2.25000000e+01 2.30000000e+01 2.35000000e+01 2.40000000e+01 2.45000000e+01 2.50000000e+01 2.55000000e+01 2.60000000e+01 2.65000000e+01 2.70000000e+01 2.75000000e+01 2.80000000e+01 2.85000000e+01 2.90000000e+01 2.95000000e+01 3.00000000e+01 3.05000000e+01 3.10000000e+01 3.15000000e+01 3.20000000e+01 3.25000000e+01 3.30000000e+01 3.35000000e+01 3.40000000e+01 3.45000000e+01 3.50000000e+01 3.55000000e+01 3.60000000e+01 3.65000000e+01 3.70000000e+01 3.75000000e+01 3.80000000e+01 3.85000000e+01 3.90000000e+01 3.95000000e+01 4.00000000e+01 4.05000000e+01 4.10000000e+01 4.15000000e+01 4.20000000e+01 4.25000000e+01 4.30000000e+01 4.35000000e+01 4.40000000e+01 4.45000000e+01 4.50000000e+01 4.55000000e+01 4.60000000e+01 4.65000000e+01 4.70000000e+01 4.75000000e+01 4.80000000e+01 4.85000000e+01 4.90000000e+01 4.95000000e+01 5.00000000e+01 5.05000000e+01 5.10000000e+01 5.15000000e+01 5.20000000e+01 5.25000000e+01 5.30000000e+01 5.35000000e+01 5.40000000e+01 5.45000000e+01 5.50000000e+01 5.55000000e+01 5.60000000e+01 5.65000000e+01 5.70000000e+01 5.75000000e+01 5.80000000e+01 5.85000000e+01 5.90000000e+01 5.95000000e+01 6.00000000e+01 6.05000000e+01 6.10000000e+01 6.15000000e+01 6.20000000e+01 6.25000000e+01 6.30000000e+01 6.35000000e+01 6.40000000e+01 6.45000000e+01 6.50000000e+01 6.55000000e+01 6.60000000e+01 6.65000000e+01 6.70000000e+01 6.75000000e+01 6.80000000e+01 6.85000000e+01 6.90000000e+01 6.95000000e+01 7.00000000e+01 7.05000000e+01 7.10000000e+01 7.15000000e+01 7.20000000e+01 7.25000000e+01 7.30000000e+01 7.35000000e+01 7.40000000e+01 7.45000000e+01 7.50000000e+01 7.55000000e+01 7.60000000e+01 7.65000000e+01 7.70000000e+01 7.75000000e+01 7.80000000e+01 7.85000000e+01 7.90000000e+01 7.95000000e+01 8.00000000e+01 8.05000000e+01 8.10000000e+01 8.15000000e+01 8.20000000e+01 8.25000000e+01 8.30000000e+01 8.35000000e+01 8.40000000e+01 8.45000000e+01 8.50000000e+01 8.55000000e+01 8.60000000e+01 8.65000000e+01 8.70000000e+01 8.75000000e+01 8.80000000e+01 8.85000000e+01 8.90000000e+01 8.95000000e+01 9.00000000e+01 9.05000000e+01 9.10000000e+01 9.15000000e+01 9.20000000e+01 9.25000000e+01 9.30000000e+01 9.35000000e+01 9.40000000e+01 9.45000000e+01 9.50000000e+01 9.55000000e+01 9.60000000e+01 9.65000000e+01 9.70000000e+01 9.75000000e+01 9.80000000e+01 9.85000000e+01 9.90000000e+01 9.95000000e+01 1.00000000e+02 1.00500000e+02 1.01000000e+02 1.01500000e+02 1.02000000e+02 1.02500000e+02 1.03000000e+02 1.03500000e+02 1.04000000e+02 1.04500000e+02 1.05000000e+02 1.05500000e+02 1.06500000e+02 1.07000000e+02 1.07500000e+02 1.08000000e+02 1.08500000e+02 1.09000000e+02 1.09500000e+02 1.10000000e+02 1.10500000e+02 1.11000000e+02 1.11500000e+02 1.12000000e+02 1.12500000e+02 1.13000000e+02 1.13500000e+02 1.14000000e+02 1.14500000e+02 1.15000000e+02 1.15500000e+02 1.16000000e+02 1.17000000e+02 1.17500000e+02 1.18500000e+02 1.19000000e+02 1.20000000e+02 1.21000000e+02 1.21500000e+02 1.22000000e+02 1.23000000e+02 1.23500000e+02 1.24500000e+02 1.25000000e+02 1.25500000e+02 1.26500000e+02 1.27000000e+02 1.27500000e+02 1.28500000e+02 1.29000000e+02 1.29500000e+02 1.30500000e+02 1.32000000e+02 1.33000000e+02 1.34000000e+02 1.35500000e+02 1.36000000e+02 1.37000000e+02 1.38000000e+02 1.39500000e+02 1.41000000e+02 1.42500000e+02 1.43500000e+02 1.45500000e+02 1.47000000e+02 1.48500000e+02 1.49500000e+02 1.52000000e+02 1.53000000e+02 1.55500000e+02 1.57500000e+02 1.61000000e+02 1.63000000e+02 1.65000000e+02 1.67500000e+02 1.71000000e+02 1.76000000e+02 1.82000000e+02 1.86500000e+02 1.91500000e+02 2.01000000e+02 2.16000000e+02 2.41000000e+02 2.55500000e+02 2.61000000e+02 2.65000000e+02 2.75000000e+02 2.88500000e+02 3.05500000e+02 3.19000000e+02 3.77500000e+02 4.19000000e+02 5.11500000e+02 
            </HistogramBinning>
          </PDF>
        </CumulativePDF_cls2>
      </Variable>
      <Variable VarIndex="2">
        <CumulativePDF_cls0>
          <PDF Name="GaussTransform var2 cls0" MinNSmooth="0" MaxNSmooth="0" InterpolMethod="1" KDE_type="0" KDE_iter="1" KDE_border="1" KDE_finefactor="0.0000000000000000e+00">
            <Histogram Name="Cumulative_Var2_cls0_original" NBins="1131" XMin="-8.5801000595092773e+00" XMax="8.9399995803833008e+00" HasEquidistantBins="0">
              0.00000000e+00 4.21894685e-04 1.10130955e-03 1.89578650e-03 2.75053433e-03 3.62719852e-03 4.50386293e-03 5.38052712e-03 6.23527495e-03 7.04618916e-03 7.83518702e-03 8.62418488e-03 9.44149215e-03 1.03256134e-02 1.12505248e-02 1.21328207e-02 1.29259275e-02 1.36811379e-02 1.45002706e-02 1.54207684e-02 1.63850989e-02 1.73494294e-02 1.83137599e-02 1.92780904e-02 2.02424228e-02 2.11848356e-02 2.20834166e-02 2.29600817e-02 2.38367449e-02 2.47134101e-02 2.55900733e-02 2.64667384e-02 2.73434035e-02 2.82200668e-02 2.90967319e-02 2.99459994e-02 3.07386499e-02 3.15020792e-02 3.22508961e-02 3.29686664e-02 3.36699970e-02 3.43713276e-02 3.50945778e-02 3.58616561e-02 3.66944894e-02 3.76149863e-02 3.85793187e-02 3.95436473e-02 4.05079797e-02 4.14723083e-02 4.24366407e-02 4.34009694e-02 4.43433858e-02 4.52419668e-02 4.61186282e-02 4.69952933e-02 4.78719585e-02 4.87486236e-02 4.96472046e-02 5.05896173e-02 5.15539497e-02 5.25182784e-02 5.34826107e-02 5.44469394e-02 5.53893559e-02 5.62879369e-02 5.71645983e-02 5.80412634e-02 5.89179285e-02 5.97945936e-02 6.06712587e-02 6.15479201e-02 6.24245852e-02 6.33231699e-02 6.42655790e-02 6.52299076e-02 6.61942437e-02 6.71585724e-02 6.80955052e-02 6.89758211e-02 6.98269233e-02 7.06634000e-02 7.14688376e-02 7.22578391e-02 7.30468333e-02 7.38358349e-02 7.46467486e-02 7.55014941e-02 7.63781592e-02 7.72548243e-02 7.81314895e-02 7.89204836e-02 7.95341507e-02 8.00601467e-02 8.05861503e-02 8.11559781e-02 8.18134770e-02 8.25148076e-02 8.32380578e-02 8.40051398e-02 8.47941339e-02 8.55831355e-02 8.64159614e-02 8.73510763e-02 8.83446261e-02 8.92797336e-02 9.01125669e-02 9.09015611e-02 9.16905627e-02 9.24795568e-02 9.32685584e-02 9.40575525e-02 9.48903859e-02 9.58108827e-02 9.67752114e-02 9.77395475e-02 9.86819565e-02 9.95805413e-02 1.00457206e-01 1.01333871e-01 1.02210537e-01 1.03087194e-01 1.03941947e-01 1.04752861e-01 1.05541855e-01 1.06330857e-01 1.07119851e-01 1.07908852e-01 1.08729810e-01 1.09632961e-01 1.10597290e-01 1.11509107e-01 1.12289131e-01 1.13009483e-01 1.13813244e-01 1.14745617e-01 1.15731865e-01 1.16718113e-01 1.17704354e-01 1.18707038e-01 1.19698770e-01 1.20663099e-01 1.21627428e-01 1.22547925e-01 1.23424590e-01 1.24301255e-01 1.25156000e-01 1.25966921e-01 1.26755923e-01 1.27544910e-01 1.28333911e-01 1.29139349e-01 1.30018756e-01 1.31015047e-01 1.32081658e-01 1.33119032e-01 1.34083375e-01 1.35014817e-01 1.35946274e-01 1.36885047e-01 1.37838408e-01 1.38853878e-01 1.39993548e-01 1.41192570e-01 1.42291144e-01 1.43233553e-01 1.44110218e-01 1.44986883e-01 1.45928383e-01 1.47025123e-01 1.48223236e-01 1.49362892e-01 1.50378361e-01 1.51296124e-01 1.52128041e-01 1.52917042e-01 1.53706044e-01 1.54495031e-01 1.55262113e-01 1.55985370e-01 1.56686693e-01 1.57388031e-01 1.58089355e-01 1.58867404e-01 1.59798861e-01 1.60807014e-01 1.61815181e-01 1.62768558e-01 1.63612351e-01 1.64401338e-01 1.65190339e-01 1.65979341e-01 1.66834086e-01 1.67820334e-01 1.68872327e-01 1.69924334e-01 1.70932487e-01 1.71852991e-01 1.72729656e-01 1.73578918e-01 1.74371570e-01 1.75135002e-01 1.75905734e-01 1.76689252e-01 1.77478254e-01 1.78267255e-01 1.79143906e-01 1.80195913e-01 1.81215033e-01 1.81993067e-01 1.82705358e-01 1.83527231e-01 1.84403896e-01 1.85280561e-01 1.86157227e-01 1.87033892e-01 1.87910557e-01 1.88765302e-01 1.89576223e-01 1.90365210e-01 1.91154212e-01 1.91943213e-01 1.92732215e-01 1.93592429e-01 1.94596946e-01 1.95674509e-01 1.96766689e-01 1.97889924e-01 1.99029580e-01 2.00169250e-01 2.01243162e-01 2.02185571e-01 2.03062236e-01 2.03944385e-01 2.04837486e-01 2.05736056e-01 2.06612721e-01 2.07445562e-01 2.08229989e-01 2.08954155e-01 2.09655479e-01 2.10429877e-01 2.11310193e-01 2.12222472e-01 2.13110998e-01 2.13987663e-01 2.14864329e-01 2.15740994e-01 2.16617659e-01 2.17466921e-01 2.18261406e-01 2.19138071e-01 2.20277727e-01 2.21592724e-01 2.22847462e-01 2.23959729e-01 2.25011721e-01 2.26063713e-01 2.27049962e-01 2.27904707e-01 2.28693709e-01 2.29482710e-01 2.30271712e-01 2.31060699e-01 2.31849700e-01 2.32638702e-01 2.33405784e-01 2.34129027e-01 2.34830365e-01 2.35531688e-01 2.36276850e-01 2.37109691e-01 2.37986356e-01 2.38863021e-01 2.39718676e-01 2.40530193e-01 2.41333202e-01 2.42203161e-01 2.43161112e-01 2.44140044e-01 2.45045930e-01 2.45849550e-01 2.46616617e-01 2.47398317e-01 2.48187318e-01 2.48998225e-01 2.49852970e-01 2.50729650e-01 2.51606315e-01 2.52478391e-01 2.53372729e-01 2.54334003e-01 2.55330592e-01 2.56264806e-01 2.57097632e-01 2.57886618e-01 2.58675635e-01 2.59464622e-01 2.60297447e-01 2.61217952e-01 2.62182295e-01 2.63146609e-01 2.64110953e-01 2.65005410e-01 2.65742213e-01 2.66407162e-01 2.67207891e-01 2.68248171e-01 2.69424200e-01 2.70528406e-01 2.71474928e-01 2.72351593e-01 2.73228258e-01 2.74148762e-01 2.75156915e-01 2.76208907e-01 2.77260900e-01 2.78312922e-01 2.79364914e-01 2.80416906e-01 2.81468898e-01 2.82455146e-01 2.83309907e-01 2.84098893e-01 2.84887880e-01 2.85676897e-01 2.86487818e-01 2.87342548e-01 2.88219213e-01 2.89095879e-01 2.89972544e-01 2.90871114e-01 2.91813552e-01 2.92777866e-01 2.93742210e-01 2.94706523e-01 2.95670867e-01 2.96635181e-01 2.97621429e-01 2.98673451e-01 2.99771100e-01 3.00850481e-01 3.01953614e-01 3.03151727e-01 3.04379046e-01 3.05489510e-01 3.06442887e-01 3.07350427e-01 3.08286607e-01 3.09199661e-01 3.10042053e-01 3.10849339e-01 3.11623722e-01 3.12325060e-01 3.12986642e-01 3.13696980e-01 3.14499825e-01 3.15383643e-01 3.16337019e-01 3.17323238e-01 3.18309486e-01 3.19295734e-01 3.20254594e-01 3.21158648e-01 3.22035313e-01 3.22911978e-01 3.23788643e-01 3.24645221e-01 3.25505465e-01 3.26440573e-01 3.27404886e-01 3.28272432e-01 3.29019427e-01 3.29720736e-01 3.30422074e-01 3.31145316e-01 3.31912398e-01 3.32701415e-01 3.33490402e-01 3.34279388e-01 3.35090309e-01 3.35945070e-01 3.36821735e-01 3.37695658e-01 3.38564098e-01 3.39451730e-01 3.40416044e-01 3.41475368e-01 3.42561126e-01 3.43568385e-01 3.44431341e-01 3.45168293e-01 3.45861405e-01 3.46609324e-01 3.47447634e-01 3.48324299e-01 3.49200964e-01 3.50077629e-01 3.50954294e-01 3.51830959e-01 3.52707624e-01 3.53584290e-01 3.54460955e-01 3.55337620e-01 3.56214285e-01 3.57090950e-01 3.57967585e-01 3.58844250e-01 3.59720916e-01 3.60643715e-01 3.61668169e-01 3.62730354e-01 3.63683581e-01 3.64455670e-01 3.65123689e-01 3.65839154e-01 3.66666049e-01 3.67542714e-01 3.68419379e-01 3.69291484e-01 3.70154440e-01 3.71034771e-01 3.71991783e-01 3.73043805e-01 3.74117702e-01 3.75103951e-01 3.75976950e-01 3.76763225e-01 3.77463639e-01 3.78175944e-01 3.78997803e-01 3.79896373e-01 3.80844265e-01 3.81826878e-01 3.82816762e-01 3.83777440e-01 3.84681523e-01 3.85558188e-01 3.86434823e-01 3.87311488e-01 3.88188154e-01 3.89064819e-01 3.89941484e-01 3.90818149e-01 3.91694814e-01 3.92571479e-01 3.93448144e-01 3.94324809e-01 3.95195991e-01 3.96078140e-01 3.97042483e-01 3.98158401e-01 3.99433225e-01 4.00761008e-01 4.01917100e-01 4.02799249e-01 4.03529793e-01 4.04231131e-01 4.04961675e-01 4.05739725e-01 4.06532377e-01 4.07321364e-01 4.08132285e-01 4.08987015e-01 4.09863681e-01 4.10740346e-01 4.11617011e-01 4.12493676e-01 4.13348436e-01 4.14159358e-01 4.14948344e-01 4.15737331e-01 4.16526347e-01 4.17315334e-01 4.18104321e-01 4.18893337e-01 4.19682324e-01 4.20515150e-01 4.21435654e-01 4.22421902e-01 4.23451990e-01 4.24503982e-01 4.25555974e-01 4.26607966e-01 4.27616149e-01 4.28536654e-01 4.29413319e-01 4.30289984e-01 4.31144714e-01 4.31955636e-01 4.32744622e-01 4.33533639e-01 4.34300721e-01 4.35023963e-01 4.35725302e-01 4.36426610e-01 4.37127948e-01 4.37829286e-01 4.38530624e-01 4.39231932e-01 4.39933270e-01 4.40634608e-01 4.41401690e-01 4.42300260e-01 4.43264604e-01 4.44228917e-01 4.45149422e-01 4.45982248e-01 4.46771264e-01 4.47560251e-01 4.48349267e-01 4.49160159e-01 4.50014919e-01 4.50891584e-01 4.51896101e-01 4.53198910e-01 4.54672188e-01 4.55975026e-01 4.56979513e-01 4.57856178e-01 4.58732843e-01 4.59472537e-01 4.59938258e-01 4.60369289e-01 4.61004883e-01 4.61764663e-01 4.62626696e-01 4.63634878e-01 4.64686871e-01 4.65621978e-01 4.66380835e-01 4.67057526e-01 4.67812717e-01 4.68712211e-01 4.69676554e-01 4.70640868e-01 4.71577823e-01 4.72459942e-01 4.73314703e-01 4.74169463e-01 4.75057065e-01 4.76010442e-01 4.76996690e-01 4.77982938e-01 4.78969187e-01 4.79906112e-01 4.80744421e-01 4.81533438e-01 4.82322425e-01 4.83111441e-01 4.83944267e-01 4.84880269e-01 4.85883892e-01 4.86855507e-01 4.87732172e-01 4.88534868e-01 4.89321142e-01 4.90110129e-01 4.90899116e-01 4.91731972e-01 4.92674381e-01 4.93704468e-01 4.94756460e-01 4.95808452e-01 4.96860445e-01 4.97912437e-01 4.98964429e-01 5.00016451e-01 5.00925958e-01 5.01693070e-01 5.02514958e-01 5.03303945e-01 5.04005253e-01 5.04706621e-01 5.05407929e-01 5.06109238e-01 5.06876349e-01 5.07774889e-01 5.08739233e-01 5.09703577e-01 5.10613143e-01 5.11408508e-01 5.12141824e-01 5.12882411e-01 5.13668656e-01 5.14517903e-01 5.15394568e-01 5.16271234e-01 5.17147899e-01 5.18024564e-01 5.18901229e-01 5.19843638e-01 5.20851851e-01 5.21860003e-01 5.22868156e-01 5.23810565e-01 5.24687231e-01 5.25563896e-01 5.26440561e-01 5.27317226e-01 5.28193891e-01 5.29070556e-01 5.29947221e-01 5.30823886e-01 5.31678617e-01 5.32489538e-01 5.33278525e-01 5.34067512e-01 5.34856558e-01 5.35645545e-01 5.36434531e-01 5.37223518e-01 5.38012505e-01 5.38801551e-01 5.39648056e-01 5.40631592e-01 5.41683555e-01 5.42601347e-01 5.43305397e-01 5.43919027e-01 5.44532716e-01 5.45299828e-01 5.46373725e-01 5.47601044e-01 5.48828363e-01 5.50011873e-01 5.51107705e-01 5.52039146e-01 5.52729547e-01 5.53430855e-01 5.54395199e-01 5.55381417e-01 5.56148529e-01 5.56882739e-01 5.57770371e-01 5.58734655e-01 5.59698999e-01 5.60663342e-01 5.61572909e-01 5.62372863e-01 5.63117981e-01 5.63863158e-01 5.64608335e-01 5.65364480e-01 5.66142499e-01 5.66931486e-01 5.67720473e-01 5.68509459e-01 5.69298506e-01 5.70109427e-01 5.70964158e-01 5.71840823e-01 5.72717488e-01 5.73555768e-01 5.74304581e-01 5.75002313e-01 5.75751126e-01 5.76589406e-01 5.77466071e-01 5.78362823e-01 5.79299748e-01 5.80191016e-01 5.80921590e-01 5.81535280e-01 5.82178175e-01 5.82916021e-01 5.83677590e-01 5.84399045e-01 5.85078418e-01 5.85714042e-01 5.86327672e-01 5.86941361e-01 5.87554991e-01 5.88234425e-01 5.89045346e-01 5.89922011e-01 5.90798676e-01 5.91675341e-01 5.92552006e-01 5.93428671e-01 5.94305336e-01 5.95209420e-01 5.96168220e-01 5.97154498e-01 5.98140717e-01 5.99094093e-01 5.99981725e-01 6.00836456e-01 6.01620018e-01 6.02261066e-01 6.02907598e-01 6.03707552e-01 6.04584217e-01 6.05473697e-01 6.06396019e-01 6.07301891e-01 6.08120084e-01 6.08909130e-01 6.09779358e-01 6.10764682e-01 6.11816704e-01 6.12810254e-01 6.13679588e-01 6.14508808e-01 6.15324259e-01 6.16046607e-01 6.16682172e-01 6.17295861e-01 6.17909551e-01 6.18566990e-01 6.19356036e-01 6.20276511e-01 6.21240854e-01 6.22216105e-01 6.23147607e-01 6.23936594e-01 6.24637902e-01 6.25426888e-01 6.26369357e-01 6.27372026e-01 6.28363729e-01 6.29344523e-01 6.30314350e-01 6.31256759e-01 6.32155299e-01 6.33031964e-01 6.33908629e-01 6.34785295e-01 6.35661960e-01 6.36670113e-01 6.37941301e-01 6.39190555e-01 6.40132964e-01 6.40921950e-01 6.41710937e-01 6.42499983e-01 6.43310845e-01 6.44165635e-01 6.45042300e-01 6.45918965e-01 6.46827579e-01 6.47812605e-01 6.48847580e-01 6.49854481e-01 6.50757670e-01 6.51546657e-01 6.52280867e-01 6.52993143e-01 6.53694451e-01 6.54395819e-01 6.55097127e-01 6.55842304e-01 6.56675100e-01 6.57551765e-01 6.58428431e-01 6.59305096e-01 6.60181761e-01 6.61058426e-01 6.61935091e-01 6.62811756e-01 6.63754165e-01 6.64828122e-01 6.65967762e-01 6.67107463e-01 6.68247104e-01 6.69359386e-01 6.70416832e-01 6.71415865e-01 6.72352791e-01 6.73214853e-01 6.73974633e-01 6.74675941e-01 6.75428450e-01 6.76268578e-01 6.77145243e-01 6.78021908e-01 6.78876638e-01 6.79687560e-01 6.80476546e-01 6.81265533e-01 6.82066441e-01 6.82858169e-01 6.83588743e-01 6.84290051e-01 6.85052574e-01 6.85892224e-01 6.86755657e-01 6.87626421e-01 6.88516319e-01 6.89414859e-01 6.90313458e-01 6.91184640e-01 6.92001045e-01 6.92790031e-01 6.93579018e-01 6.94368064e-01 6.95272088e-01 6.96422696e-01 6.97704852e-01 6.98921204e-01 7.00022519e-01 7.01074541e-01 7.02126503e-01 7.03178525e-01 7.04230487e-01 7.05282509e-01 7.06361890e-01 7.07496107e-01 7.08657682e-01 7.09819257e-01 7.10975349e-01 7.12120473e-01 7.13260174e-01 7.14399815e-01 7.15539455e-01 7.16655433e-01 7.17658103e-01 7.18476295e-01 7.19177663e-01 7.19908178e-01 7.20733702e-01 7.21583009e-01 7.22392082e-01 7.23181069e-01 7.23970056e-01 7.24759042e-01 7.25548089e-01 7.26402819e-01 7.27389038e-01 7.28441060e-01 7.29493082e-01 7.30523109e-01 7.31509387e-01 7.32473731e-01 7.33438075e-01 7.34424293e-01 7.35454381e-01 7.36506343e-01 7.37558365e-01 7.38610387e-01 7.39684284e-01 7.40802050e-01 7.41941690e-01 7.43081331e-01 7.44111419e-01 7.44885802e-01 7.45514095e-01 7.46288478e-01 7.47318566e-01 7.48458207e-01 7.49597907e-01 7.50693738e-01 7.51658022e-01 7.52472639e-01 7.53214121e-01 7.53984869e-01 7.54828632e-01 7.55705297e-01 7.56691575e-01 7.57907033e-01 7.59250343e-01 7.60586321e-01 7.61871219e-01 7.63098538e-01 7.64212608e-01 7.65103579e-01 7.65832603e-01 7.66603053e-01 7.67506182e-01 7.68470526e-01 7.69434869e-01 7.70360827e-01 7.71203697e-01 7.71999121e-01 7.72809088e-01 7.73650169e-01 7.74532318e-01 7.75469244e-01 7.76433587e-01 7.77397871e-01 7.78334796e-01 7.79216945e-01 7.80071735e-01 7.80926466e-01 7.81857908e-01 7.82942772e-01 7.84104347e-01 7.85265923e-01 7.86405623e-01 7.87452161e-01 7.88378119e-01 7.89254785e-01 7.90131450e-01 7.91008115e-01 7.91884780e-01 7.92761445e-01 7.93626249e-01 7.94467270e-01 7.95340300e-01 7.96319246e-01 7.97371209e-01 7.98394024e-01 7.99355567e-01 8.00296187e-01 8.01236749e-01 8.02112520e-01 8.02923441e-01 8.03789139e-01 8.04720581e-01 8.05662990e-01 8.06572556e-01 8.07449222e-01 8.08325887e-01 8.09202552e-01 8.10079217e-01 8.10917497e-01 8.11666310e-01 8.12363982e-01 8.13112855e-01 8.13951135e-01 8.14827800e-01 8.15704465e-01 8.16581130e-01 8.17501605e-01 8.18531692e-01 8.19654942e-01 8.20811033e-01 8.21967125e-01 8.23112309e-01 8.24164271e-01 8.25040936e-01 8.25829923e-01 8.26618910e-01 8.27423453e-01 8.28204215e-01 8.28876376e-01 8.29490006e-01 8.30206871e-01 8.31082642e-01 8.32025051e-01 8.32967460e-01 8.33909869e-01 8.34879696e-01 8.35860431e-01 8.36780965e-01 8.37657630e-01 8.38534296e-01 8.39410901e-01 8.40287566e-01 8.41164231e-01 8.42040896e-01 8.42917562e-01 8.43794227e-01 8.44670892e-01 8.45547557e-01 8.46446157e-01 8.47388566e-01 8.48352909e-01 8.49317253e-01 8.50281596e-01 8.51245880e-01 8.52210224e-01 8.53174567e-01 8.54095042e-01 8.54927897e-01 8.55716884e-01 8.56505871e-01 8.57294858e-01 8.58105779e-01 8.58966053e-01 8.59859109e-01 8.60757709e-01 8.61640751e-01 8.62459898e-01 8.63190472e-01 8.63891780e-01 8.64666164e-01 8.65556538e-01 8.66496205e-01 8.67365539e-01 8.68118048e-01 8.68819356e-01 8.69520724e-01 8.70222032e-01 8.70923340e-01 8.71624708e-01 8.72347951e-01 8.73115003e-01 8.73903990e-01 8.74693036e-01 8.75502110e-01 8.76307547e-01 8.77038121e-01 8.77739429e-01 8.78537536e-01 8.79456222e-01 8.80420566e-01 8.81384909e-01 8.82349193e-01 8.83269727e-01 8.84102523e-01 8.84891570e-01 8.85680556e-01 8.86491477e-01 8.87346208e-01 8.88222873e-01 8.89099538e-01 8.89976203e-01 8.90852869e-01 8.91729534e-01 8.92606199e-01 8.93482864e-01 8.94359529e-01 8.95236194e-01 8.96112859e-01 8.97011399e-01 8.97959292e-01 8.98934603e-01 8.99904430e-01 9.00868773e-01 9.01833057e-01 9.02775466e-01 9.03674066e-01 9.04501438e-01 9.05230165e-01 9.05975342e-01 9.06852007e-01 9.07777965e-01 9.08671081e-01 9.09547746e-01 9.10424411e-01 9.11301076e-01 9.12199616e-01 9.13142025e-01 9.14106369e-01 9.15070713e-01 9.16035056e-01 9.16999400e-01 9.17963684e-01 9.18928027e-01 9.19892371e-01 9.20856714e-01 9.21820998e-01 9.22785342e-01 9.23710406e-01 9.24547493e-01 9.25346851e-01 9.26227808e-01 9.27229583e-01 9.28281546e-01 9.29333568e-01 9.30385530e-01 9.31437552e-01 9.32445705e-01 9.33366179e-01 9.34242845e-01 9.35119510e-01 9.35996175e-01 9.36872840e-01 9.37749505e-01 9.38626170e-01 9.39502835e-01 9.40379500e-01 9.41256166e-01 9.42132831e-01 9.43009496e-01 9.43886161e-01 9.44762826e-01 9.45639491e-01 9.46516156e-01 9.47374582e-01 9.48189139e-01 9.48978126e-01 9.49798167e-01 9.50673044e-01 9.51593518e-01 9.52557862e-01 9.53545928e-01 9.54537630e-01 9.55487370e-01 9.56334829e-01 9.57123816e-01 9.57971275e-01 9.58913684e-01 9.59885299e-01 9.60849643e-01 9.61813986e-01 9.62723494e-01 9.63523448e-01 9.64268625e-01 9.65013802e-01 9.65813756e-01 9.66723263e-01 9.67687607e-01 9.68651950e-01 9.69616294e-01 9.70580578e-01 9.71544921e-01 9.72509265e-01 9.73473608e-01 9.74437952e-01 9.75402236e-01 9.76366580e-01 9.77330923e-01 9.78295267e-01 9.79204774e-01 9.80004728e-01 9.80749905e-01 9.81495082e-01 9.82229292e-01 9.82969880e-01 9.83701348e-01 9.84344244e-01 9.84957874e-01 9.85704005e-01 9.86608982e-01 9.87573266e-01 9.88537610e-01 9.89501953e-01 9.90466297e-01 9.91299093e-01 9.92000461e-01 9.92833257e-01 9.93797600e-01 9.94761944e-01 9.95726287e-01 9.96690571e-01 9.97632980e-01 9.98509645e-01 9.99298692e-01 1.00000000e+00 
            </Histogram>
            <HistogramBinning NBins="1131">
              -8.58010006e+00 -8.57999992e+00 -7.91750002e+00 -7.70499992e+00 -7.35500002e+00 -7.17999983e+00 -7.11499977e+00 -6.89699984e+00 -6.82999992e+00 -6.70100021e+00 -6.65500021e+00 -6.59000015e+00 -6.52600002e+00 -6.48000002e+00 -6.41499996e+00 -6.30499983e+00 -6.26319981e+00 -6.18699980e+00 -6.17600012e+00 -6.13000011e+00 -6.06500006e+00 -6.00099993e+00 -5.98999977e+00 -5.90000010e+00 -5.88999987e+00 -5.83370018e+00 -5.82600021e+00 -5.81599998e+00 -5.81500006e+00 -5.72879982e+00 -5.66200018e+00 -5.65100002e+00 -5.65000010e+00 -5.64160013e+00 -5.56559992e+00 -5.55000019e+00 -5.48699999e+00 -5.47840023e+00 -5.47599983e+00 -5.46719980e+00 -5.40150023e+00 -5.38000011e+00 -5.37820005e+00 -5.34749985e+00 -5.31050014e+00 -5.29279995e+00 -5.29040003e+00 -5.23600006e+00 -5.22650003e+00 -5.20559978e+00 -5.20319986e+00 -5.15000010e+00 -5.11999989e+00 -5.11719990e+00 -5.11539984e+00 -5.05149984e+00 -5.03060007e+00 -5.02880001e+00 -5.02500010e+00 -4.98600006e+00 -4.94399977e+00 -4.94220018e+00 -4.94099998e+00 -4.93249989e+00 -4.86240005e+00 -4.85500002e+00 -4.85379982e+00 -4.84999990e+00 -4.81150007e+00 -4.78079987e+00 -4.76900005e+00 -4.76719999e+00 -4.76599979e+00 -4.70499992e+00 -4.69360018e+00 -4.68249989e+00 -4.68060017e+00 -4.67939997e+00 -4.65799999e+00 -4.61000013e+00 -4.59399986e+00 -4.59159994e+00 -4.56150007e+00 -4.51849985e+00 -4.51359987e+00 -4.50559998e+00 -4.50439978e+00 -4.45499992e+00 -4.43820000e+00 -4.42640018e+00 -4.41839981e+00 -4.41660023e+00 -4.39750004e+00 -4.36000013e+00 -4.35449982e+00 -4.35099983e+00 -4.33120012e+00 -4.33059978e+00 -4.32999992e+00 -4.29099989e+00 -4.27540016e+00 -4.25759983e+00 -4.24340010e+00 -4.24280024e+00 -4.23350000e+00 -4.19600010e+00 -4.18820000e+00 -4.17659998e+00 -4.15920019e+00 -4.15740013e+00 -4.15679979e+00 -4.15560007e+00 -4.12699986e+00 -4.11140013e+00 -4.10099983e+00 -4.08939981e+00 -4.08319998e+00 -4.07079983e+00 -4.06899977e+00 -4.06780005e+00 -4.03200006e+00 -4.01380014e+00 -4.00220013e+00 -3.99600005e+00 -3.98749995e+00 -3.98239994e+00 -3.98180008e+00 -3.98060012e+00 -3.97300005e+00 -3.93700004e+00 -3.91499996e+00 -3.89639997e+00 -3.89520001e+00 -3.89339995e+00 -3.89249992e+00 -3.86649990e+00 -3.86019993e+00 -3.84980011e+00 -3.83940005e+00 -3.80979991e+00 -3.80859995e+00 -3.80789995e+00 -3.80739999e+00 -3.80620003e+00 -3.77300000e+00 -3.76259995e+00 -3.75219989e+00 -3.74060011e+00 -3.72880006e+00 -3.72259998e+00 -3.72079992e+00 -3.72070003e+00 -3.72020006e+00 -3.68689990e+00 -3.67540002e+00 -3.66499996e+00 -3.65339994e+00 -3.64720011e+00 -3.63540006e+00 -3.63420010e+00 -3.63350010e+00 -3.63299990e+00 -3.63240004e+00 -3.59969997e+00 -3.59859991e+00 -3.58820009e+00 -3.58039999e+00 -3.57780004e+00 -3.56620002e+00 -3.54760003e+00 -3.54640007e+00 -3.54579997e+00 -3.54520011e+00 -3.54460001e+00 -3.51250005e+00 -3.51139998e+00 -3.49320006e+00 -3.49060011e+00 -3.47900009e+00 -3.46160007e+00 -3.46040010e+00 -3.45919991e+00 -3.45799994e+00 -3.45740008e+00 -3.42529988e+00 -3.41380000e+00 -3.40599990e+00 -3.40339994e+00 -3.39820004e+00 -3.39179993e+00 -3.37439990e+00 -3.37260008e+00 -3.37190008e+00 -3.37080002e+00 -3.37019992e+00 -3.33699989e+00 -3.31879997e+00 -3.31620002e+00 -3.31100011e+00 -3.29279995e+00 -3.28539991e+00 -3.28480005e+00 -3.28469992e+00 -3.28360009e+00 -3.28299999e+00 -3.25090003e+00 -3.23939991e+00 -3.23160005e+00 -3.22900009e+00 -3.22639990e+00 -3.21740007e+00 -3.21120000e+00 -3.19939995e+00 -3.19819999e+00 -3.19749999e+00 -3.19700003e+00 -3.19580007e+00 -3.16260004e+00 -3.15219998e+00 -3.14179993e+00 -3.13919997e+00 -3.13660002e+00 -3.13019991e+00 -3.11279988e+00 -3.11159992e+00 -3.11030006e+00 -3.10980010e+00 -3.10920000e+00 -3.07649994e+00 -3.07540011e+00 -3.06500006e+00 -3.05719995e+00 -3.05460000e+00 -3.05200005e+00 -3.04940009e+00 -3.04299998e+00 -3.02440000e+00 -3.02320004e+00 -3.02259994e+00 -3.02200007e+00 -2.98930001e+00 -2.98819995e+00 -2.97779989e+00 -2.97000003e+00 -2.96479988e+00 -2.96219993e+00 -2.95580006e+00 -2.93779993e+00 -2.93659997e+00 -2.93600011e+00 -2.93589997e+00 -2.93540001e+00 -2.93420005e+00 -2.90210009e+00 -2.89059997e+00 -2.88280010e+00 -2.88019991e+00 -2.87759995e+00 -2.87500000e+00 -2.86859989e+00 -2.85120010e+00 -2.84940004e+00 -2.84870005e+00 -2.84820008e+00 -2.84699988e+00 -2.81489992e+00 -2.81380010e+00 -2.80340004e+00 -2.79559994e+00 -2.79299998e+00 -2.79040003e+00 -2.78780007e+00 -2.78139997e+00 -2.76999998e+00 -2.76399994e+00 -2.76220012e+00 -2.76149988e+00 -2.76099992e+00 -2.76040006e+00 -2.75979996e+00 -2.72770000e+00 -2.71620011e+00 -2.70840001e+00 -2.70580006e+00 -2.70320010e+00 -2.70059991e+00 -2.69420004e+00 -2.67499995e+00 -2.67440009e+00 -2.67429996e+00 -2.67379999e+00 -2.67319989e+00 -2.67260003e+00 -2.63940001e+00 -2.62899995e+00 -2.62120008e+00 -2.61859989e+00 -2.61599994e+00 -2.61339998e+00 -2.60700011e+00 -2.58999991e+00 -2.58839989e+00 -2.58710003e+00 -2.58660007e+00 -2.58540010e+00 -2.55220008e+00 -2.54180002e+00 -2.53399992e+00 -2.53139997e+00 -2.52880001e+00 -2.52620006e+00 -2.50119996e+00 -2.49990010e+00 -2.49939990e+00 -2.49819994e+00 -2.46609998e+00 -2.46499991e+00 -2.45460010e+00 -2.44679999e+00 -2.44420004e+00 -2.44160008e+00 -2.43899989e+00 -2.43260002e+00 -2.41459990e+00 -2.41339993e+00 -2.41280007e+00 -2.41269994e+00 -2.41160011e+00 -2.41100001e+00 -2.37779999e+00 -2.36739993e+00 -2.36249995e+00 -2.35700011e+00 -2.35439992e+00 -2.35179996e+00 -2.34540009e+00 -2.32999992e+00 -2.32550001e+00 -2.32500005e+00 -2.32439995e+00 -2.30349994e+00 -2.29169989e+00 -2.29060006e+00 -2.28020000e+00 -2.27239990e+00 -2.26979995e+00 -2.26719999e+00 -2.26460004e+00 -2.25819993e+00 -2.23900008e+00 -2.23839998e+00 -2.23830009e+00 -2.23779988e+00 -2.23659992e+00 -2.23499990e+00 -2.20449996e+00 -2.19300008e+00 -2.18519998e+00 -2.18260002e+00 -2.18000007e+00 -2.17740011e+00 -2.17100000e+00 -2.15499997e+00 -2.15120006e+00 -2.15000010e+00 -2.14940000e+00 -2.11730003e+00 -2.11619997e+00 -2.10579991e+00 -2.09800005e+00 -2.09540009e+00 -2.09279990e+00 -2.09019995e+00 -2.08380008e+00 -2.06459999e+00 -2.06279993e+00 -2.06220007e+00 -2.04299998e+00 -2.03010011e+00 -2.01859999e+00 -2.01079988e+00 -2.00819993e+00 -2.00559998e+00 -2.00300002e+00 -1.99660003e+00 -1.97669995e+00 -1.97619998e+00 -1.97500002e+00 -1.94289994e+00 -1.94180000e+00 -1.93139994e+00 -1.92359996e+00 -1.92100000e+00 -1.91840005e+00 -1.91579998e+00 -1.90939999e+00 -1.89499998e+00 -1.88950002e+00 -1.88900006e+00 -1.88779998e+00 -1.86800003e+00 -1.85459995e+00 -1.84420002e+00 -1.83379996e+00 -1.83120000e+00 -1.82860005e+00 -1.82219994e+00 -1.80499995e+00 -1.80180001e+00 -1.80120003e+00 -1.80060005e+00 -1.77849996e+00 -1.75699997e+00 -1.74919999e+00 -1.74660003e+00 -1.74399996e+00 -1.74140000e+00 -1.71510005e+00 -1.71459997e+00 -1.71000004e+00 -1.68130004e+00 -1.68019998e+00 -1.66980004e+00 -1.66199994e+00 -1.65939999e+00 -1.65680003e+00 -1.65419996e+00 -1.64499998e+00 -1.62790000e+00 -1.62679994e+00 -1.60350001e+00 -1.59410000e+00 -1.59300005e+00 -1.57480001e+00 -1.56959999e+00 -1.56700003e+00 -1.56060004e+00 -1.54069996e+00 -1.53960001e+00 -1.53499997e+00 -1.52900004e+00 -1.50689995e+00 -1.49539995e+00 -1.48759997e+00 -1.48500001e+00 -1.48249996e+00 -1.48239994e+00 -1.47979999e+00 -1.45500004e+00 -1.45350003e+00 -1.42850006e+00 -1.41970003e+00 -1.41859996e+00 -1.40040004e+00 -1.39779997e+00 -1.39520001e+00 -1.39260006e+00 -1.38619995e+00 -1.36629999e+00 -1.36000001e+00 -1.35399997e+00 -1.33249998e+00 -1.33140004e+00 -1.32099998e+00 -1.31320000e+00 -1.31060004e+00 -1.30799997e+00 -1.30750000e+00 -1.30540001e+00 -1.27999997e+00 -1.27909994e+00 -1.24530005e+00 -1.24419999e+00 -1.22599995e+00 -1.22340000e+00 -1.22080004e+00 -1.21819997e+00 -1.21179998e+00 -1.19190001e+00 -1.18499994e+00 -1.16799998e+00 -1.15810001e+00 -1.14660001e+00 -1.13619995e+00 -1.13360000e+00 -1.13250005e+00 -1.13100004e+00 -1.11500001e+00 -1.07089996e+00 -1.06980002e+00 -1.05159998e+00 -1.04999995e+00 -1.04639995e+00 -1.04380000e+00 -1.03999996e+00 -1.00399995e+00 -9.92999971e-01 -9.82599974e-01 -9.72199976e-01 -9.61799979e-01 -9.59200025e-01 -9.57499981e-01 -9.56600010e-01 -9.44999993e-01 -9.30299997e-01 -8.96499991e-01 -8.84999990e-01 -8.74599993e-01 -8.71999979e-01 -8.69400024e-01 -8.39999974e-01 -8.38500023e-01 -8.28999996e-01 -8.09300005e-01 -7.97800004e-01 -7.90000021e-01 -7.84799993e-01 -7.82199979e-01 -7.55900025e-01 -7.17499971e-01 -7.04999983e-01 -6.99999988e-01 -6.97600007e-01 -6.94999993e-01 -6.68699980e-01 -6.65000021e-01 -6.53999984e-01 -6.33800030e-01 -6.25999987e-01 -6.10400021e-01 -6.07800007e-01 -5.88500023e-01 -5.81499994e-01 -5.78000009e-01 -5.31000018e-01 -5.24999976e-01 -5.23199975e-01 -5.20600021e-01 -4.94300008e-01 -4.67500001e-01 -4.62000012e-01 -4.60500002e-01 -4.35999990e-01 -4.33400005e-01 -4.24499989e-01 -4.14000005e-01 -3.67000014e-01 -3.49999994e-01 -3.48800004e-01 -3.46199989e-01 -3.22499990e-01 -3.03499997e-01 -2.86100000e-01 -2.61599988e-01 -2.60500014e-01 -2.50000000e-01 -2.39999995e-01 -2.01499999e-01 -1.74999997e-01 -1.74400002e-01 -1.71800002e-01 -1.64000005e-01 -1.39500007e-01 -1.06500000e-01 -8.72000009e-02 -8.46000016e-02 0.00000000e+00 8.46000016e-02 8.72000009e-02 9.49999988e-02 1.06500000e-01 1.39500007e-01 1.64000005e-01 1.71800002e-01 1.74400002e-01 1.74999997e-01 1.79600000e-01 2.01499999e-01 2.39999995e-01 2.59000003e-01 2.61599988e-01 2.66799986e-01 2.86100000e-01 3.03499997e-01 3.28000009e-01 3.48800004e-01 3.49999994e-01 3.67000014e-01 3.73299986e-01 4.14000005e-01 4.14999992e-01 4.33400005e-01 4.35999990e-01 4.41199988e-01 4.60500002e-01 4.67500001e-01 4.90000010e-01 5.20600021e-01 5.23199975e-01 5.24999976e-01 5.31000018e-01 5.47699988e-01 5.78000009e-01 5.88500023e-01 6.10400021e-01 6.15599990e-01 6.25999987e-01 6.34899974e-01 6.65000021e-01 6.68699980e-01 6.94999993e-01 6.97600007e-01 6.99999988e-01 7.02799976e-01 7.10600019e-01 7.17499971e-01 7.64999986e-01 7.84799993e-01 7.90000021e-01 7.97800004e-01 8.08200002e-01 8.18000019e-01 8.38500023e-01 8.39999974e-01 8.43100011e-01 8.71999979e-01 8.74599993e-01 8.75000000e-01 8.77200007e-01 8.95399988e-01 9.30299997e-01 9.44999993e-01 9.56600010e-01 9.59200025e-01 9.61799979e-01 9.64399993e-01 9.72199976e-01 9.82599974e-01 9.83699977e-01 9.92999971e-01 1.01750004e+00 1.03999996e+00 1.04380000e+00 1.04639995e+00 1.04900002e+00 1.05159998e+00 1.05939996e+00 1.06980002e+00 1.10469997e+00 1.11500001e+00 1.12460005e+00 1.13250005e+00 1.13360000e+00 1.13619995e+00 1.13880002e+00 1.14660001e+00 1.15699995e+00 1.15810001e+00 1.18499994e+00 1.19190001e+00 1.21179998e+00 1.22080004e+00 1.22340000e+00 1.22599995e+00 1.23380005e+00 1.24530005e+00 1.25349998e+00 1.27909994e+00 1.27999997e+00 1.30540001e+00 1.30750000e+00 1.30799997e+00 1.31060004e+00 1.31320000e+00 1.33140004e+00 1.33249998e+00 1.35399997e+00 1.36000001e+00 1.36629999e+00 1.39260006e+00 1.39520001e+00 1.39779997e+00 1.40040004e+00 1.40820003e+00 1.41859996e+00 1.41970003e+00 1.42850006e+00 1.45350003e+00 1.45500004e+00 1.47340000e+00 1.48239994e+00 1.48249996e+00 1.48759997e+00 1.49539995e+00 1.52900004e+00 1.53900003e+00 1.53999996e+00 1.56060004e+00 1.56959999e+00 1.57219994e+00 1.57480001e+00 1.59300005e+00 1.62619996e+00 1.62679994e+00 1.63000000e+00 1.64779997e+00 1.65419996e+00 1.65680003e+00 1.65750003e+00 1.65939999e+00 1.66199994e+00 1.66980004e+00 1.68019998e+00 1.68130004e+00 1.71000004e+00 1.71399999e+00 1.71500003e+00 1.73500001e+00 1.74140000e+00 1.74399996e+00 1.74660003e+00 1.74919999e+00 1.75699997e+00 1.76740003e+00 1.76849997e+00 1.80060005e+00 1.80120003e+00 1.80229998e+00 1.82219994e+00 1.83120000e+00 1.83249998e+00 1.83640003e+00 1.84420002e+00 1.85459995e+00 1.85570002e+00 1.87899995e+00 1.88779998e+00 1.88900006e+00 1.88950002e+00 1.90939999e+00 1.91579998e+00 1.91840005e+00 1.92100000e+00 1.92359996e+00 1.93139994e+00 1.94180000e+00 1.94289994e+00 1.95350003e+00 1.97560000e+00 1.97619998e+00 1.97669995e+00 1.98000002e+00 1.99660003e+00 2.00300002e+00 2.00559998e+00 2.00749993e+00 2.01079988e+00 2.01859999e+00 2.02900004e+00 2.03010011e+00 2.06220007e+00 2.06279993e+00 2.06389999e+00 2.06459999e+00 2.08380008e+00 2.09279990e+00 2.09540009e+00 2.09800005e+00 2.10579991e+00 2.11730003e+00 2.12849998e+00 2.15000010e+00 2.15059996e+00 2.15120006e+00 2.15179992e+00 2.17100000e+00 2.17740011e+00 2.18000007e+00 2.18260002e+00 2.18519998e+00 2.19300008e+00 2.20339990e+00 2.20449996e+00 2.23659992e+00 2.23779988e+00 2.23830009e+00 2.23839998e+00 2.23959994e+00 2.25819993e+00 2.26719999e+00 2.26979995e+00 2.28020000e+00 2.29060006e+00 2.29169989e+00 2.32439995e+00 2.32550001e+00 2.32559991e+00 2.32680011e+00 2.34540009e+00 2.35439992e+00 2.35700011e+00 2.35960007e+00 2.36249995e+00 2.36739993e+00 2.37779999e+00 2.37890005e+00 2.41219997e+00 2.41269994e+00 2.41280007e+00 2.41459990e+00 2.43260002e+00 2.43899989e+00 2.44160008e+00 2.44420004e+00 2.44679999e+00 2.45460010e+00 2.46499991e+00 2.46609998e+00 2.49819994e+00 2.49939990e+00 2.49990010e+00 2.50119996e+00 2.51979995e+00 2.52620006e+00 2.52880001e+00 2.53139997e+00 2.53399992e+00 2.54180002e+00 2.55220008e+00 2.55329990e+00 2.58540010e+00 2.58660007e+00 2.58710003e+00 2.58780003e+00 2.58899999e+00 2.60700011e+00 2.61050010e+00 2.61599994e+00 2.61859989e+00 2.62120008e+00 2.62899995e+00 2.63940001e+00 2.64050007e+00 2.66350007e+00 2.67379999e+00 2.67440009e+00 2.67619991e+00 2.70059991e+00 2.70320010e+00 2.70580006e+00 2.70840001e+00 2.71620011e+00 2.72659993e+00 2.72770000e+00 2.75979996e+00 2.76040006e+00 2.76099992e+00 2.76149988e+00 2.76220012e+00 2.76340008e+00 2.78139997e+00 2.79040003e+00 2.79299998e+00 2.79559994e+00 2.80340004e+00 2.81380010e+00 2.81489992e+00 2.84699988e+00 2.84759998e+00 2.84820008e+00 2.84870005e+00 2.84940004e+00 2.84999990e+00 2.86859989e+00 2.87500000e+00 2.87759995e+00 2.88019991e+00 2.89059997e+00 2.90100002e+00 2.90210009e+00 2.93479991e+00 2.93589997e+00 2.93600011e+00 2.93659997e+00 2.93779993e+00 2.95580006e+00 2.96219993e+00 2.96479988e+00 2.96740007e+00 2.97000003e+00 2.97779989e+00 2.98930001e+00 3.02139997e+00 3.02200007e+00 3.02309990e+00 3.02320004e+00 3.02440000e+00 3.04299998e+00 3.04940009e+00 3.05200005e+00 3.05460000e+00 3.05719995e+00 3.06500006e+00 3.07540011e+00 3.10859990e+00 3.10920000e+00 3.10980010e+00 3.11030006e+00 3.11039996e+00 3.11159992e+00 3.13019991e+00 3.13919997e+00 3.14179993e+00 3.14439988e+00 3.15219998e+00 3.16260004e+00 3.16370010e+00 3.19580007e+00 3.19639993e+00 3.19700003e+00 3.19759989e+00 3.19880009e+00 3.21120000e+00 3.22379994e+00 3.22639990e+00 3.22900009e+00 3.23939991e+00 3.24429989e+00 3.25090003e+00 3.28299999e+00 3.28360009e+00 3.28419995e+00 3.28469992e+00 3.28539991e+00 3.29279995e+00 3.30460000e+00 3.31360006e+00 3.31620002e+00 3.31879997e+00 3.32660007e+00 3.33809996e+00 3.37019992e+00 3.37190008e+00 3.37199998e+00 3.37439990e+00 3.39179993e+00 3.40079999e+00 3.40599990e+00 3.42420006e+00 3.42529988e+00 3.45799994e+00 3.45860004e+00 3.45919991e+00 3.46099997e+00 3.47280002e+00 3.48539996e+00 3.49060011e+00 3.49320006e+00 3.51139998e+00 3.51250005e+00 3.54460001e+00 3.54579997e+00 3.54629993e+00 3.54640007e+00 3.54699993e+00 3.55439997e+00 3.56620002e+00 3.58039999e+00 3.58820009e+00 3.59859991e+00 3.59969997e+00 3.63179994e+00 3.63299990e+00 3.63360000e+00 3.63540006e+00 3.65339994e+00 3.66499996e+00 3.67540002e+00 3.68580008e+00 3.71900010e+00 3.72070003e+00 3.72079992e+00 3.72140002e+00 3.74060011e+00 3.75219989e+00 3.76259995e+00 3.77150011e+00 3.80620003e+00 3.80679989e+00 3.80739999e+00 3.80800009e+00 3.80979991e+00 3.83940005e+00 3.84980011e+00 3.86019993e+00 3.89249992e+00 3.89339995e+00 3.89459991e+00 3.89580011e+00 3.89700007e+00 3.91499996e+00 3.93700004e+00 3.94740009e+00 3.98060012e+00 3.98119998e+00 3.98239994e+00 3.98420000e+00 3.99040008e+00 4.01380014e+00 4.02419996e+00 4.03200006e+00 4.06839991e+00 4.06899977e+00 4.06960011e+00 4.07019997e+00 4.07140017e+00 4.08939981e+00 4.09399986e+00 4.10099983e+00 4.11140013e+00 4.15500021e+00 4.15619993e+00 4.15799999e+00 4.15859985e+00 4.15920019e+00 4.18820000e+00 4.19600010e+00 4.21500015e+00 4.23350000e+00 4.24280024e+00 4.24399996e+00 4.24520016e+00 4.26380014e+00 4.29099989e+00 4.32940006e+00 4.32999992e+00 4.33059978e+00 4.33120012e+00 4.33300018e+00 4.35099983e+00 4.36000013e+00 4.39750004e+00 4.41660023e+00 4.41720009e+00 4.41839981e+00 4.41900015e+00 4.42080021e+00 4.43820000e+00 4.45499992e+00 4.50379992e+00 4.50500011e+00 4.50619984e+00 4.51849985e+00 4.52540016e+00 4.59100008e+00 4.59219980e+00 4.59340000e+00 4.61000013e+00 4.67819977e+00 4.67999983e+00 4.68120003e+00 4.68240023e+00 4.68249989e+00 4.70499992e+00 4.76599979e+00 4.76779985e+00 4.76900005e+00 4.81150007e+00 4.84999990e+00 4.85379982e+00 4.85559988e+00 4.93249989e+00 4.94159985e+00 4.94280005e+00 4.94500017e+00 4.98600006e+00 5.02500010e+00 5.02820015e+00 5.02939987e+00 5.03679991e+00 5.07200003e+00 5.11600018e+00 5.11719990e+00 5.15000010e+00 5.17250013e+00 5.20380020e+00 5.20559978e+00 5.23600006e+00 5.29040003e+00 5.29220009e+00 5.29500008e+00 5.34749985e+00 5.37500000e+00 5.37939978e+00 5.40000010e+00 5.46540022e+00 5.46999979e+00 5.47599983e+00 5.52250004e+00 5.55319977e+00 5.63999987e+00 5.64160013e+00 5.65000010e+00 5.65100002e+00 5.66200018e+00 5.72879982e+00 5.81500006e+00 5.82000017e+00 5.82600021e+00 5.83699989e+00 5.88999987e+00 5.92649984e+00 5.98999977e+00 5.99599981e+00 6.01200008e+00 6.06500006e+00 6.16499996e+00 6.18699980e+00 6.23999977e+00 6.34000015e+00 6.35099983e+00 6.45650005e+00 6.52600002e+00 6.61850023e+00 6.65500021e+00 6.70100021e+00 6.82999992e+00 7.00500011e+00 7.29500008e+00 7.53000021e+00 7.88000011e+00 8.93999958e+00 
            </HistogramBinning>
          </PDF>
        </CumulativePDF_cls0>
        <CumulativePDF_cls1>
          <PDF Name="GaussTransform var2 cls1" MinNSmooth="0" MaxNSmooth="0" InterpolMethod="1" KDE_type="0" KDE_iter="1" KDE_border="1" KDE_finefactor="0.0000000000000000e+00">
            <Histogram Name="Cumulative_Var2_cls1_original" NBins="416" XMin="-8.2400999069213867e+00" XMax="8.5850000381469727e+00" HasEquidistantBins="0">
