<?xml version="1.0"?>
<MethodSetup Method="MLP::MLP_1">
  <GeneralInfo>
    <Info name="TMVA Release" value="4.2.1 [262657]"/>
    <Info name="ROOT Release" value="6.12/07 [396295]"/>
    <Info name="Creator" value="addropul"/>
    <Info name="Date" value="Wed Aug 14 22:40:39 2019"/>
    <Info name="Host" value="Linux cmsbuild89.cern.ch 2.6.32-696.30.1.el6.x86_64 #1 SMP Tue May 22 06:09:36 CEST 2018 x86_64 x86_64 x86_64 GNU/Linux"/>
    <Info name="Dir" value="/afs/cern.ch/user/a/addropul/CMSSW_10_6_0_pre4/src/L1Trigger/Run3Ntuplizer/test/June_July_2019"/>
    <Info name="Training events" value="21883"/>
    <Info name="TrainingTime" value="1.43999119e+01"/>
    <Info name="AnalysisType" value="Classification"/>
  </GeneralInfo>
  <Options>
    <Option name="NCycles" modified="Yes">600</Option>
    <Option name="HiddenLayers" modified="Yes">N+5</Option>
    <Option name="NeuronType" modified="Yes">tanh</Option>
    <Option name="RandomSeed" modified="No">1</Option>
    <Option name="EstimatorType" modified="No">CE</Option>
    <Option name="NeuronInputType" modified="No">sum</Option>
    <Option name="V" modified="Yes">False</Option>
    <Option name="VerbosityLevel" modified="No">Default</Option>
    <Option name="VarTransform" modified="Yes">N</Option>
    <Option name="H" modified="Yes">True</Option>
    <Option name="CreateMVAPdfs" modified="No">False</Option>
    <Option name="IgnoreNegWeightsInTraining" modified="No">False</Option>
    <Option name="TrainingMethod" modified="No">BP</Option>
    <Option name="LearningRate" modified="No">2.000000e-02</Option>
    <Option name="DecayRate" modified="No">1.000000e-02</Option>
    <Option name="TestRate" modified="Yes">5</Option>
    <Option name="EpochMonitoring" modified="No">False</Option>
    <Option name="Sampling" modified="No">1.000000e+00</Option>
    <Option name="SamplingEpoch" modified="No">1.000000e+00</Option>
    <Option name="SamplingImportance" modified="No">1.000000e+00</Option>
    <Option name="SamplingTraining" modified="No">True</Option>
    <Option name="SamplingTesting" modified="No">False</Option>
    <Option name="ResetStep" modified="No">50</Option>
    <Option name="Tau" modified="No">3.000000e+00</Option>
    <Option name="BPMode" modified="No">sequential</Option>
    <Option name="BatchSize" modified="No">-1</Option>
    <Option name="ConvergenceImprove" modified="No">1.000000e-30</Option>
    <Option name="ConvergenceTests" modified="Yes">10</Option>
    <Option name="UseRegulator" modified="Yes">False</Option>
    <Option name="UpdateLimit" modified="No">10000</Option>
    <Option name="CalculateErrors" modified="No">False</Option>
    <Option name="WeightRange" modified="No">1.000000e+00</Option>
  </Options>
  <Variables NVar="5">
    <Variable VarIndex="0" Expression="l1Pt_1" Label="l1Pt_1" Title="l1Pt_1" Unit="" Internal="l1Pt_1" Type="D" Min="5.50000000e+00" Max="5.11500000e+02"/>
    <Variable VarIndex="1" Expression="l1Pt_2" Label="l1Pt_2" Title="l1Pt_2" Unit="" Internal="l1Pt_2" Type="D" Min="5.50000000e+00" Max="5.11500000e+02"/>
    <Variable VarIndex="2" Expression="l1DeltaEta" Label="l1DeltaEta" Title="l1DeltaEta" Unit="" Internal="l1DeltaEta" Type="D" Min="-8.57999992e+00" Max="8.93999958e+00"/>
    <Variable VarIndex="3" Expression="l1DeltaPhi" Label="l1DeltaPhi" Title="l1DeltaPhi" Unit="" Internal="l1DeltaPhi" Type="D" Min="-6.19119978e+00" Max="6.10400009e+00"/>
    <Variable VarIndex="4" Expression="l1Mass" Label="l1Mass" Title="l1Mass" Unit="" Internal="l1Mass" Type="D" Min="8.66790962e+00" Max="5.37381055e+03"/>
  </Variables>
  <Spectators NSpec="0"/>
  <Classes NClass="2">
    <Class Name="Signal" Index="0"/>
    <Class Name="Background" Index="1"/>
  </Classes>
  <Transformations NTransformations="1">
    <Transform Name="Normalize">
      <Selection>
        <Input NInputs="5">
          <Input Type="Variable" Label="l1Pt_1" Expression="l1Pt_1"/>
          <Input Type="Variable" Label="l1Pt_2" Expression="l1Pt_2"/>
          <Input Type="Variable" Label="l1DeltaEta" Expression="l1DeltaEta"/>
          <Input Type="Variable" Label="l1DeltaPhi" Expression="l1DeltaPhi"/>
          <Input Type="Variable" Label="l1Mass" Expression="l1Mass"/>
        </Input>
        <Output NOutputs="5">
          <Output Type="Variable" Label="l1Pt_1" Expression="l1Pt_1"/>
          <Output Type="Variable" Label="l1Pt_2" Expression="l1Pt_2"/>
          <Output Type="Variable" Label="l1DeltaEta" Expression="l1DeltaEta"/>
          <Output Type="Variable" Label="l1DeltaPhi" Expression="l1DeltaPhi"/>
          <Output Type="Variable" Label="l1Mass" Expression="l1Mass"/>
        </Output>
      </Selection>
      <Class ClassIndex="0">
        <Ranges>
          <Range Index="0" Min="5.5000000000000000e+00" Max="5.1150000000000000e+02"/>
          <Range Index="1" Min="5.5000000000000000e+00" Max="5.1150000000000000e+02"/>
          <Range Index="2" Min="-8.5799999237060547e+00" Max="8.9399995803833008e+00"/>
          <Range Index="3" Min="-6.1911997795104980e+00" Max="6.1040000915527344e+00"/>
          <Range Index="4" Min="1.0335960388183594e+01" Max="5.3738105468750000e+03"/>
        </Ranges>
      </Class>
      <Class ClassIndex="1">
        <Ranges>
          <Range Index="0" Min="6.0000000000000000e+00" Max="4.8250000000000000e+02"/>
          <Range Index="1" Min="5.5000000000000000e+00" Max="4.2850000000000000e+02"/>
          <Range Index="2" Min="-8.2399997711181641e+00" Max="8.5850000381469727e+00"/>
          <Range Index="3" Min="-6.0167999267578125e+00" Max="6.1040000915527344e+00"/>
          <Range Index="4" Min="8.6679096221923828e+00" Max="2.8891579589843750e+03"/>
        </Ranges>
      </Class>
      <Class ClassIndex="2">
        <Ranges>
          <Range Index="0" Min="5.5000000000000000e+00" Max="5.1150000000000000e+02"/>
          <Range Index="1" Min="5.5000000000000000e+00" Max="5.1150000000000000e+02"/>
          <Range Index="2" Min="-8.5799999237060547e+00" Max="8.9399995803833008e+00"/>
          <Range Index="3" Min="-6.1911997795104980e+00" Max="6.1040000915527344e+00"/>
          <Range Index="4" Min="8.6679096221923828e+00" Max="5.3738105468750000e+03"/>
        </Ranges>
      </Class>
    </Transform>
  </Transformations>
  <MVAPdfs/>
  <Weights>
    <Layout NLayers="3">
      <Layer Index="0" NNeurons="6">
        <Neuron NSynapses="10">
          2.0068645154370977e+00 2.0724000178164830e+00 5.1947263078890371e-01 1.1155714362121465e+01 -3.2843920250735272e+00 -2.2325024152859299e+00 -1.7580094362542997e+00 2.7374817522041472e+00 -9.8833375450247107e-01 -3.7131485906717878e+00 
        </Neuron>
        <Neuron NSynapses="10">
          -7.2401203126624913e-01 -1.3039269673593487e-01 -1.7160635001959887e+00 1.5327632685631554e+00 -4.3828735375698127e+00 -2.5970716757945922e-01 -3.2251806744912848e-01 1.7828626009065494e+00 5.4345375443538380e-01 1.3769629657024607e+00 
        </Neuron>
        <Neuron NSynapses="10">
          -1.0583380387141319e-02 -1.1689554463859849e+01 -3.5798660322374110e-02 5.7431372025046765e-02 -1.6672524706823111e+00 -1.2371877002317579e+01 5.2487315405327729e-02 -1.0406884294583676e+00 -4.9289607121283018e-02 -5.7064321353866077e-02 
        </Neuron>
        <Neuron NSynapses="10">
          2.3084768067450873e-01 -8.2275268654131237e-03 -4.2248305239948748e-02 -5.7167553529679553e-02 -7.2722677110300482e-01 5.3191989210386974e-02 -4.8007945622297862e-02 1.6541935176733542e+00 5.8424165102159914e-03 -5.7041586987668598e-02 
        </Neuron>
        <Neuron NSynapses="10">
          9.4574993379331374e-01 2.9539796266271248e+00 6.9482113675741553e-01 1.4675310230679059e+00 1.9455935851006720e+00 -2.9999356943265671e+00 2.6835351245963840e-01 1.2055461008804389e+00 1.5427437926599092e+00 5.9531907753296232e-01 
        </Neuron>
        <Neuron NSynapses="10">
          1.5316230923998064e+00 1.8035990521789309e+00 -4.4125438051431037e-01 1.1696502568406668e+01 -8.4741313567370724e-01 -2.5713162923228321e+00 -1.4092343896051769e+00 -3.0059828342451649e+00 1.1406570048373201e+00 -1.1942951028403088e+00 
        </Neuron>
      </Layer>
      <Layer Index="1" NNeurons="11">
        <Neuron NSynapses="1">
          3.3334403366084880e-01 
        </Neuron>
        <Neuron NSynapses="1">
          1.2467131593186012e+00 
        </Neuron>
        <Neuron NSynapses="1">
          4.8427096609613411e-02 
        </Neuron>
        <Neuron NSynapses="1">
          1.1328235608124977e+00 
        </Neuron>
        <Neuron NSynapses="1">
          1.1151718742703802e+00 
        </Neuron>
        <Neuron NSynapses="1">
          -1.2215919565092976e+00 
        </Neuron>
        <Neuron NSynapses="1">
          -2.5582834569235646e-01 
        </Neuron>
        <Neuron NSynapses="1">
          -1.7893222018975194e+00 
        </Neuron>
        <Neuron NSynapses="1">
          -1.3272429738549208e-02 
        </Neuron>
        <Neuron NSynapses="1">
          -3.8993742596418168e-01 
        </Neuron>
        <Neuron NSynapses="1">
          -1.3959140951138276e+00 
        </Neuron>
      </Layer>
      <Layer Index="2" NNeurons="1">
        <Neuron NSynapses="0"/>
      </Layer>
    </Layout>
  </Weights>
</MethodSetup>
