<?xml version="1.0"?>
<MethodSetup Method="DNN::DNN">
  <GeneralInfo>
    <Info name="TMVA Release" value="4.2.1 [262657]"/>
    <Info name="ROOT Release" value="6.12/07 [396295]"/>
    <Info name="Creator" value="addropul"/>
    <Info name="Date" value="Tue Aug 27 21:22:53 2019"/>
    <Info name="Host" value="Linux cmsbuild89.cern.ch 2.6.32-696.30.1.el6.x86_64 #1 SMP Tue May 22 06:09:36 CEST 2018 x86_64 x86_64 x86_64 GNU/Linux"/>
    <Info name="Dir" value="/afs/cern.ch/user/a/addropul/CMSSW_10_6_0_pre4/src/L1Trigger/Run3Ntuplizer/test/June_July_2019"/>
    <Info name="Training events" value="370753"/>
    <Info name="TrainingTime" value="1.90661922e+02"/>
    <Info name="AnalysisType" value="Classification"/>
  </GeneralInfo>
  <Options>
    <Option name="V" modified="Yes">True</Option>
    <Option name="VerbosityLevel" modified="No">Verbose</Option>
    <Option name="VarTransform" modified="Yes">G</Option>
    <Option name="H" modified="Yes">False</Option>
    <Option name="CreateMVAPdfs" modified="No">False</Option>
    <Option name="IgnoreNegWeightsInTraining" modified="No">False</Option>
    <Option name="Layout" modified="Yes">TANH|100,TANH|50,TANH|10,LINEAR</Option>
    <Option name="ValidationSize" modified="No">20%</Option>
    <Option name="ErrorStrategy" modified="Yes">CROSSENTROPY</Option>
    <Option name="WeightInitialization" modified="Yes">XAVIERUNIFORM</Option>
    <Option name="Architecture" modified="No">CPU</Option>
    <Option name="TrainingStrategy" modified="Yes">LearningRate=1e-3,Momentum=0.9,Repetitions=1,ConvergenceSteps=10,BatchSize=128,TestRepetitions=1,MaxEpochs=30,WeightDecay=1e-4,Regularization=None,Optimizer=ADAM,DropConfig=0.0+0.0+0.0+0.</Option>
  </Options>
  <Variables NVar="5">
    <Variable VarIndex="0" Expression="l1Pt_1" Label="l1Pt_1" Title="l1Pt_1" Unit="" Internal="l1Pt_1" Type="D" Min="5.50000000e+00" Max="5.11500000e+02"/>
    <Variable VarIndex="1" Expression="l1Pt_2" Label="l1Pt_2" Title="l1Pt_2" Unit="" Internal="l1Pt_2" Type="D" Min="5.50000000e+00" Max="5.11500000e+02"/>
    <Variable VarIndex="2" Expression="l1DeltaEta" Label="l1DeltaEta" Title="l1DeltaEta" Unit="" Internal="l1DeltaEta" Type="D" Min="-9.32750034e+00" Max="1.01850004e+01"/>
    <Variable VarIndex="3" Expression="l1DeltaPhi" Label="l1DeltaPhi" Title="l1DeltaPhi" Unit="" Internal="l1DeltaPhi" Type="D" Min="-6.19119978e+00" Max="6.19119978e+00"/>
    <Variable VarIndex="4" Expression="l1Mass" Label="l1Mass" Title="l1Mass" Unit="" Internal="l1Mass" Type="D" Min="6.71710211e-07" Max="7.86377637e+03"/>
  </Variables>
  <Spectators NSpec="0"/>
  <Classes NClass="2">
    <Class Name="Signal" Index="0"/>
    <Class Name="Background" Index="1"/>
  </Classes>
  <Transformations NTransformations="1">
    <Transform Name="Gauss" FlatOrGauss="Gauss">
      <Selection>
        <Input NInputs="5">
          <Input Type="Variable" Label="l1Pt_1" Expression="l1Pt_1"/>
          <Input Type="Variable" Label="l1Pt_2" Expression="l1Pt_2"/>
          <Input Type="Variable" Label="l1DeltaEta" Expression="l1DeltaEta"/>
          <Input Type="Variable" Label="l1DeltaPhi" Expression="l1DeltaPhi"/>
          <Input Type="Variable" Label="l1Mass" Expression="l1Mass"/>
        </Input>
        <Output NOutputs="5">
          <Output Type="Variable" Label="l1Pt_1" Expression="l1Pt_1"/>
          <Output Type="Variable" Label="l1Pt_2" Expression="l1Pt_2"/>
          <Output Type="Variable" Label="l1DeltaEta" Expression="l1DeltaEta"/>
          <Output Type="Variable" Label="l1DeltaPhi" Expression="l1DeltaPhi"/>
          <Output Type="Variable" Label="l1Mass" Expression="l1Mass"/>
        </Output>
      </Selection>
      <Variable VarIndex="0">
        <CumulativePDF_cls0>
          <PDF Name="GaussTransform var0 cls0" MinNSmooth="0" MaxNSmooth="0" InterpolMethod="1" KDE_type="0" KDE_iter="1" KDE_border="1" KDE_finefactor="0.0000000000000000e+00">
            <Histogram Name="Cumulative_Var0_cls0_original" NBins="437" XMin="5.4998998641967773e+00" XMax="5.1150000000000000e+02" HasEquidistantBins="0">
              1.60227195e-04 4.79306269e-04 8.89157818e-04 1.34439557e-03 1.84295664e-03 2.35429686e-03 2.85417587e-03 3.39508592e-03 4.03272826e-03 4.74790577e-03 5.54354023e-03 6.44370075e-03 7.40944780e-03 8.41272995e-03 9.49188601e-03 1.06853088e-02 1.19975563e-02 1.34334117e-02 1.49705270e-02 1.65870674e-02 1.82869900e-02 2.00618673e-02 2.19598375e-02 2.40235366e-02 2.62019038e-02 2.84390673e-02 3.07372622e-02 3.31152268e-02 3.55731323e-02 3.81154492e-02 4.07421775e-02 4.34839204e-02 4.63521928e-02 4.92878594e-02 5.22957295e-02 5.54590113e-02 5.87976500e-02 6.22676350e-02 6.58282191e-02 6.94902390e-02 7.32899606e-02 7.72189647e-02 8.12569633e-02 8.53781775e-02 8.95531103e-02 9.37697589e-02 9.80962068e-02 1.02638476e-01 1.07358642e-01 1.12131074e-01 1.16910383e-01 1.21714450e-01 1.26586601e-01 1.31548136e-01 1.36548877e-01 1.41568869e-01 1.46692008e-01 1.51963696e-01 1.57312050e-01 1.62681982e-01 1.68067381e-01 1.73489928e-01 1.78967133e-01 1.84479669e-01 1.90030381e-01 1.95622519e-01 2.01269656e-01 2.06996575e-01 2.12783664e-01 2.18611330e-01 2.24459276e-01 2.30307236e-01 2.36173749e-01 2.42077395e-01 2.47999609e-01 2.53921837e-01 2.59837598e-01 2.65738875e-01 2.71648169e-01 2.77632982e-01 2.83743173e-01 2.89945036e-01 2.96168685e-01 3.02382648e-01 3.08590949e-01 3.14799219e-01 3.21007520e-01 3.27171803e-01 3.33321631e-01 3.39460969e-01 3.45569730e-01 3.51715088e-01 3.57807845e-01 3.63807768e-01 3.69747370e-01 3.75619024e-01 3.81467998e-01 3.87304604e-01 3.93120587e-01 3.98926765e-01 4.04692888e-01 4.10376459e-01 4.16016757e-01 4.21655655e-01 4.27297115e-01 4.32936370e-01 4.38565969e-01 4.44168091e-01 4.49700743e-01 4.55145180e-01 4.60551322e-01 4.65954512e-01 4.71344292e-01 4.76722568e-01 4.82070923e-01 4.87393498e-01 4.92716074e-01 4.98021424e-01 5.03292441e-01 5.08546233e-01 5.13767004e-01 5.18909454e-01 5.23994088e-01 5.29041588e-01 5.33979535e-01 5.38744271e-01 5.43396652e-01 5.48082471e-01 5.52875817e-01 5.57698846e-01 5.62439620e-01 5.67063868e-01 5.71623206e-01 5.76134622e-01 5.80567300e-01 5.84936082e-01 5.89257419e-01 5.93546391e-01 5.97819626e-01 6.02080584e-01 6.06332302e-01 6.10558689e-01 6.14743888e-01 6.18882239e-01 6.22963607e-01 6.26976848e-01 6.30920589e-01 6.34836376e-01 6.38760746e-01 6.42680466e-01 6.46582305e-01 6.50429130e-01 6.54183805e-01 6.57880545e-01 6.61517799e-01 6.65071726e-01 6.68589830e-01 6.72107935e-01 6.75626040e-01 6.79154575e-01 6.82706535e-01 6.86267674e-01 6.89799368e-01 6.93231881e-01 6.96538031e-01 6.99785888e-01 7.03017354e-01 7.06230164e-01 7.09426463e-01 7.12596595e-01 7.15713143e-01 7.18761742e-01 7.21746981e-01 7.24661648e-01 7.27520287e-01 7.30361164e-01 7.33217657e-01 7.36102104e-01 7.38997161e-01 7.41889536e-01 7.44780481e-01 7.47650146e-01 7.50471652e-01 7.53237307e-01 7.55968869e-01 7.58662641e-01 7.61286497e-01 7.63871789e-01 7.66422868e-01 7.68923938e-01 7.71407783e-01 7.73873746e-01 7.76304007e-01 7.78716326e-01 7.81128705e-01 7.83494771e-01 7.85807073e-01 7.88114190e-01 7.90387511e-01 7.92607307e-01 7.94789970e-01 7.96932042e-01 7.99033582e-01 8.01117003e-01 8.03206325e-01 8.05299640e-01 8.07379127e-01 8.09431136e-01 8.11469555e-01 8.13507676e-01 8.15518379e-01 8.17475677e-01 8.19389999e-01 8.21272135e-01 8.23137105e-01 8.24999332e-01 8.26855302e-01 8.28701735e-01 8.30539167e-01 8.32368374e-01 8.34181786e-01 8.35966289e-01 8.37726295e-01 8.39458048e-01 8.41141582e-01 8.42788994e-01 8.44442368e-01 8.46125603e-01 8.47818017e-01 8.49490404e-01 8.51120114e-01 8.52692604e-01 8.54219437e-01 8.55724216e-01 8.57223332e-01 8.58722448e-01 8.60224307e-01 8.61746192e-01 8.63305092e-01 8.64888549e-01 8.66475880e-01 8.68030846e-01 8.69509339e-01 8.70931447e-01 8.72364581e-01 8.73839617e-01 8.75331581e-01 8.76808941e-01 8.78236234e-01 8.79595518e-01 8.80921364e-01 8.82241666e-01 8.83560956e-01 8.84882331e-01 8.86221230e-01 8.87596548e-01 8.88985693e-01 8.90340567e-01 8.91640067e-01 8.92903328e-01 8.94152105e-01 8.95360172e-01 8.96501362e-01 8.97610247e-01 8.98719132e-01 8.99828136e-01 9.00926352e-01 9.02003944e-01 9.03071225e-01 9.04127300e-01 9.05160308e-01 9.06175196e-01 9.07171071e-01 9.08146679e-01 9.09116626e-01 9.10090685e-01 9.11050916e-01 9.11975086e-01 9.12873983e-01 9.13759649e-01 9.14633036e-01 9.15500343e-01 9.16365266e-01 9.17224824e-01 9.18076158e-01 9.18923378e-01 9.19770598e-01 9.20615733e-01 9.21461403e-01 9.22320247e-01 9.23196733e-01 9.24078107e-01 9.24910247e-01 9.25652266e-01 9.26350951e-01 9.27040637e-01 9.27709222e-01 9.28361654e-01 9.29010808e-01 9.29665506e-01 9.30334687e-01 9.31021929e-01 9.31717396e-01 9.32404339e-01 9.33076322e-01 9.33735847e-01 9.34372723e-01 9.34977889e-01 9.35561299e-01 9.36149538e-01 9.36762154e-01 9.37381029e-01 9.37968671e-01 9.38513994e-01 9.39042449e-01 9.39577222e-01 9.40120995e-01 9.40668404e-01 9.41223025e-01 9.41795290e-01 9.42380607e-01 9.42963064e-01 9.43524837e-01 9.44060802e-01 9.44586158e-01 9.45092320e-01 9.45559919e-01 9.46008265e-01 9.46456671e-01 9.46905017e-01 9.47353363e-01 9.47806597e-01 9.48271632e-01 9.48746562e-01 9.49225187e-01 9.49702144e-01 9.50160623e-01 9.50589657e-01 9.51006770e-01 9.51426506e-01 9.51847374e-01 9.52268243e-01 9.52689052e-01 9.53109920e-01 9.53562438e-01 9.54078197e-01 9.54625547e-01 9.55172956e-01 9.55720305e-01 9.56267715e-01 9.56815124e-01 9.57362473e-01 9.57911253e-01 9.58462775e-01 9.59015667e-01 9.59568560e-01 9.60120738e-01 9.60671544e-01 9.61213470e-01 9.61738825e-01 9.62255955e-01 9.62773085e-01 9.63290215e-01 9.63807344e-01 9.64321792e-01 9.64830399e-01 9.65325296e-01 9.65799510e-01 9.66261983e-01 9.66720998e-01 9.67180014e-01 9.67642486e-01 9.68128145e-01 9.68656778e-01 9.69206929e-01 9.69757080e-01 9.70301688e-01 9.70835328e-01 9.71363485e-01 9.71888125e-01 9.72405970e-01 9.72920358e-01 9.73427534e-01 9.73917246e-01 9.74395871e-01 9.74884570e-01 9.75392282e-01 9.75906491e-01 9.76416349e-01 9.76922929e-01 9.77433681e-01 9.77955341e-01 9.78484213e-01 9.79010642e-01 9.79530692e-01 9.80047822e-01 9.80562210e-01 9.81066227e-01 9.81557965e-01 9.82044816e-01 9.82531667e-01 9.83016968e-01 9.83506024e-01 9.84009802e-01 9.84524190e-01 9.85032141e-01 9.85526860e-01 9.86015677e-01 9.86506045e-01 9.86999571e-01 9.87500548e-01 9.88013208e-01 9.88531709e-01 9.89050210e-01 9.89564598e-01 9.90068913e-01 9.90566611e-01 9.91067708e-01 9.91575062e-01 9.92082834e-01 9.92587447e-01 9.93090808e-01 9.93594170e-01 9.94100869e-01 9.94615734e-01 9.95137274e-01 9.95659530e-01 9.96176898e-01 9.96688187e-01 9.97197032e-01 9.97705936e-01 9.98215318e-01 9.98725891e-01 9.99238729e-01 9.99700189e-01 9.99983490e-01 1.00000000e+00 
            </Histogram>
            <HistogramBinning NBins="437">
              5.49989986e+00 5.50000000e+00 7.00000000e+00 8.00000000e+00 9.00000000e+00 9.50000000e+00 1.05000000e+01 1.10000000e+01 1.15000000e+01 1.20000000e+01 1.25000000e+01 1.30000000e+01 1.35000000e+01 1.40000000e+01 1.45000000e+01 1.50000000e+01 1.55000000e+01 1.60000000e+01 1.65000000e+01 1.70000000e+01 1.75000000e+01 1.80000000e+01 1.85000000e+01 1.90000000e+01 1.95000000e+01 2.00000000e+01 2.05000000e+01 2.10000000e+01 2.15000000e+01 2.20000000e+01 2.25000000e+01 2.30000000e+01 2.35000000e+01 2.40000000e+01 2.45000000e+01 2.50000000e+01 2.55000000e+01 2.60000000e+01 2.65000000e+01 2.70000000e+01 2.75000000e+01 2.80000000e+01 2.85000000e+01 2.90000000e+01 2.95000000e+01 3.00000000e+01 3.05000000e+01 3.10000000e+01 3.15000000e+01 3.20000000e+01 3.25000000e+01 3.30000000e+01 3.35000000e+01 3.40000000e+01 3.45000000e+01 3.50000000e+01 3.55000000e+01 3.60000000e+01 3.65000000e+01 3.70000000e+01 3.75000000e+01 3.80000000e+01 3.85000000e+01 3.90000000e+01 3.95000000e+01 4.00000000e+01 4.05000000e+01 4.10000000e+01 4.15000000e+01 4.20000000e+01 4.25000000e+01 4.30000000e+01 4.35000000e+01 4.40000000e+01 4.45000000e+01 4.50000000e+01 4.55000000e+01 4.60000000e+01 4.65000000e+01 4.70000000e+01 4.75000000e+01 4.80000000e+01 4.85000000e+01 4.90000000e+01 4.95000000e+01 5.00000000e+01 5.05000000e+01 5.10000000e+01 5.15000000e+01 5.20000000e+01 5.25000000e+01 5.30000000e+01 5.35000000e+01 5.40000000e+01 5.45000000e+01 5.50000000e+01 5.55000000e+01 5.60000000e+01 5.65000000e+01 5.70000000e+01 5.75000000e+01 5.80000000e+01 5.85000000e+01 5.90000000e+01 5.95000000e+01 6.00000000e+01 6.05000000e+01 6.10000000e+01 6.15000000e+01 6.20000000e+01 6.25000000e+01 6.30000000e+01 6.35000000e+01 6.40000000e+01 6.45000000e+01 6.50000000e+01 6.55000000e+01 6.60000000e+01 6.65000000e+01 6.70000000e+01 6.75000000e+01 6.80000000e+01 6.85000000e+01 6.90000000e+01 6.95000000e+01 7.00000000e+01 7.05000000e+01 7.10000000e+01 7.15000000e+01 7.20000000e+01 7.25000000e+01 7.30000000e+01 7.35000000e+01 7.40000000e+01 7.45000000e+01 7.50000000e+01 7.55000000e+01 7.60000000e+01 7.65000000e+01 7.70000000e+01 7.75000000e+01 7.80000000e+01 7.85000000e+01 7.90000000e+01 7.95000000e+01 8.00000000e+01 8.05000000e+01 8.10000000e+01 8.15000000e+01 8.20000000e+01 8.25000000e+01 8.30000000e+01 8.35000000e+01 8.40000000e+01 8.45000000e+01 8.50000000e+01 8.55000000e+01 8.60000000e+01 8.65000000e+01 8.70000000e+01 8.75000000e+01 8.80000000e+01 8.85000000e+01 8.90000000e+01 8.95000000e+01 9.00000000e+01 9.05000000e+01 9.10000000e+01 9.15000000e+01 9.20000000e+01 9.25000000e+01 9.30000000e+01 9.35000000e+01 9.40000000e+01 9.45000000e+01 9.50000000e+01 9.55000000e+01 9.60000000e+01 9.65000000e+01 9.70000000e+01 9.75000000e+01 9.80000000e+01 9.85000000e+01 9.90000000e+01 9.95000000e+01 1.00000000e+02 1.00500000e+02 1.01000000e+02 1.01500000e+02 1.02000000e+02 1.02500000e+02 1.03000000e+02 1.03500000e+02 1.04000000e+02 1.04500000e+02 1.05000000e+02 1.05500000e+02 1.06000000e+02 1.06500000e+02 1.07000000e+02 1.07500000e+02 1.08000000e+02 1.08500000e+02 1.09000000e+02 1.09500000e+02 1.10000000e+02 1.10500000e+02 1.11000000e+02 1.11500000e+02 1.12000000e+02 1.12500000e+02 1.13000000e+02 1.13500000e+02 1.14000000e+02 1.14500000e+02 1.15000000e+02 1.15500000e+02 1.16000000e+02 1.16500000e+02 1.17000000e+02 1.17500000e+02 1.18000000e+02 1.18500000e+02 1.19000000e+02 1.19500000e+02 1.20000000e+02 1.20500000e+02 1.21000000e+02 1.21500000e+02 1.22000000e+02 1.22500000e+02 1.23000000e+02 1.23500000e+02 1.24000000e+02 1.24500000e+02 1.25000000e+02 1.25500000e+02 1.26000000e+02 1.26500000e+02 1.27000000e+02 1.27500000e+02 1.28000000e+02 1.28500000e+02 1.29000000e+02 1.29500000e+02 1.30000000e+02 1.30500000e+02 1.31000000e+02 1.31500000e+02 1.32000000e+02 1.32500000e+02 1.33000000e+02 1.33500000e+02 1.34000000e+02 1.34500000e+02 1.35000000e+02 1.35500000e+02 1.36000000e+02 1.36500000e+02 1.37000000e+02 1.37500000e+02 1.38000000e+02 1.38500000e+02 1.39000000e+02 1.39500000e+02 1.40000000e+02 1.40500000e+02 1.41000000e+02 1.41500000e+02 1.42000000e+02 1.42500000e+02 1.43000000e+02 1.43500000e+02 1.44000000e+02 1.44500000e+02 1.45000000e+02 1.45500000e+02 1.46000000e+02 1.46500000e+02 1.47000000e+02 1.47500000e+02 1.48000000e+02 1.48500000e+02 1.49000000e+02 1.49500000e+02 1.50000000e+02 1.50500000e+02 1.51000000e+02 1.51500000e+02 1.52000000e+02 1.52500000e+02 1.53000000e+02 1.53500000e+02 1.54000000e+02 1.54500000e+02 1.55000000e+02 1.55500000e+02 1.56000000e+02 1.56500000e+02 1.57000000e+02 1.57500000e+02 1.58000000e+02 1.58500000e+02 1.59000000e+02 1.59500000e+02 1.60000000e+02 1.60500000e+02 1.61000000e+02 1.61500000e+02 1.62000000e+02 1.62500000e+02 1.63000000e+02 1.63500000e+02 1.64000000e+02 1.64500000e+02 1.65000000e+02 1.65500000e+02 1.66000000e+02 1.66500000e+02 1.67000000e+02 1.67500000e+02 1.68000000e+02 1.68500000e+02 1.69000000e+02 1.69500000e+02 1.70000000e+02 1.70500000e+02 1.71000000e+02 1.71500000e+02 1.72000000e+02 1.72500000e+02 1.73000000e+02 1.73500000e+02 1.74000000e+02 1.74500000e+02 1.75000000e+02 1.75500000e+02 1.76500000e+02 1.77000000e+02 1.77500000e+02 1.78500000e+02 1.79000000e+02 1.79500000e+02 1.80500000e+02 1.81000000e+02 1.82000000e+02 1.82500000e+02 1.83500000e+02 1.84000000e+02 1.85000000e+02 1.86000000e+02 1.86500000e+02 1.87500000e+02 1.88000000e+02 1.89000000e+02 1.89500000e+02 1.90500000e+02 1.91500000e+02 1.92000000e+02 1.93000000e+02 1.94000000e+02 1.95000000e+02 1.96000000e+02 1.97000000e+02 1.98000000e+02 1.98500000e+02 2.00000000e+02 2.01000000e+02 2.02000000e+02 2.03000000e+02 2.04000000e+02 2.05000000e+02 2.06000000e+02 2.07000000e+02 2.08500000e+02 2.10000000e+02 2.11500000e+02 2.12500000e+02 2.14000000e+02 2.15500000e+02 2.16500000e+02 2.18500000e+02 2.20000000e+02 2.21500000e+02 2.23500000e+02 2.25000000e+02 2.26500000e+02 2.28500000e+02 2.30500000e+02 2.32500000e+02 2.34500000e+02 2.36500000e+02 2.38500000e+02 2.41000000e+02 2.43000000e+02 2.46000000e+02 2.49000000e+02 2.52000000e+02 2.55000000e+02 2.57000000e+02 2.59500000e+02 2.61500000e+02 2.63500000e+02 2.65500000e+02 2.67500000e+02 2.69500000e+02 2.72000000e+02 2.74000000e+02 2.76000000e+02 2.78500000e+02 2.81000000e+02 2.83500000e+02 2.86500000e+02 2.89500000e+02 2.92500000e+02 2.95500000e+02 2.98500000e+02 3.02000000e+02 3.05500000e+02 3.09500000e+02 3.14000000e+02 3.18000000e+02 3.23000000e+02 3.28500000e+02 3.33500000e+02 3.38500000e+02 3.45000000e+02 3.53000000e+02 3.60000000e+02 3.67000000e+02 3.76000000e+02 3.86500000e+02 4.00000000e+02 4.14500000e+02 4.36500000e+02 4.68000000e+02 5.11500000e+02 5.11500000e+02 
            </HistogramBinning>
          </PDF>
        </CumulativePDF_cls0>
        <CumulativePDF_cls1>
          <PDF Name="GaussTransform var0 cls1" MinNSmooth="0" MaxNSmooth="0" InterpolMethod="1" KDE_type="0" KDE_iter="1" KDE_border="1" KDE_finefactor="0.0000000000000000e+00">
            <Histogram Name="Cumulative_Var0_cls1_original" NBins="186" XMin="5.9998998641967773e+00" XMax="4.7250000000000000e+02" HasEquidistantBins="0">
              7.80183327e-05 1.01423869e-03 2.49658781e-03 4.11546882e-03 5.69534069e-03 7.25570833e-03 8.81607551e-03 1.03764432e-02 1.21025993e-02 1.43017424e-02 1.69559922e-02 1.97922848e-02 2.27391031e-02 2.58110762e-02 2.89318115e-02 3.21695730e-02 3.56413908e-02 3.92302349e-02 4.28580903e-02 4.67102490e-02 5.10077588e-02 5.56823611e-02 6.05260022e-02 6.54704124e-02 7.04635903e-02 7.54957795e-02 8.08400363e-02 8.66914093e-02 9.27768424e-02 9.88622755e-02 1.04947709e-01 1.10969752e-01 1.16845503e-01 1.22916311e-01 1.29747793e-01 1.37463480e-01 1.45842314e-01 1.54502347e-01 1.62785292e-01 1.70275062e-01 1.77610412e-01 1.86002254e-01 1.95754543e-01 2.06052959e-01 2.16408253e-01 2.26890340e-01 2.37468317e-01 2.48052806e-01 2.58504003e-01 2.68727660e-01 2.78818011e-01 2.88960397e-01 2.99466848e-01 3.10499936e-01 3.21758956e-01 3.33001733e-01 3.44177842e-01 3.55223924e-01 3.66413057e-01 3.78161311e-01 3.90598744e-01 4.03595299e-01 4.16812897e-01 4.30056512e-01 4.43553686e-01 4.57518965e-01 4.71718311e-01 4.85917628e-01 5.00117004e-01 5.14316320e-01 5.28515637e-01 5.42402923e-01 5.55666029e-01 5.68617105e-01 5.81568122e-01 5.94558179e-01 6.07626259e-01 6.20733321e-01 6.33840382e-01 6.46996260e-01 6.59888744e-01 6.72079146e-01 6.83352768e-01 6.93573177e-01 7.03286469e-01 7.13321567e-01 7.23954797e-01 7.34562039e-01 7.43751943e-01 7.50889003e-01 7.56927311e-01 7.63225675e-01 7.70242393e-01 7.77576149e-01 7.84831822e-01 7.91931510e-01 7.98953176e-01 8.05935800e-01 8.12372327e-01 8.17716599e-01 8.22358668e-01 8.26883733e-01 8.31408799e-01 8.35885108e-01 8.40221643e-01 8.44428122e-01 8.48608613e-01 8.52811873e-01 8.57024848e-01 8.61237824e-01 8.65392327e-01 8.69254231e-01 8.72706532e-01 8.75905275e-01 8.78947973e-01 8.81912708e-01 8.84877384e-01 8.87803078e-01 8.90650749e-01 8.93264353e-01 8.95487905e-01 8.97516370e-01 8.99544835e-01 9.01573300e-01 9.03611541e-01 9.05669272e-01 9.07697797e-01 9.09648240e-01 9.11559701e-01 9.13412631e-01 9.15148497e-01 9.16825891e-01 9.18464303e-01 9.20034409e-01 9.21585023e-01 9.23145413e-01 9.24705744e-01 9.26227152e-01 9.27670479e-01 9.29074824e-01 9.30479109e-01 9.31883454e-01 9.33287799e-01 9.34692144e-01 9.36096430e-01 9.37461793e-01 9.38749075e-01 9.39997375e-01 9.41245675e-01 9.42493975e-01 9.43747103e-01 9.45010066e-01 9.46433902e-01 9.48228300e-01 9.50256765e-01 9.52182889e-01 9.53852117e-01 9.55347478e-01 9.56894875e-01 9.58611250e-01 9.60386157e-01 9.62122083e-01 9.63838458e-01 9.65554893e-01 9.67271268e-01 9.68938947e-01 9.70509052e-01 9.72030401e-01 9.73551750e-01 9.75073159e-01 9.76604223e-01 9.78154838e-01 9.79715228e-01 9.81275618e-01 9.82835948e-01 9.84396338e-01 9.85956669e-01 9.87517059e-01 9.89077449e-01 9.90637779e-01 9.92198169e-01 9.93758559e-01 9.95318890e-01 9.96879280e-01 9.98439610e-01 1.00000000e+00 
            </Histogram>
            <HistogramBinning NBins="186">
              5.99989986e+00 6.00000000e+00 7.00000000e+00 8.50000000e+00 9.00000000e+00 9.50000000e+00 1.00000000e+01 1.05000000e+01 1.10000000e+01 1.15000000e+01 1.20000000e+01 1.25000000e+01 1.30000000e+01 1.35000000e+01 1.40000000e+01 1.45000000e+01 1.50000000e+01 1.55000000e+01 1.60000000e+01 1.65000000e+01 1.70000000e+01 1.75000000e+01 1.80000000e+01 1.85000000e+01 1.90000000e+01 1.95000000e+01 2.00000000e+01 2.05000000e+01 2.10000000e+01 2.15000000e+01 2.20000000e+01 2.25000000e+01 2.30000000e+01 2.35000000e+01 2.40000000e+01 2.45000000e+01 2.50000000e+01 2.55000000e+01 2.60000000e+01 2.65000000e+01 2.70000000e+01 2.75000000e+01 2.80000000e+01 2.85000000e+01 2.90000000e+01 2.95000000e+01 3.00000000e+01 3.05000000e+01 3.10000000e+01 3.15000000e+01 3.20000000e+01 3.25000000e+01 3.30000000e+01 3.35000000e+01 3.40000000e+01 3.45000000e+01 3.50000000e+01 3.55000000e+01 3.60000000e+01 3.65000000e+01 3.70000000e+01 3.75000000e+01 3.80000000e+01 3.85000000e+01 3.90000000e+01 3.95000000e+01 4.00000000e+01 4.05000000e+01 4.10000000e+01 4.15000000e+01 4.20000000e+01 4.25000000e+01 4.30000000e+01 4.35000000e+01 4.40000000e+01 4.45000000e+01 4.50000000e+01 4.55000000e+01 4.60000000e+01 4.65000000e+01 4.70000000e+01 4.75000000e+01 4.80000000e+01 4.85000000e+01 4.90000000e+01 4.95000000e+01 5.00000000e+01 5.05000000e+01 5.10000000e+01 5.15000000e+01 5.20000000e+01 5.25000000e+01 5.30000000e+01 5.35000000e+01 5.40000000e+01 5.45000000e+01 5.50000000e+01 5.55000000e+01 5.60000000e+01 5.65000000e+01 5.70000000e+01 5.75000000e+01 5.80000000e+01 5.85000000e+01 5.90000000e+01 5.95000000e+01 6.00000000e+01 6.05000000e+01 6.10000000e+01 6.15000000e+01 6.20000000e+01 6.25000000e+01 6.30000000e+01 6.35000000e+01 6.40000000e+01 6.45000000e+01 6.50000000e+01 6.55000000e+01 6.60000000e+01 6.65000000e+01 6.70000000e+01 6.75000000e+01 6.80000000e+01 6.85000000e+01 6.90000000e+01 6.95000000e+01 7.00000000e+01 7.05000000e+01 7.10000000e+01 7.15000000e+01 7.20000000e+01 7.25000000e+01 7.30000000e+01 7.35000000e+01 7.40000000e+01 7.45000000e+01 7.50000000e+01 7.55000000e+01 7.65000000e+01 7.70000000e+01 7.75000000e+01 7.80000000e+01 7.90000000e+01 7.95000000e+01 8.00000000e+01 8.10000000e+01 8.15000000e+01 8.30000000e+01 8.35000000e+01 8.40000000e+01 8.50000000e+01 8.55000000e+01 8.65000000e+01 8.70000000e+01 8.80000000e+01 8.90000000e+01 8.95000000e+01 9.10000000e+01 9.20000000e+01 9.25000000e+01 9.35000000e+01 9.55000000e+01 9.65000000e+01 9.75000000e+01 9.85000000e+01 1.00500000e+02 1.03500000e+02 1.06000000e+02 1.07500000e+02 1.11500000e+02 1.13500000e+02 1.17000000e+02 1.19500000e+02 1.23500000e+02 1.26000000e+02 1.28500000e+02 1.32500000e+02 1.36500000e+02 1.42000000e+02 1.50000000e+02 1.60500000e+02 1.80500000e+02 2.14000000e+02 2.54500000e+02 2.76000000e+02 3.42500000e+02 4.72500000e+02 
            </HistogramBinning>
          </PDF>
        </CumulativePDF_cls1>
        <CumulativePDF_cls2>
          <PDF Name="GaussTransform var0 cls2" MinNSmooth="0" MaxNSmooth="0" InterpolMethod="1" KDE_type="0" KDE_iter="1" KDE_border="1" KDE_finefactor="0.0000000000000000e+00">
            <Histogram Name="Cumulative_Var0_cls2_original" NBins="380" XMin="5.4998998641967773e+00" XMax="5.1150000000000000e+02" HasEquidistantBins="0">
              6.51624650e-05 3.22105509e-04 6.91046880e-04 1.20416505e-03 1.96493906e-03 2.88063730e-03 3.83360544e-03 4.81475284e-03 5.81190782e-03 6.82940334e-03 7.97570497e-03 9.41124838e-03 1.11021576e-02 1.28947329e-02 1.47837335e-02 1.67900287e-02 1.88338589e-02 2.09650844e-02 2.32924372e-02 2.57298518e-02 2.82138828e-02 3.08864210e-02 3.38598713e-02 3.70598473e-02 4.03979421e-02 4.38561291e-02 4.74051945e-02 5.09835184e-02 5.47054708e-02 5.87395355e-02 6.29501939e-02 6.71930760e-02 7.14764223e-02 7.57620037e-02 8.00013989e-02 8.43835920e-02 8.92254636e-02 9.46120098e-02 1.00461386e-01 1.06589638e-01 1.12580657e-01 1.18128128e-01 1.23579584e-01 1.29630655e-01 1.36454910e-01 1.43624648e-01 1.50812700e-01 1.58013061e-01 1.65351599e-01 1.72827035e-01 1.80267423e-01 1.87585264e-01 1.94844931e-01 2.02163532e-01 2.09692895e-01 2.17503816e-01 2.25522563e-01 2.33711660e-01 2.42014259e-01 2.50341207e-01 2.58751959e-01 2.67373145e-01 2.76249826e-01 2.85335422e-01 2.94585615e-01 3.04010689e-01 3.13621700e-01 3.23423892e-01 3.33321691e-01 3.43270570e-01 3.53321582e-01 3.63427460e-01 3.73540848e-01 3.83482546e-01 3.93058211e-01 4.02424276e-01 4.11781937e-01 4.21194315e-01 4.30680275e-01 4.40195709e-01 4.49711144e-01 4.59246695e-01 4.68657315e-01 4.77748811e-01 4.86426681e-01 4.94625360e-01 5.02594590e-01 5.10683298e-01 5.18987417e-01 5.27228296e-01 5.34872591e-01 5.41672707e-01 5.47909975e-01 5.54140985e-01 5.60622156e-01 5.67225993e-01 5.73854148e-01 5.80454409e-01 5.86974502e-01 5.93405783e-01 5.99490106e-01 6.05026424e-01 6.10313118e-01 6.15599811e-01 6.20886505e-01 6.26094818e-01 6.31127119e-01 6.36043370e-01 6.40945673e-01 6.45855725e-01 6.50766850e-01 6.55673146e-01 6.60555661e-01 6.65261209e-01 6.69677198e-01 6.73936844e-01 6.78151965e-01 6.82344735e-01 6.86537564e-01 6.90697193e-01 6.94752872e-01 6.98635876e-01 7.02351987e-01 7.06003368e-01 7.09654689e-01 7.13306069e-01 7.16924787e-01 7.20466852e-01 7.23921716e-01 7.27301598e-01 7.30649590e-01 7.33971357e-01 7.37240672e-01 7.40483820e-01 7.43677914e-01 7.46734262e-01 7.49646187e-01 7.52484620e-01 7.55301714e-01 7.58113980e-01 7.60924876e-01 7.63735771e-01 7.66546667e-01 7.69337654e-01 7.72086501e-01 7.74810612e-01 7.77532339e-01 7.80254126e-01 7.82899797e-01 7.85393298e-01 7.87810683e-01 7.90197968e-01 7.92524874e-01 7.94821620e-01 7.97118306e-01 7.99415052e-01 8.01699162e-01 8.03957880e-01 8.06203961e-01 8.08450043e-01 8.10696125e-01 8.12950373e-01 8.15221071e-01 8.17509234e-01 8.19815874e-01 8.22120130e-01 8.24396253e-01 8.26584637e-01 8.28607917e-01 8.30521762e-01 8.32461655e-01 8.34476233e-01 8.36518288e-01 8.38526964e-01 8.40471685e-01 8.42358291e-01 8.44173372e-01 8.45883489e-01 8.47535789e-01 8.49230170e-01 8.51002216e-01 8.52805018e-01 8.54602098e-01 8.56396317e-01 8.58185709e-01 8.59931290e-01 8.61584067e-01 8.63136113e-01 8.64613473e-01 8.66049826e-01 8.67448211e-01 8.68814409e-01 8.70183825e-01 8.71574283e-01 8.72977436e-01 8.74348640e-01 8.75652134e-01 8.76922250e-01 8.78192365e-01 8.79477680e-01 8.80793214e-01 8.82124007e-01 8.83454740e-01 8.84771347e-01 8.86038125e-01 8.87235105e-01 8.88385415e-01 8.89523208e-01 8.90651584e-01 8.91768754e-01 8.92890275e-01 8.94027174e-01 8.95182610e-01 8.96356881e-01 8.97552073e-01 8.98747742e-01 8.99896622e-01 9.00979757e-01 9.02030408e-01 9.03084636e-01 9.04149711e-01 9.05219257e-01 9.06271338e-01 9.07288492e-01 9.08288121e-01 9.09287810e-01 9.10287440e-01 9.11281943e-01 9.12266135e-01 9.13245201e-01 9.14211571e-01 9.15146410e-01 9.16051447e-01 9.16940093e-01 9.17818844e-01 9.18695867e-01 9.19578075e-01 9.20471787e-01 9.21399474e-01 9.22387540e-01 9.23429012e-01 9.24464166e-01 9.25416708e-01 9.26271021e-01 9.27070081e-01 9.27846134e-01 9.28622425e-01 9.29415047e-01 9.30223942e-01 9.31035519e-01 9.31836247e-01 9.32631552e-01 9.33426917e-01 9.34222221e-01 9.35009778e-01 9.35777903e-01 9.36531067e-01 9.37285602e-01 9.38049376e-01 9.38817620e-01 9.39585805e-01 9.40321922e-01 9.40994143e-01 9.41634536e-01 9.42274928e-01 9.42912936e-01 9.43546057e-01 9.44176853e-01 9.44792867e-01 9.45374012e-01 9.45930183e-01 9.46492255e-01 9.47075546e-01 9.47667062e-01 9.48247969e-01 9.48814094e-01 9.49366391e-01 9.49905694e-01 9.50439095e-01 9.50977683e-01 9.51526225e-01 9.52076077e-01 9.52592313e-01 9.53051329e-01 9.53483343e-01 9.53915298e-01 9.54347253e-01 9.54779208e-01 9.55212891e-01 9.55649972e-01 9.56088781e-01 9.56527650e-01 9.56966460e-01 9.57405269e-01 9.57854331e-01 9.58323956e-01 9.58803892e-01 9.59283769e-01 9.59763646e-01 9.60237145e-01 9.60710108e-01 9.61204648e-01 9.61713970e-01 9.62195694e-01 9.62622106e-01 9.63019550e-01 9.63445365e-01 9.63930130e-01 9.64454532e-01 9.64987934e-01 9.65521395e-01 9.66054857e-01 9.66585696e-01 9.67111468e-01 9.67652023e-01 9.68230665e-01 9.68823493e-01 9.69378650e-01 9.69882071e-01 9.70364809e-01 9.70847487e-01 9.71330166e-01 9.71812904e-01 9.72295582e-01 9.72777605e-01 9.73258257e-01 9.73738194e-01 9.74218190e-01 9.74698126e-01 9.75177169e-01 9.75654125e-01 9.76129949e-01 9.76609051e-01 9.77093875e-01 9.77580070e-01 9.78071451e-01 9.78575945e-01 9.79086936e-01 9.79603410e-01 9.80130494e-01 9.80662584e-01 9.81194615e-01 9.81726706e-01 9.82253253e-01 9.82768893e-01 9.83278990e-01 9.83789146e-01 9.84288633e-01 9.84766841e-01 9.85234439e-01 9.85702038e-01 9.86180842e-01 9.86685157e-01 9.87203062e-01 9.87706304e-01 9.88185287e-01 9.88651037e-01 9.89110649e-01 9.89570022e-01 9.90040720e-01 9.90525842e-01 9.91018057e-01 9.91513073e-01 9.92013693e-01 9.92524683e-01 9.93043721e-01 9.93561506e-01 9.94072974e-01 9.94582057e-01 9.95094597e-01 9.95611250e-01 9.96129513e-01 9.96658206e-01 9.97211635e-01 9.97780502e-01 9.98338401e-01 9.98874903e-01 9.99376774e-01 9.99777138e-01 1.00000000e+00 
            </Histogram>
            <HistogramBinning NBins="380">
              5.49989986e+00 5.50000000e+00 6.50000000e+00 7.00000000e+00 8.00000000e+00 8.50000000e+00 9.00000000e+00 9.50000000e+00 1.00000000e+01 1.05000000e+01 1.10000000e+01 1.15000000e+01 1.20000000e+01 1.25000000e+01 1.30000000e+01 1.35000000e+01 1.40000000e+01 1.45000000e+01 1.50000000e+01 1.55000000e+01 1.60000000e+01 1.65000000e+01 1.70000000e+01 1.75000000e+01 1.80000000e+01 1.85000000e+01 1.90000000e+01 1.95000000e+01 2.00000000e+01 2.05000000e+01 2.10000000e+01 2.15000000e+01 2.20000000e+01 2.25000000e+01 2.30000000e+01 2.35000000e+01 2.40000000e+01 2.45000000e+01 2.50000000e+01 2.55000000e+01 2.60000000e+01 2.65000000e+01 2.70000000e+01 2.75000000e+01 2.80000000e+01 2.85000000e+01 2.90000000e+01 2.95000000e+01 3.00000000e+01 3.05000000e+01 3.10000000e+01 3.15000000e+01 3.20000000e+01 3.25000000e+01 3.30000000e+01 3.35000000e+01 3.40000000e+01 3.45000000e+01 3.50000000e+01 3.55000000e+01 3.60000000e+01 3.65000000e+01 3.70000000e+01 3.75000000e+01 3.80000000e+01 3.85000000e+01 3.90000000e+01 3.95000000e+01 4.00000000e+01 4.05000000e+01 4.10000000e+01 4.15000000e+01 4.20000000e+01 4.25000000e+01 4.30000000e+01 4.35000000e+01 4.40000000e+01 4.45000000e+01 4.50000000e+01 4.55000000e+01 4.60000000e+01 4.65000000e+01 4.70000000e+01 4.75000000e+01 4.80000000e+01 4.85000000e+01 4.90000000e+01 4.95000000e+01 5.00000000e+01 5.05000000e+01 5.10000000e+01 5.15000000e+01 5.20000000e+01 5.25000000e+01 5.30000000e+01 5.35000000e+01 5.40000000e+01 5.45000000e+01 5.50000000e+01 5.55000000e+01 5.60000000e+01 5.65000000e+01 5.70000000e+01 5.75000000e+01 5.80000000e+01 5.85000000e+01 5.90000000e+01 5.95000000e+01 6.00000000e+01 6.05000000e+01 6.10000000e+01 6.15000000e+01 6.20000000e+01 6.25000000e+01 6.30000000e+01 6.35000000e+01 6.40000000e+01 6.45000000e+01 6.50000000e+01 6.55000000e+01 6.60000000e+01 6.65000000e+01 6.70000000e+01 6.75000000e+01 6.80000000e+01 6.85000000e+01 6.90000000e+01 6.95000000e+01 7.00000000e+01 7.05000000e+01 7.10000000e+01 7.15000000e+01 7.20000000e+01 7.25000000e+01 7.30000000e+01 7.35000000e+01 7.40000000e+01 7.45000000e+01 7.50000000e+01 7.55000000e+01 7.60000000e+01 7.65000000e+01 7.70000000e+01 7.75000000e+01 7.80000000e+01 7.85000000e+01 7.90000000e+01 7.95000000e+01 8.00000000e+01 8.05000000e+01 8.10000000e+01 8.15000000e+01 8.20000000e+01 8.25000000e+01 8.30000000e+01 8.35000000e+01 8.40000000e+01 8.45000000e+01 8.50000000e+01 8.55000000e+01 8.60000000e+01 8.65000000e+01 8.70000000e+01 8.75000000e+01 8.80000000e+01 8.85000000e+01 8.90000000e+01 8.95000000e+01 9.00000000e+01 9.05000000e+01 9.10000000e+01 9.15000000e+01 9.20000000e+01 9.25000000e+01 9.30000000e+01 9.35000000e+01 9.40000000e+01 9.45000000e+01 9.50000000e+01 9.55000000e+01 9.60000000e+01 9.65000000e+01 9.70000000e+01 9.75000000e+01 9.80000000e+01 9.85000000e+01 9.90000000e+01 9.95000000e+01 1.00000000e+02 1.00500000e+02 1.01000000e+02 1.01500000e+02 1.02000000e+02 1.02500000e+02 1.03000000e+02 1.03500000e+02 1.04000000e+02 1.04500000e+02 1.05000000e+02 1.05500000e+02 1.06000000e+02 1.06500000e+02 1.07000000e+02 1.07500000e+02 1.08000000e+02 1.08500000e+02 1.09000000e+02 1.09500000e+02 1.10000000e+02 1.10500000e+02 1.11000000e+02 1.11500000e+02 1.12000000e+02 1.12500000e+02 1.13000000e+02 1.13500000e+02 1.14000000e+02 1.14500000e+02 1.15000000e+02 1.15500000e+02 1.16000000e+02 1.16500000e+02 1.17000000e+02 1.17500000e+02 1.18000000e+02 1.18500000e+02 1.19000000e+02 1.19500000e+02 1.20000000e+02 1.20500000e+02 1.21000000e+02 1.21500000e+02 1.22000000e+02 1.22500000e+02 1.23000000e+02 1.23500000e+02 1.24000000e+02 1.24500000e+02 1.25000000e+02 1.25500000e+02 1.26000000e+02 1.26500000e+02 1.27000000e+02 1.27500000e+02 1.28000000e+02 1.28500000e+02 1.29000000e+02 1.29500000e+02 1.30000000e+02 1.30500000e+02 1.31000000e+02 1.31500000e+02 1.32000000e+02 1.32500000e+02 1.33000000e+02 1.33500000e+02 1.34000000e+02 1.34500000e+02 1.35000000e+02 1.35500000e+02 1.36000000e+02 1.36500000e+02 1.37000000e+02 1.37500000e+02 1.38000000e+02 1.38500000e+02 1.39000000e+02 1.39500000e+02 1.40000000e+02 1.40500000e+02 1.41000000e+02 1.41500000e+02 1.42000000e+02 1.42500000e+02 1.43000000e+02 1.43500000e+02 1.44000000e+02 1.44500000e+02 1.45000000e+02 1.45500000e+02 1.46000000e+02 1.46500000e+02 1.47000000e+02 1.47500000e+02 1.48000000e+02 1.48500000e+02 1.49000000e+02 1.49500000e+02 1.50000000e+02 1.50500000e+02 1.51000000e+02 1.52000000e+02 1.52500000e+02 1.53000000e+02 1.53500000e+02 1.54000000e+02 1.55000000e+02 1.55500000e+02 1.56500000e+02 1.57000000e+02 1.57500000e+02 1.58500000e+02 1.59000000e+02 1.59500000e+02 1.60500000e+02 1.61000000e+02 1.61500000e+02 1.62500000e+02 1.63000000e+02 1.64000000e+02 1.65000000e+02 1.66000000e+02 1.67000000e+02 1.68000000e+02 1.68500000e+02 1.69000000e+02 1.70000000e+02 1.71000000e+02 1.72000000e+02 1.73000000e+02 1.74000000e+02 1.75000000e+02 1.76500000e+02 1.77500000e+02 1.79000000e+02 1.80000000e+02 1.81500000e+02 1.82500000e+02 1.84000000e+02 1.85500000e+02 1.87000000e+02 1.89000000e+02 1.90500000e+02 1.92000000e+02 1.93500000e+02 1.95500000e+02 1.97500000e+02 1.99000000e+02 2.00500000e+02 2.02500000e+02 2.04500000e+02 2.07000000e+02 2.09500000e+02 2.11000000e+02 2.13500000e+02 2.15500000e+02 2.17500000e+02 2.20500000e+02 2.23500000e+02 2.27000000e+02 2.30000000e+02 2.33000000e+02 2.37500000e+02 2.41500000e+02 2.46000000e+02 2.51000000e+02 2.55500000e+02 2.59500000e+02 2.62000000e+02 2.65000000e+02 2.68500000e+02 2.72500000e+02 2.75000000e+02 2.79000000e+02 2.84000000e+02 2.89000000e+02 2.93500000e+02 3.00000000e+02 3.05500000e+02 3.13500000e+02 3.21000000e+02 3.32000000e+02 3.37500000e+02 3.48000000e+02 3.58500000e+02 3.73500000e+02 3.90000000e+02 4.13000000e+02 4.43500000e+02 5.11500000e+02 5.11500000e+02 
            </HistogramBinning>
          </PDF>
        </CumulativePDF_cls2>
      </Variable>
      <Variable VarIndex="1">
        <CumulativePDF_cls0>
          <PDF Name="GaussTransform var1 cls0" MinNSmooth="0" MaxNSmooth="0" InterpolMethod="1" KDE_type="0" KDE_iter="1" KDE_border="1" KDE_finefactor="0.0000000000000000e+00">
            <Histogram Name="Cumulative_Var1_cls0_original" NBins="319" XMin="5.4998998641967773e+00" XMax="5.1150000000000000e+02" HasEquidistantBins="0">
              1.09932425e-05 3.07123701e-04 8.16420012e-04 1.48863962e-03 2.34402274e-03 3.44423437e-03 4.78641177e-03 6.32890128e-03 8.11805110e-03 1.02012707e-02 1.25593208e-02 1.51873929e-02 1.80851426e-02 2.12158114e-02 2.45474521e-02 2.81271264e-02 3.20338495e-02 3.62277701e-02 4.06582206e-02 4.53315489e-02 5.02118617e-02 5.52907400e-02 6.05606250e-02 6.60228953e-02 7.17118979e-02 7.75949955e-02 8.35906118e-02 8.97119567e-02 9.60454345e-02 1.02569237e-01 1.09248318e-01 1.16042145e-01 1.23012200e-01 1.30312577e-01 1.37860984e-01 1.45481527e-01 1.53115988e-01 1.60787046e-01 1.68542609e-01 1.76480234e-01 1.84617981e-01 1.92869797e-01 2.01204732e-01 2.09605113e-01 2.18048260e-01 2.26563558e-01 2.35172987e-01 2.43829995e-01 2.52496779e-01 2.61171162e-01 2.69853741e-01 2.78602660e-01 2.87448943e-01 2.96330452e-01 3.05211961e-01 3.14082652e-01 3.22942525e-01 3.31790715e-01 3.40627223e-01 3.49453419e-01 3.58257622e-01 3.67009103e-01 3.75642061e-01 3.84141207e-01 3.92581284e-01 4.01015848e-01 4.09447640e-01 4.17873979e-01 4.26293075e-01 4.34614271e-01 4.42734838e-01 4.50750977e-01 4.58764374e-01 4.66773629e-01 4.74747866e-01 4.82654750e-01 4.90462691e-01 4.98104542e-01 5.05586505e-01 5.12996614e-01 5.20387828e-01 5.27776182e-01 5.35064697e-01 5.42121291e-01 5.49021304e-01 5.55825412e-01 5.62525809e-01 5.69190443e-01 5.75855136e-01 5.82488000e-01 5.89057326e-01 5.95513761e-01 6.01781309e-01 6.07913435e-01 6.14009023e-01 6.20095491e-01 6.26153111e-01 6.32131040e-01 6.37978077e-01 6.43705726e-01 6.49368107e-01 6.54989302e-01 6.60588264e-01 6.66107535e-01 6.71488047e-01 6.76744878e-01 6.81924105e-01 6.87060833e-01 6.92152619e-01 6.97179973e-01 7.02119350e-01 7.07008600e-01 7.11818814e-01 7.16453195e-01 7.20934808e-01 7.25339174e-01 7.29717910e-01 7.34096646e-01 7.38467813e-01 7.42823899e-01 7.47118115e-01 7.51303792e-01 7.55417347e-01 7.59489477e-01 7.63509035e-01 7.67461121e-01 7.71328509e-01 7.75104165e-01 7.78819919e-01 7.82469630e-01 7.85999000e-01 7.89439559e-01 7.92829394e-01 7.96174943e-01 7.99514651e-01 8.02847028e-01 8.06144297e-01 8.09409976e-01 8.12663972e-01 8.15834999e-01 8.18832576e-01 8.21707964e-01 8.24519038e-01 8.27290714e-01 8.30050051e-01 8.32789958e-01 8.35510015e-01 8.38223934e-01 8.40924144e-01 8.43603432e-01 8.46282005e-01 8.48914862e-01 8.51443291e-01 8.53888631e-01 8.56272101e-01 8.58624637e-01 8.60946298e-01 8.63180637e-01 8.65324378e-01 8.67427349e-01 8.69509518e-01 8.71559739e-01 8.73586953e-01 8.75604749e-01 8.77597272e-01 8.79538953e-01 8.81415725e-01 8.83228898e-01 8.85009825e-01 8.86782467e-01 8.88550997e-01 8.90309215e-01 8.92041862e-01 8.93754601e-01 8.95464540e-01 8.97178352e-01 8.98894250e-01 9.00586605e-01 9.02211726e-01 9.03758347e-01 9.05254781e-01 9.06722367e-01 9.08154249e-01 9.09553111e-01 9.10932779e-01 9.12302136e-01 9.13669407e-01 9.15036678e-01 9.16398466e-01 9.17728662e-01 9.19003904e-01 9.20235157e-01 9.21442330e-01 9.22635078e-01 9.23823237e-01 9.25013065e-01 9.26193476e-01 9.27352548e-01 9.28493142e-01 9.29605484e-01 9.30677533e-01 9.31727052e-01 9.32769835e-01 9.33795273e-01 9.34806049e-01 9.35799718e-01 9.36746955e-01 9.37653899e-01 9.38566625e-01 9.39500630e-01 9.40421164e-01 9.41300273e-01 9.42152202e-01 9.43005741e-01 9.43865955e-01 9.44719970e-01 9.45543468e-01 9.46324289e-01 9.47081149e-01 9.47826266e-01 9.48558688e-01 9.49277401e-01 9.49989200e-01 9.50691521e-01 9.51375008e-01 9.52049017e-01 9.52723086e-01 9.53397632e-01 9.54069078e-01 9.54732776e-01 9.55392361e-01 9.56040204e-01 9.56659317e-01 9.57255721e-01 9.57846582e-01 9.58446443e-01 9.59065497e-01 9.59693670e-01 9.60302949e-01 9.60877597e-01 9.61428642e-01 9.61967289e-01 9.62493062e-01 9.63010967e-01 9.63534594e-01 9.64069307e-01 9.64599848e-01 9.65101182e-01 9.65567529e-01 9.66021419e-01 9.66480792e-01 9.66945589e-01 9.67424035e-01 9.67926919e-01 9.68439996e-01 9.68932033e-01 9.69390213e-01 9.69829917e-01 9.70266879e-01 9.70681190e-01 9.71046507e-01 9.71384764e-01 9.71734285e-01 9.72104609e-01 9.72483873e-01 9.72898901e-01 9.73414361e-01 9.73994613e-01 9.74545777e-01 9.75067973e-01 9.75590169e-01 9.76111650e-01 9.76631761e-01 9.77151215e-01 9.77676809e-01 9.78207052e-01 9.78717029e-01 9.79190826e-01 9.79639411e-01 9.80097532e-01 9.80601847e-01 9.81144607e-01 9.81687725e-01 9.82204914e-01 9.82695818e-01 9.83177781e-01 9.83670831e-01 9.84182417e-01 9.84701872e-01 9.85223353e-01 9.85749662e-01 9.86278713e-01 9.86805022e-01 9.87326503e-01 9.87843215e-01 9.88354385e-01 9.88862813e-01 9.89370346e-01 9.89876151e-01 9.90382731e-01 9.90893006e-01 9.91404176e-01 9.91911054e-01 9.92412627e-01 9.92911398e-01 9.93408859e-01 9.93905604e-01 9.94402349e-01 9.94902730e-01 9.95410323e-01 9.95921493e-01 9.96432722e-01 9.96943891e-01 9.97455060e-01 9.97965574e-01 9.98474717e-01 9.98983145e-01 9.99491572e-01 1.00000000e+00 
            </Histogram>
            <HistogramBinning NBins="319">
              5.49989986e+00 5.50000000e+00 6.00000000e+00 6.50000000e+00 7.00000000e+00 7.50000000e+00 8.00000000e+00 8.50000000e+00 9.00000000e+00 9.50000000e+00 1.00000000e+01 1.05000000e+01 1.10000000e+01 1.15000000e+01 1.20000000e+01 1.25000000e+01 1.30000000e+01 1.35000000e+01 1.40000000e+01 1.45000000e+01 1.50000000e+01 1.55000000e+01 1.60000000e+01 1.65000000e+01 1.70000000e+01 1.75000000e+01 1.80000000e+01 1.85000000e+01 1.90000000e+01 1.95000000e+01 2.00000000e+01 2.05000000e+01 2.10000000e+01 2.15000000e+01 2.20000000e+01 2.25000000e+01 2.30000000e+01 2.35000000e+01 2.40000000e+01 2.45000000e+01 2.50000000e+01 2.55000000e+01 2.60000000e+01 2.65000000e+01 2.70000000e+01 2.75000000e+01 2.80000000e+01 2.85000000e+01 2.90000000e+01 2.95000000e+01 3.00000000e+01 3.05000000e+01 3.10000000e+01 3.15000000e+01 3.20000000e+01 3.25000000e+01 3.30000000e+01 3.35000000e+01 3.40000000e+01 3.45000000e+01 3.50000000e+01 3.55000000e+01 3.60000000e+01 3.65000000e+01 3.70000000e+01 3.75000000e+01 3.80000000e+01 3.85000000e+01 3.90000000e+01 3.95000000e+01 4.00000000e+01 4.05000000e+01 4.10000000e+01 4.15000000e+01 4.20000000e+01 4.25000000e+01 4.30000000e+01 4.35000000e+01 4.40000000e+01 4.45000000e+01 4.50000000e+01 4.55000000e+01 4.60000000e+01 4.65000000e+01 4.70000000e+01 4.75000000e+01 4.80000000e+01 4.85000000e+01 4.90000000e+01 4.95000000e+01 5.00000000e+01 5.05000000e+01 5.10000000e+01 5.15000000e+01 5.20000000e+01 5.25000000e+01 5.30000000e+01 5.35000000e+01 5.40000000e+01 5.45000000e+01 5.50000000e+01 5.55000000e+01 5.60000000e+01 5.65000000e+01 5.70000000e+01 5.75000000e+01 5.80000000e+01 5.85000000e+01 5.90000000e+01 5.95000000e+01 6.00000000e+01 6.05000000e+01 6.10000000e+01 6.15000000e+01 6.20000000e+01 6.25000000e+01 6.30000000e+01 6.35000000e+01 6.40000000e+01 6.45000000e+01 6.50000000e+01 6.55000000e+01 6.60000000e+01 6.65000000e+01 6.70000000e+01 6.75000000e+01 6.80000000e+01 6.85000000e+01 6.90000000e+01 6.95000000e+01 7.00000000e+01 7.05000000e+01 7.10000000e+01 7.15000000e+01 7.20000000e+01 7.25000000e+01 7.30000000e+01 7.35000000e+01 7.40000000e+01 7.45000000e+01 7.50000000e+01 7.55000000e+01 7.60000000e+01 7.65000000e+01 7.70000000e+01 7.75000000e+01 7.80000000e+01 7.85000000e+01 7.90000000e+01 7.95000000e+01 8.00000000e+01 8.05000000e+01 8.10000000e+01 8.15000000e+01 8.20000000e+01 8.25000000e+01 8.30000000e+01 8.35000000e+01 8.40000000e+01 8.45000000e+01 8.50000000e+01 8.55000000e+01 8.60000000e+01 8.65000000e+01 8.70000000e+01 8.75000000e+01 8.80000000e+01 8.85000000e+01 8.90000000e+01 8.95000000e+01 9.00000000e+01 9.05000000e+01 9.10000000e+01 9.15000000e+01 9.20000000e+01 9.25000000e+01 9.30000000e+01 9.35000000e+01 9.40000000e+01 9.45000000e+01 9.50000000e+01 9.55000000e+01 9.60000000e+01 9.65000000e+01 9.70000000e+01 9.75000000e+01 9.80000000e+01 9.85000000e+01 9.90000000e+01 9.95000000e+01 1.00000000e+02 1.00500000e+02 1.01000000e+02 1.01500000e+02 1.02000000e+02 1.02500000e+02 1.03000000e+02 1.03500000e+02 1.04000000e+02 1.04500000e+02 1.05000000e+02 1.05500000e+02 1.06000000e+02 1.06500000e+02 1.07000000e+02 1.07500000e+02 1.08000000e+02 1.08500000e+02 1.09000000e+02 1.09500000e+02 1.10000000e+02 1.10500000e+02 1.11000000e+02 1.11500000e+02 1.12000000e+02 1.12500000e+02 1.13000000e+02 1.13500000e+02 1.14000000e+02 1.14500000e+02 1.15000000e+02 1.15500000e+02 1.16000000e+02 1.16500000e+02 1.17000000e+02 1.17500000e+02 1.18000000e+02 1.18500000e+02 1.19000000e+02 1.19500000e+02 1.20000000e+02 1.20500000e+02 1.21000000e+02 1.21500000e+02 1.22000000e+02 1.22500000e+02 1.23000000e+02 1.23500000e+02 1.24000000e+02 1.24500000e+02 1.25000000e+02 1.25500000e+02 1.26000000e+02 1.26500000e+02 1.27000000e+02 1.27500000e+02 1.28000000e+02 1.28500000e+02 1.29000000e+02 1.29500000e+02 1.30000000e+02 1.30500000e+02 1.31000000e+02 1.31500000e+02 1.32000000e+02 1.32500000e+02 1.33500000e+02 1.34000000e+02 1.34500000e+02 1.35000000e+02 1.35500000e+02 1.36500000e+02 1.37000000e+02 1.37500000e+02 1.38500000e+02 1.39000000e+02 1.40000000e+02 1.40500000e+02 1.41500000e+02 1.42000000e+02 1.43000000e+02 1.44000000e+02 1.45000000e+02 1.46000000e+02 1.47000000e+02 1.48000000e+02 1.49000000e+02 1.50000000e+02 1.51000000e+02 1.52000000e+02 1.53500000e+02 1.54500000e+02 1.56000000e+02 1.57500000e+02 1.58500000e+02 1.60000000e+02 1.61500000e+02 1.63000000e+02 1.65000000e+02 1.67500000e+02 1.69500000e+02 1.71500000e+02 1.74000000e+02 1.77000000e+02 1.79500000e+02 1.83000000e+02 1.86500000e+02 1.91000000e+02 1.96000000e+02 2.00000000e+02 2.05000000e+02 2.11500000e+02 2.18500000e+02 2.25500000e+02 2.39500000e+02 2.55500000e+02 2.60000000e+02 2.63500000e+02 2.67000000e+02 2.72000000e+02 2.76500000e+02 2.82000000e+02 2.88500000e+02 2.96000000e+02 3.04000000e+02 3.16000000e+02 3.29000000e+02 3.55500000e+02 4.20000000e+02 5.11500000e+02 
            </HistogramBinning>
          </PDF>
        </CumulativePDF_cls0>
        <CumulativePDF_cls1>
          <PDF Name="GaussTransform var1 cls1" MinNSmooth="0" MaxNSmooth="0" InterpolMethod="1" KDE_type="0" KDE_iter="1" KDE_border="1" KDE_finefactor="0.0000000000000000e+00">
            <Histogram Name="Cumulative_Var1_cls1_original" NBins="157" XMin="5.4998998641967773e+00" XMax="5.1150000000000000e+02" HasEquidistantBins="0">
              3.91629554e-04 1.33154076e-03 2.58475565e-03 3.94566869e-03 5.34737669e-03 6.87310053e-03 8.92099738e-03 1.16575100e-02 1.48297101e-02 1.83543768e-02 2.21140217e-02 2.59519927e-02 2.98682898e-02 3.38531211e-02 3.78444828e-02 4.18227874e-02 4.62057739e-02 5.15123568e-02 5.75238727e-02 6.35745525e-02 6.93706721e-02 7.51667917e-02 8.13545361e-02 8.79730731e-02 9.48951319e-02 1.02110900e-01 1.09473534e-01 1.16836168e-01 1.24198802e-01 1.31561443e-01 1.38933867e-01 1.46629378e-01 1.54873177e-01 1.63430288e-01 1.72251731e-01 1.81298375e-01 1.90579996e-01 2.00253233e-01 2.10122287e-01 2.19991356e-01 2.29860410e-01 2.39729479e-01 2.50185966e-01 2.61817366e-01 2.74036199e-01 2.86294192e-01 2.98630536e-01 3.11632633e-01 3.25927109e-01 3.40887368e-01 3.55808437e-01 3.70768696e-01 3.85885596e-01 4.01080817e-01 4.16276067e-01 4.31549609e-01 4.46979821e-01 4.62958306e-01 4.79876727e-01 4.97294456e-01 5.14770925e-01 5.32237589e-01 5.49625993e-01 5.66847920e-01 5.83815277e-01 6.00635767e-01 6.17299616e-01 6.33513033e-01 6.49178267e-01 6.64530098e-01 6.79764509e-01 6.95028305e-01 7.10367084e-01 7.25340426e-01 7.39034414e-01 7.50871420e-01 7.61406243e-01 7.71588564e-01 7.81810105e-01 7.92080581e-01 8.02253127e-01 8.12239707e-01 8.21952105e-01 8.31155419e-01 8.39487314e-01 8.46546412e-01 8.52381706e-01 8.57394576e-01 8.62015784e-01 8.66597891e-01 8.71258259e-01 8.75957847e-01 8.80461574e-01 8.84573698e-01 8.88489962e-01 8.92210484e-01 8.95539284e-01 8.98672342e-01 9.01687920e-01 9.04468477e-01 9.07063007e-01 9.09520507e-01 9.11728323e-01 9.13570583e-01 9.15243208e-01 9.16987538e-01 9.18828249e-01 9.20708060e-01 9.22587872e-01 9.24467683e-01 9.26269174e-01 9.27914023e-01 9.29480553e-01 9.31047082e-01 9.32613611e-01 9.34180081e-01 9.35736835e-01 9.37270701e-01 9.38830733e-01 9.40560400e-01 9.42508757e-01 9.44545209e-01 9.46581721e-01 9.48618174e-01 9.50654685e-01 9.52612817e-01 9.54335988e-01 9.55824196e-01 9.57234025e-01 9.58643913e-01 9.60053802e-01 9.61424470e-01 9.62716877e-01 9.63970065e-01 9.65223312e-01 9.66593981e-01 9.68199670e-01 9.69922841e-01 9.71646011e-01 9.73330021e-01 9.74935710e-01 9.76502240e-01 9.78068709e-01 9.79635239e-01 9.81201768e-01 9.82768297e-01 9.84334826e-01 9.85901356e-01 9.87467825e-01 9.89034355e-01 9.90600884e-01 9.92167413e-01 9.93733943e-01 9.95300472e-01 9.96866941e-01 9.98433471e-01 1.00000000e+00 
            </Histogram>
            <HistogramBinning NBins="157">
              5.49989986e+00 5.50000000e+00 6.50000000e+00 7.00000000e+00 7.50000000e+00 8.00000000e+00 8.50000000e+00 9.00000000e+00 9.50000000e+00 1.00000000e+01 1.05000000e+01 1.10000000e+01 1.15000000e+01 1.20000000e+01 1.25000000e+01 1.30000000e+01 1.35000000e+01 1.40000000e+01 1.45000000e+01 1.50000000e+01 1.55000000e+01 1.60000000e+01 1.65000000e+01 1.70000000e+01 1.75000000e+01 1.80000000e+01 1.85000000e+01 1.90000000e+01 1.95000000e+01 2.00000000e+01 2.05000000e+01 2.10000000e+01 2.15000000e+01 2.20000000e+01 2.25000000e+01 2.30000000e+01 2.35000000e+01 2.40000000e+01 2.45000000e+01 2.50000000e+01 2.55000000e+01 2.60000000e+01 2.65000000e+01 2.70000000e+01 2.75000000e+01 2.80000000e+01 2.85000000e+01 2.90000000e+01 2.95000000e+01 3.00000000e+01 3.05000000e+01 3.10000000e+01 3.15000000e+01 3.20000000e+01 3.25000000e+01 3.30000000e+01 3.35000000e+01 3.40000000e+01 3.45000000e+01 3.50000000e+01 3.55000000e+01 3.60000000e+01 3.65000000e+01 3.70000000e+01 3.75000000e+01 3.80000000e+01 3.85000000e+01 3.90000000e+01 3.95000000e+01 4.00000000e+01 4.05000000e+01 4.10000000e+01 4.15000000e+01 4.20000000e+01 4.25000000e+01 4.30000000e+01 4.35000000e+01 4.40000000e+01 4.45000000e+01 4.50000000e+01 4.55000000e+01 4.60000000e+01 4.65000000e+01 4.70000000e+01 4.75000000e+01 4.80000000e+01 4.85000000e+01 4.90000000e+01 4.95000000e+01 5.00000000e+01 5.05000000e+01 5.10000000e+01 5.15000000e+01 5.20000000e+01 5.25000000e+01 5.30000000e+01 5.35000000e+01 5.40000000e+01 5.45000000e+01 5.50000000e+01 5.55000000e+01 5.60000000e+01 5.65000000e+01 5.70000000e+01 5.75000000e+01 5.80000000e+01 5.85000000e+01 5.90000000e+01 5.95000000e+01 6.00000000e+01 6.05000000e+01 6.10000000e+01 6.15000000e+01 6.20000000e+01 6.25000000e+01 6.30000000e+01 6.35000000e+01 6.40000000e+01 6.50000000e+01 6.55000000e+01 6.60000000e+01 6.65000000e+01 6.75000000e+01 6.80000000e+01 6.85000000e+01 6.90000000e+01 6.95000000e+01 7.00000000e+01 7.10000000e+01 7.15000000e+01 7.20000000e+01 7.30000000e+01 7.45000000e+01 7.50000000e+01 7.55000000e+01 7.70000000e+01 7.90000000e+01 8.10000000e+01 8.20000000e+01 8.35000000e+01 8.60000000e+01 8.70000000e+01 8.90000000e+01 9.10000000e+01 9.35000000e+01 9.60000000e+01 9.75000000e+01 9.95000000e+01 1.04500000e+02 1.09000000e+02 1.19000000e+02 1.27000000e+02 1.38500000e+02 1.53000000e+02 1.69500000e+02 2.53000000e+02 3.08000000e+02 5.11500000e+02 
            </HistogramBinning>
          </PDF>
        </CumulativePDF_cls1>
        <CumulativePDF_cls2>
          <PDF Name="GaussTransform var1 cls2" MinNSmooth="0" MaxNSmooth="0" InterpolMethod="1" KDE_type="0" KDE_iter="1" KDE_border="1" KDE_finefactor="0.0000000000000000e+00">
            <Histogram Name="Cumulative_Var1_cls2_original" NBins="282" XMin="5.4998998641967773e+00" XMax="5.1150000000000000e+02" HasEquidistantBins="0">
              0.00000000e+00 2.85302027e-04 9.28367372e-04 1.87406561e-03 2.98695313e-03 4.24499391e-03 5.73139079e-03 7.57805537e-03 9.80210584e-03 1.23693468e-02 1.53196445e-02 1.84925459e-02 2.18612682e-02 2.55430304e-02 2.93298978e-02 3.30124050e-02 3.67724076e-02 4.10049967e-02 4.59242389e-02 5.13673425e-02 5.69330715e-02 6.23974837e-02 6.78923428e-02 7.36915991e-02 7.98091963e-02 8.61249641e-02 9.26964507e-02 9.94928330e-02 1.06363997e-01 1.13242738e-01 1.20154373e-01 1.27153352e-01 1.34405836e-01 1.42062292e-01 1.50038898e-01 1.58266097e-01 1.66678086e-01 1.75248012e-01 1.84033379e-01 1.92961946e-01 2.01963201e-01 2.11000815e-01 2.20038414e-01 2.29391694e-01 2.39376307e-01 2.49676585e-01 2.60068744e-01 2.70644665e-01 2.81572521e-01 2.93037742e-01 3.04780334e-01 3.16543370e-01 3.28408927e-01 3.40400696e-01 3.52436692e-01 3.64472687e-01 3.76564205e-01 3.88766795e-01 4.01232928e-01 4.14115131e-01 4.27227378e-01 4.40383673e-01 4.53520864e-01 4.66575772e-01 4.79499996e-01 4.92245108e-01 5.04900694e-01 5.17529845e-01 5.29997647e-01 5.42124391e-01 5.53913474e-01 5.65536618e-01 5.77125490e-01 5.88671148e-01 5.99923670e-01 6.10504985e-01 6.20297134e-01 6.29567742e-01 6.38638556e-01 6.47591591e-01 6.56436682e-01 6.65140033e-01 6.73644781e-01 6.81951404e-01 6.90012932e-01 6.97603822e-01 7.04473138e-01 7.10718751e-01 7.16545284e-01 7.22133219e-01 7.27690279e-01 7.33288944e-01 7.38908470e-01 7.44357586e-01 7.49466002e-01 7.54404008e-01 7.59265959e-01 7.63975739e-01 7.68609464e-01 7.73147583e-01 7.77494609e-01 7.81675816e-01 7.85683513e-01 7.89539695e-01 7.93332160e-01 7.97109783e-01 8.00796270e-01 8.04302633e-01 8.07698071e-01 8.11044633e-01 8.14364731e-01 8.17684889e-01 8.20943296e-01 8.24054301e-01 8.27055573e-01 8.30032825e-01 8.32921624e-01 8.35608244e-01 8.38164568e-01 8.40771019e-01 8.43501508e-01 8.46289575e-01 8.49078238e-01 8.51868033e-01 8.54658425e-01 8.57490242e-01 8.60418200e-01 8.63382757e-01 8.66222501e-01 8.68783772e-01 8.71075273e-01 8.73276532e-01 8.75512660e-01 8.77799749e-01 8.80083442e-01 8.82222772e-01 8.84131193e-01 8.85908365e-01 8.87754142e-01 8.89781773e-01 8.91914129e-01 8.93985033e-01 8.95859778e-01 8.97519112e-01 8.99068892e-01 9.00588036e-01 9.02098536e-01 9.03625250e-01 9.05177057e-01 9.06740248e-01 9.08305645e-01 9.09865677e-01 9.11412656e-01 9.12948608e-01 9.14467514e-01 9.15930629e-01 9.17312741e-01 9.18652594e-01 9.19955730e-01 9.21193123e-01 9.22401905e-01 9.23643053e-01 9.24926341e-01 9.26209867e-01 9.27469015e-01 9.28686798e-01 9.29834008e-01 9.30934548e-01 9.32006717e-01 9.33064580e-01 9.34129179e-01 9.35193717e-01 9.36269701e-01 9.37336802e-01 9.38379407e-01 9.39417958e-01 9.40456510e-01 9.41472292e-01 9.42442656e-01 9.43390250e-01 9.44337904e-01 9.45285499e-01 9.46220100e-01 9.47128654e-01 9.48013186e-01 9.48875785e-01 9.49727416e-01 9.50578392e-01 9.51425552e-01 9.52228904e-01 9.52952981e-01 9.53638732e-01 9.54320014e-01 9.54975903e-01 9.55594480e-01 9.56196547e-01 9.56798673e-01 9.57408607e-01 9.58037376e-01 9.58679974e-01 9.59325552e-01 9.59963322e-01 9.60565388e-01 9.61112380e-01 9.61630046e-01 9.62168515e-01 9.62752759e-01 9.63360906e-01 9.63943720e-01 9.64459717e-01 9.64916468e-01 9.65343177e-01 9.65748191e-01 9.66149330e-01 9.66580749e-01 9.67053115e-01 9.67542648e-01 9.68032241e-01 9.68507767e-01 9.68950987e-01 9.69373941e-01 9.69808102e-01 9.70266700e-01 9.70736444e-01 9.71206129e-01 9.71692443e-01 9.72212017e-01 9.72748160e-01 9.73284364e-01 9.73820508e-01 9.74356651e-01 9.74867463e-01 9.75327551e-01 9.75762248e-01 9.76196945e-01 9.76650178e-01 9.77140486e-01 9.77654099e-01 9.78177309e-01 9.78705347e-01 9.79233325e-01 9.79761362e-01 9.80287313e-01 9.80809093e-01 9.81328905e-01 9.81848657e-01 9.82357502e-01 9.82843637e-01 9.83315408e-01 9.83784437e-01 9.84254479e-01 9.84725595e-01 9.85197723e-01 9.85675991e-01 9.86167312e-01 9.86669302e-01 9.87174749e-01 9.87681866e-01 9.88187373e-01 9.88687456e-01 9.89185333e-01 9.89688158e-01 9.90197718e-01 9.90708709e-01 9.91218925e-01 9.91728783e-01 9.92237926e-01 9.92746651e-01 9.93255258e-01 9.93763566e-01 9.94273722e-01 9.94795918e-01 9.95338976e-01 9.95894372e-01 9.96442914e-01 9.96976793e-01 9.97497082e-01 9.98003304e-01 9.98502493e-01 9.99001682e-01 9.99500811e-01 1.00000000e+00 
            </Histogram>
            <HistogramBinning NBins="282">
              5.49989986e+00 5.50000000e+00 6.00000000e+00 6.50000000e+00 7.00000000e+00 7.50000000e+00 8.00000000e+00 8.50000000e+00 9.00000000e+00 9.50000000e+00 1.00000000e+01 1.05000000e+01 1.10000000e+01 1.15000000e+01 1.20000000e+01 1.25000000e+01 1.30000000e+01 1.35000000e+01 1.40000000e+01 1.45000000e+01 1.50000000e+01 1.55000000e+01 1.60000000e+01 1.65000000e+01 1.70000000e+01 1.75000000e+01 1.80000000e+01 1.85000000e+01 1.90000000e+01 1.95000000e+01 2.00000000e+01 2.05000000e+01 2.10000000e+01 2.15000000e+01 2.20000000e+01 2.25000000e+01 2.30000000e+01 2.35000000e+01 2.40000000e+01 2.45000000e+01 2.50000000e+01 2.55000000e+01 2.60000000e+01 2.65000000e+01 2.70000000e+01 2.75000000e+01 2.80000000e+01 2.85000000e+01 2.90000000e+01 2.95000000e+01 3.00000000e+01 3.05000000e+01 3.10000000e+01 3.15000000e+01 3.20000000e+01 3.25000000e+01 3.30000000e+01 3.35000000e+01 3.40000000e+01 3.45000000e+01 3.50000000e+01 3.55000000e+01 3.60000000e+01 3.65000000e+01 3.70000000e+01 3.75000000e+01 3.80000000e+01 3.85000000e+01 3.90000000e+01 3.95000000e+01 4.00000000e+01 4.05000000e+01 4.10000000e+01 4.15000000e+01 4.20000000e+01 4.25000000e+01 4.30000000e+01 4.35000000e+01 4.40000000e+01 4.45000000e+01 4.50000000e+01 4.55000000e+01 4.60000000e+01 4.65000000e+01 4.70000000e+01 4.75000000e+01 4.80000000e+01 4.85000000e+01 4.90000000e+01 4.95000000e+01 5.00000000e+01 5.05000000e+01 5.10000000e+01 5.15000000e+01 5.20000000e+01 5.25000000e+01 5.30000000e+01 5.35000000e+01 5.40000000e+01 5.45000000e+01 5.50000000e+01 5.55000000e+01 5.60000000e+01 5.65000000e+01 5.70000000e+01 5.75000000e+01 5.80000000e+01 5.85000000e+01 5.90000000e+01 5.95000000e+01 6.00000000e+01 6.05000000e+01 6.10000000e+01 6.15000000e+01 6.20000000e+01 6.25000000e+01 6.30000000e+01 6.35000000e+01 6.40000000e+01 6.45000000e+01 6.50000000e+01 6.55000000e+01 6.60000000e+01 6.65000000e+01 6.70000000e+01 6.75000000e+01 6.80000000e+01 6.85000000e+01 6.90000000e+01 6.95000000e+01 7.00000000e+01 7.05000000e+01 7.10000000e+01 7.15000000e+01 7.20000000e+01 7.25000000e+01 7.30000000e+01 7.35000000e+01 7.40000000e+01 7.45000000e+01 7.50000000e+01 7.55000000e+01 7.60000000e+01 7.65000000e+01 7.70000000e+01 7.75000000e+01 7.80000000e+01 7.85000000e+01 7.90000000e+01 7.95000000e+01 8.00000000e+01 8.05000000e+01 8.10000000e+01 8.15000000e+01 8.20000000e+01 8.25000000e+01 8.30000000e+01 8.35000000e+01 8.40000000e+01 8.45000000e+01 8.50000000e+01 8.55000000e+01 8.60000000e+01 8.65000000e+01 8.70000000e+01 8.75000000e+01 8.80000000e+01 8.85000000e+01 8.90000000e+01 8.95000000e+01 9.00000000e+01 9.05000000e+01 9.10000000e+01 9.15000000e+01 9.20000000e+01 9.25000000e+01 9.30000000e+01 9.35000000e+01 9.40000000e+01 9.45000000e+01 9.50000000e+01 9.55000000e+01 9.60000000e+01 9.65000000e+01 9.70000000e+01 9.75000000e+01 9.80000000e+01 9.85000000e+01 9.90000000e+01 9.95000000e+01 1.00000000e+02 1.00500000e+02 1.01000000e+02 1.01500000e+02 1.02000000e+02 1.02500000e+02 1.03000000e+02 1.03500000e+02 1.04000000e+02 1.04500000e+02 1.05000000e+02 1.05500000e+02 1.06000000e+02 1.06500000e+02 1.07000000e+02 1.07500000e+02 1.08000000e+02 1.08500000e+02 1.09000000e+02 1.09500000e+02 1.10000000e+02 1.10500000e+02 1.11000000e+02 1.11500000e+02 1.12000000e+02 1.12500000e+02 1.13000000e+02 1.13500000e+02 1.14000000e+02 1.14500000e+02 1.15500000e+02 1.16000000e+02 1.16500000e+02 1.17000000e+02 1.18000000e+02 1.18500000e+02 1.19500000e+02 1.20000000e+02 1.21000000e+02 1.21500000e+02 1.22000000e+02 1.23000000e+02 1.23500000e+02 1.24500000e+02 1.25000000e+02 1.25500000e+02 1.27000000e+02 1.27500000e+02 1.28500000e+02 1.29500000e+02 1.30500000e+02 1.31000000e+02 1.32000000e+02 1.33000000e+02 1.34000000e+02 1.35000000e+02 1.36000000e+02 1.37500000e+02 1.38500000e+02 1.40000000e+02 1.41000000e+02 1.43000000e+02 1.44500000e+02 1.46000000e+02 1.47500000e+02 1.49000000e+02 1.51000000e+02 1.53000000e+02 1.55000000e+02 1.57000000e+02 1.59000000e+02 1.61500000e+02 1.65000000e+02 1.68000000e+02 1.70000000e+02 1.74500000e+02 1.78500000e+02 1.84500000e+02 1.90000000e+02 1.96500000e+02 2.04000000e+02 2.17500000e+02 2.35000000e+02 2.54500000e+02 2.62000000e+02 2.66000000e+02 2.73500000e+02 2.84500000e+02 2.93500000e+02 3.08000000e+02 3.31000000e+02 3.79000000e+02 5.11500000e+02 
            </HistogramBinning>
          </PDF>
        </CumulativePDF_cls2>
      </Variable>
      <Variable VarIndex="2">
        <CumulativePDF_cls0>
          <PDF Name="GaussTransform var2 cls0" MinNSmooth="0" MaxNSmooth="0" InterpolMethod="1" KDE_type="0" KDE_iter="1" KDE_border="1" KDE_finefactor="0.0000000000000000e+00">
            <Histogram Name="Cumulative_Var2_cls0_original" NBins="1437" XMin="-9.3276004791259766e+00" XMax="1.0185000419616699e+01" HasEquidistantBins="0">
              0.00000000e+00 3.59149912e-04 9.65506886e-04 1.66794809e-03 2.38811364e-03 3.11201066e-03 3.83590767e-03 4.56353603e-03 5.31355292e-03 6.10088417e-03 6.90687262e-03 7.71286106e-03 8.51161964e-03 9.29195434e-03 1.00387065e-02 1.07453456e-02 1.14349602e-02 1.21252742e-02 1.28324963e-02 1.35226939e-02 1.41159901e-02 1.46607794e-02 1.53099308e-02 1.61123052e-02 1.69630703e-02 1.77765340e-02 1.85601991e-02 1.92954578e-02 1.99247878e-02 2.04683319e-02 2.10201945e-02 2.16339361e-02 2.22846810e-02 2.29382254e-02 2.35912260e-02 2.42443811e-02 2.49230340e-02 2.56655887e-02 2.64504310e-02 2.72116438e-02 2.79221684e-02 2.86115110e-02 2.93050446e-02 2.99879815e-02 3.06335501e-02 3.12503427e-02 3.18781547e-02 3.25386189e-02 3.32175829e-02 3.38857025e-02 3.45305800e-02 3.51649225e-02 3.57992649e-02 3.64382714e-02 3.70866060e-02 3.77719849e-02 3.85334678e-02 3.93438116e-02 4.01292741e-02 4.08553481e-02 4.15399484e-02 4.22013067e-02 4.28468436e-02 4.34877165e-02 4.41285893e-02 4.47902158e-02 4.54933569e-02 4.62172553e-02 4.69411537e-02 4.76650484e-02 4.83540818e-02 4.89589199e-02 4.95018438e-02 5.00522293e-02 5.06636016e-02 5.13386391e-02 5.20364158e-02 5.27341925e-02 5.34163453e-02 5.40639013e-02 5.46980910e-02 5.53680360e-02 5.60893677e-02 5.68319224e-02 5.75744770e-02 5.83170317e-02 5.90595864e-02 5.98161332e-02 6.05962351e-02 6.13814667e-02 6.21622652e-02 6.29533306e-02 6.37667775e-02 6.45876974e-02 6.53824881e-02 6.61453307e-02 6.69021159e-02 6.76633269e-02 6.84245378e-02 6.91502988e-02 6.98051602e-02 7.04245791e-02 7.10439980e-02 7.16634169e-02 7.22856298e-02 7.29311705e-02 7.36177489e-02 7.43340701e-02 7.50660077e-02 7.57833794e-02 7.64550343e-02 7.71117657e-02 7.78226033e-02 7.86081851e-02 7.94238523e-02 8.02303031e-02 8.09910521e-02 8.16390365e-02 8.21489170e-02 8.26017410e-02 8.31321478e-02 8.37880671e-02 8.44970345e-02 8.52060094e-02 8.59149769e-02 8.66174251e-02 8.73138383e-02 8.79837424e-02 8.85820165e-02 8.91380012e-02 8.97476599e-02 9.04471129e-02 9.11850035e-02 9.19228867e-02 9.26295295e-02 9.32736695e-02 9.38865542e-02 9.44994390e-02 9.51256230e-02 9.57783908e-02 9.64561105e-02 9.71627459e-02 9.78959724e-02 9.86422598e-02 9.93922725e-02 1.00142293e-01 1.00881115e-01 1.01597548e-01 1.02302790e-01 1.03008032e-01 1.03713267e-01 1.04413144e-01 1.05103485e-01 1.05785534e-01 1.06438868e-01 1.07048333e-01 1.07613333e-01 1.08122051e-01 1.08607136e-01 1.09145708e-01 1.09762952e-01 1.10411748e-01 1.11058377e-01 1.11692719e-01 1.12304673e-01 1.12905435e-01 1.13506190e-01 1.14106953e-01 1.14707716e-01 1.15302876e-01 1.15896173e-01 1.16493203e-01 1.17101423e-01 1.17730170e-01 1.18357047e-01 1.18972734e-01 1.19588420e-01 1.20204106e-01 1.20819792e-01 1.21455066e-01 1.22129522e-01 1.22810446e-01 1.23463698e-01 1.24138720e-01 1.24910682e-01 1.25744194e-01 1.26509130e-01 1.27134144e-01 1.27664000e-01 1.28180802e-01 1.28762916e-01 1.29448101e-01 1.30202770e-01 1.30986378e-01 1.31762519e-01 1.32507861e-01 1.33246332e-01 1.33999974e-01 1.34749994e-01 1.35477617e-01 1.36194050e-01 1.36910483e-01 1.37626916e-01 1.38343349e-01 1.39064685e-01 1.39810041e-01 1.40588745e-01 1.41429052e-01 1.42368957e-01 1.43328190e-01 1.44136563e-01 1.44710749e-01 1.45141214e-01 1.45605251e-01 1.46183133e-01 1.46813750e-01 1.47444353e-01 1.48074970e-01 1.48705572e-01 1.49326861e-01 1.49929494e-01 1.50507852e-01 1.51056379e-01 1.51584372e-01 1.52099311e-01 1.52610511e-01 1.53171167e-01 1.53817639e-01 1.54504210e-01 1.55190796e-01 1.55877382e-01 1.56563967e-01 1.57257780e-01 1.57953218e-01 1.58643067e-01 1.59314260e-01 1.59964234e-01 1.60612568e-01 1.61247611e-01 1.61882177e-01 1.62530512e-01 1.63178846e-01 1.63827196e-01 1.64493710e-01 1.65196627e-01 1.65917724e-01 1.66638821e-01 1.67358056e-01 1.68070018e-01 1.68746918e-01 1.69349387e-01 1.69881120e-01 1.70383617e-01 1.70902282e-01 1.71455786e-01 1.72024235e-01 1.72591850e-01 1.73159018e-01 1.73742995e-01 1.74360543e-01 1.74994886e-01 1.75629228e-01 1.76263571e-01 1.76897913e-01 1.77532256e-01 1.78166598e-01 1.78800941e-01 1.79435283e-01 1.80090144e-01 1.80786058e-01 1.81502491e-01 1.82218924e-01 1.82935357e-01 1.83674186e-01 1.84457779e-01 1.85263768e-01 1.86069757e-01 1.86875746e-01 1.87671483e-01 1.88416824e-01 1.89092219e-01 1.89732626e-01 1.90367907e-01 1.91003174e-01 1.91645920e-01 1.92308709e-01 1.93002760e-01 1.93748102e-01 1.94541037e-01 1.95349827e-01 1.96159542e-01 1.96969256e-01 1.97778985e-01 1.98556051e-01 1.99255690e-01 1.99898660e-01 2.00520188e-01 2.01127470e-01 2.01735228e-01 2.02348113e-01 2.02976868e-01 2.03637317e-01 2.04331368e-01 2.05069259e-01 2.05841660e-01 2.06655964e-01 2.07541332e-01 2.08447292e-01 2.09265873e-01 2.09964573e-01 2.10613847e-01 2.11263120e-01 2.11912379e-01 2.12559089e-01 2.13198557e-01 2.13833377e-01 2.14476570e-01 2.15159655e-01 2.15899423e-01 2.16686741e-01 2.17518851e-01 2.18373358e-01 2.19238415e-01 2.20078930e-01 2.20816508e-01 2.21465766e-01 2.22121254e-01 2.22828671e-01 2.23550707e-01 2.24251598e-01 2.24941909e-01 2.25632221e-01 2.26322532e-01 2.27018446e-01 2.27725551e-01 2.28438258e-01 2.29150966e-01 2.29863659e-01 2.30567962e-01 2.31255487e-01 2.31934607e-01 2.32617766e-01 2.33309016e-01 2.33982846e-01 2.34608486e-01 2.35212982e-01 2.35856950e-01 2.36558780e-01 2.37305999e-01 2.38095194e-01 2.38904908e-01 2.39714637e-01 2.40529895e-01 2.41322994e-01 2.42052197e-01 2.42719591e-01 2.43333861e-01 2.43928462e-01 2.44574219e-01 2.45293736e-01 2.46043757e-01 2.46794701e-01 2.47549385e-01 2.48331115e-01 2.49187484e-01 2.50122190e-01 2.51084924e-01 2.52047628e-01 2.52963692e-01 2.53786474e-01 2.54530638e-01 2.55210936e-01 2.55859286e-01 2.56507605e-01 2.57155955e-01 2.57816881e-01 2.58504748e-01 2.59215474e-01 2.59949505e-01 2.60710120e-01 2.61486262e-01 2.62266129e-01 2.63045996e-01 2.63810933e-01 2.64546037e-01 2.65249401e-01 2.65908927e-01 2.66531169e-01 2.67143101e-01 2.67755061e-01 2.68378228e-01 2.69023746e-01 2.69693077e-01 2.70386189e-01 2.71111965e-01 2.71891832e-01 2.72714138e-01 2.73546249e-01 2.74378359e-01 2.75203913e-01 2.75996864e-01 2.76744068e-01 2.77471691e-01 2.78196067e-01 2.78912812e-01 2.79641986e-01 2.80438960e-01 2.81320035e-01 2.82234251e-01 2.83148438e-01 2.84062654e-01 2.84983158e-01 2.85916239e-01 2.86863774e-01 2.87741303e-01 2.88407296e-01 2.88884729e-01 2.89352626e-01 2.89938450e-01 2.90610701e-01 2.91295946e-01 2.91983753e-01 2.92704433e-01 2.93488204e-01 2.94308424e-01 2.95131445e-01 2.95957237e-01 2.96785623e-01 2.97614008e-01 2.98442364e-01 2.99201727e-01 2.99823016e-01 3.00375253e-01 3.00927520e-01 3.01480234e-01 3.02033871e-01 3.02601993e-01 3.03198069e-01 3.03844541e-01 3.04580122e-01 3.05390537e-01 3.06225210e-01 3.07045877e-01 3.07838112e-01 3.08600247e-01 3.09325099e-01 3.10028464e-01 3.10729980e-01 3.11431468e-01 3.12119007e-01 3.12778533e-01 3.13424051e-01 3.14069599e-01 3.14747781e-01 3.15491259e-01 3.16267401e-01 3.17043543e-01 3.17815959e-01 3.18580896e-01 3.19342107e-01 3.20103317e-01 3.20856124e-01 3.21568847e-01 3.22226495e-01 3.22860837e-01 3.23495179e-01 3.24127674e-01 3.24756414e-01 3.25427234e-01 3.26206267e-01 3.27066272e-01 3.27912450e-01 3.28718573e-01 3.29532951e-01 3.30365062e-01 3.31217289e-01 3.32013726e-01 3.32598299e-01 3.33023697e-01 3.33494872e-01 3.34087759e-01 3.34728867e-01 3.35361123e-01 3.36006671e-01 3.36701632e-01 3.37442338e-01 3.38196993e-01 3.38991106e-01 3.39823663e-01 3.40614974e-01 3.41295481e-01 3.41835141e-01 3.42304379e-01 3.42773616e-01 3.43271524e-01 3.43826801e-01 3.44412625e-01 3.45002204e-01 3.45597357e-01 3.46212119e-01 3.46886098e-01 3.47635657e-01 3.48418325e-01 3.49201918e-01 3.49985510e-01 3.50760728e-01 3.51519138e-01 3.52242112e-01 3.52886707e-01 3.53455752e-01 3.54000539e-01 3.54545325e-01 3.55112493e-01 3.55756283e-01 3.56503069e-01 3.57310385e-01 3.58099431e-01 3.58832806e-01 3.59538674e-01 3.60239804e-01 3.60942572e-01 3.61656338e-01 3.62376511e-01 3.63096654e-01 3.63800049e-01 3.64466399e-01 3.65114897e-01 3.65786403e-01 3.66525233e-01 3.67348820e-01 3.68212193e-01 3.69056433e-01 3.69847953e-01 3.70595574e-01 3.71333092e-01 3.72015476e-01 3.72564793e-01 3.73021275e-01 3.73495162e-01 3.74071211e-01 3.74753296e-01 3.75485569e-01 3.76242131e-01 3.77005190e-01 3.77757072e-01 3.78503382e-01 3.79249662e-01 3.79972845e-01 3.80649865e-01 3.81303817e-01 3.81957740e-01 3.82585913e-01 3.83151710e-01 3.83674324e-01 3.84213537e-01 3.84813845e-01 3.85470569e-01 3.86145949e-01 3.86821330e-01 3.87534052e-01 3.88321370e-01 3.89146030e-01 3.89970660e-01 3.90789717e-01 3.91597569e-01 3.92399818e-01 3.93202096e-01 3.93981248e-01 3.94715339e-01 3.95425797e-01 3.96112293e-01 3.96756887e-01 3.97381902e-01 3.98006916e-01 3.98623079e-01 3.99221510e-01 3.99811059e-01 4.00400639e-01 4.00990188e-01 4.01621729e-01 4.02337253e-01 4.03095663e-01 4.03855920e-01 4.04617131e-01 4.05378342e-01 4.06108469e-01 4.06761676e-01 4.07356024e-01 4.07956988e-01 4.08595681e-01 4.09252405e-01 4.09906268e-01 4.10554349e-01 4.11209852e-01 4.11890209e-01 4.12588000e-01 4.13279563e-01 4.13932621e-01 4.14517760e-01 4.15051341e-01 4.15598631e-01 4.16187495e-01 4.16775018e-01 4.17340040e-01 4.17932212e-01 4.18596417e-01 4.19307888e-01 4.20028031e-01 4.20739502e-01 4.21421885e-01 4.22070056e-01 4.22704399e-01 4.23338741e-01 4.23973083e-01 4.24607426e-01 4.25237119e-01 4.25857455e-01 4.26473141e-01 4.27088827e-01 4.27704513e-01 4.28310812e-01 4.28881466e-01 4.29403871e-01 4.29905146e-01 4.30433214e-01 4.31006849e-01 4.31600124e-01 4.32236344e-01 4.32958364e-01 4.33723330e-01 4.34488267e-01 4.35211211e-01 4.35830981e-01 4.36370611e-01 4.36919123e-01 4.37523007e-01 4.38141137e-01 4.38721299e-01 4.39265966e-01 4.39817756e-01 4.40405846e-01 4.41010565e-01 4.41604555e-01 4.42182928e-01 4.42752898e-01 4.43319142e-01 4.43883538e-01 4.44449544e-01 4.45018828e-01 4.45592523e-01 4.46171820e-01 4.46753919e-01 4.47394520e-01 4.48170274e-01 4.49018955e-01 4.49760437e-01 4.50304061e-01 4.50772375e-01 4.51369405e-01 4.52182382e-01 4.53110456e-01 4.53959018e-01 4.54630673e-01 4.55185413e-01 4.55716729e-01 4.56283838e-01 4.56932634e-01 4.57714379e-01 4.58648324e-01 4.59682435e-01 4.60719109e-01 4.61598724e-01 4.62224901e-01 4.62732375e-01 4.63435262e-01 4.64538962e-01 4.65868235e-01 4.67032403e-01 4.67836499e-01 4.68421072e-01 4.69010651e-01 4.69688028e-01 4.70379472e-01 4.71012861e-01 4.71617371e-01 4.72221851e-01 4.72830087e-01 4.73445773e-01 4.74119276e-01 4.74909365e-01 4.75769848e-01 4.76579338e-01 4.77283716e-01 4.77947265e-01 4.78616118e-01 4.79287773e-01 4.79965031e-01 4.80673760e-01 4.81432885e-01 4.82213676e-01 4.82994497e-01 4.83775288e-01 4.84494299e-01 4.85089689e-01 4.85623270e-01 4.86156881e-01 4.86690462e-01 4.87224072e-01 4.87830430e-01 4.88582283e-01 4.89423722e-01 4.90298748e-01 4.91203517e-01 4.92035747e-01 4.92658883e-01 4.93181288e-01 4.93896425e-01 4.94903326e-01 4.96032089e-01 4.97160852e-01 4.98138964e-01 4.98815745e-01 4.99341875e-01 4.99868006e-01 5.00403464e-01 5.00957549e-01 5.01521051e-01 5.02152562e-01 5.02920330e-01 5.03756166e-01 5.04592001e-01 5.05427837e-01 5.06263673e-01 5.07050991e-01 5.07741332e-01 5.08383095e-01 5.09024918e-01 5.09666741e-01 5.10337532e-01 5.11075079e-01 5.11847496e-01 5.12573838e-01 5.13225079e-01 5.13844490e-01 5.14463902e-01 5.15110373e-01 5.15810966e-01 5.16538560e-01 5.17266214e-01 5.17993808e-01 5.18697202e-01 5.19352078e-01 5.19982696e-01 5.20613313e-01 5.21243870e-01 5.21874487e-01 5.22505105e-01 5.23173988e-01 5.23919344e-01 5.24644136e-01 5.25251448e-01 5.25799990e-01 5.26348472e-01 5.26897013e-01 5.27460456e-01 5.28070152e-01 5.28731465e-01 5.29416978e-01 5.30062497e-01 5.30615389e-01 5.31148374e-01 5.31777084e-01 5.32519162e-01 5.33315301e-01 5.34087718e-01 5.34798741e-01 5.35475016e-01 5.36146700e-01 5.36818385e-01 5.37513316e-01 5.38254976e-01 5.39023876e-01 5.39800704e-01 5.40572166e-01 5.41299820e-01 5.41910887e-01 5.42376578e-01 5.42816639e-01 5.43433666e-01 5.44318855e-01 5.45338750e-01 5.46247005e-01 5.46948433e-01 5.47560394e-01 5.48172355e-01 5.48784316e-01 5.49396276e-01 5.50018489e-01 5.50661206e-01 5.51314235e-01 5.51967204e-01 5.52620232e-01 5.53273201e-01 5.53915024e-01 5.54534435e-01 5.55142701e-01 5.55750906e-01 5.56360960e-01 5.56974828e-01 5.57590485e-01 5.58206201e-01 5.58837712e-01 5.59500992e-01 5.60180128e-01 5.60859203e-01 5.61538339e-01 5.62217474e-01 5.62871993e-01 5.63475549e-01 5.64049661e-01 5.64620078e-01 5.65192401e-01 5.65771222e-01 5.66355407e-01 5.66941261e-01 5.67560673e-01 5.68258882e-01 5.69013476e-01 5.69770157e-01 5.70490479e-01 5.71154654e-01 5.71779668e-01 5.72389483e-01 5.72983682e-01 5.73562086e-01 5.74143112e-01 5.74752331e-01 5.75395644e-01 5.76052368e-01 5.76709092e-01 5.77365816e-01 5.78022540e-01 5.78692317e-01 5.79395115e-01 5.80125213e-01 5.80855966e-01 5.81572354e-01 5.82281351e-01 5.82990289e-01 5.83699286e-01 5.84410608e-01 5.85126936e-01 5.85843921e-01 5.86546302e-01 5.87226093e-01 5.87895930e-01 5.88565707e-01 5.89256465e-01 5.89989245e-01 5.90743005e-01 5.91496706e-01 5.92250466e-01 5.92983723e-01 5.93675911e-01 5.94343781e-01 5.95004261e-01 5.95660985e-01 5.96317708e-01 5.96982837e-01 5.97664773e-01 5.98355114e-01 5.99045396e-01 5.99727333e-01 6.00392461e-01 6.01049185e-01 6.01705909e-01 6.02373838e-01 6.03071630e-01 6.03795528e-01 6.04526877e-01 6.05258226e-01 6.05970025e-01 6.06642604e-01 6.07295573e-01 6.07941151e-01 6.08571768e-01 6.09187424e-01 6.09785378e-01 6.10373795e-01 6.10973120e-01 6.11589551e-01 6.12212658e-01 6.12857282e-01 6.13568127e-01 6.14337742e-01 6.15123212e-01 6.15910053e-01 6.16684794e-01 6.17447853e-01 6.18188322e-01 6.18873298e-01 6.19515061e-01 6.20144784e-01 6.20773256e-01 6.21405065e-01 6.22039378e-01 6.22694254e-01 6.23409748e-01 6.24186814e-01 6.24987245e-01 6.25789464e-01 6.26591742e-01 6.27392352e-01 6.28158689e-01 6.28861606e-01 6.29534662e-01 6.30209386e-01 6.30884767e-01 6.31560147e-01 6.32235527e-01 6.32921159e-01 6.33624077e-01 6.34365678e-01 6.35139048e-01 6.35877371e-01 6.36580765e-01 6.37261808e-01 6.37858152e-01 6.38335764e-01 6.38748705e-01 6.39192760e-01 6.39722943e-01 6.40308440e-01 6.40927315e-01 6.41601741e-01 6.42306983e-01 6.43012226e-01 6.43717408e-01 6.44422650e-01 6.45127892e-01 6.45824969e-01 6.46505773e-01 6.47178352e-01 6.47794008e-01 6.48295879e-01 6.48799181e-01 6.49419069e-01 6.50101900e-01 6.50794089e-01 6.51520073e-01 6.52305305e-01 6.53121591e-01 6.53938770e-01 6.54755950e-01 6.55560970e-01 6.56341791e-01 6.57110453e-01 6.57874465e-01 6.58629179e-01 6.59310162e-01 6.59853041e-01 6.60328805e-01 6.60808325e-01 6.61289692e-01 6.61825776e-01 6.62498772e-01 6.63293898e-01 6.64142191e-01 6.64992929e-01 6.65798306e-01 6.66535199e-01 6.67227149e-01 6.67911232e-01 6.68584466e-01 6.69225574e-01 6.69835687e-01 6.70419633e-01 6.70990527e-01 6.71561480e-01 6.72136068e-01 6.72734976e-01 6.73372149e-01 6.74026966e-01 6.74691677e-01 6.75379336e-01 6.76084161e-01 6.76782191e-01 6.77434564e-01 6.78022861e-01 6.78586304e-01 6.79191470e-01 6.79877877e-01 6.80618703e-01 6.81363761e-01 6.82102561e-01 6.82824850e-01 6.83508813e-01 6.84171915e-01 6.84859574e-01 6.85588360e-01 6.86334670e-01 6.87116861e-01 6.87980652e-01 6.88883066e-01 6.89718902e-01 6.90452158e-01 6.91142499e-01 6.91832781e-01 6.92571282e-01 6.93426907e-01 6.94366097e-01 6.95279598e-01 6.96119249e-01 6.96921527e-01 6.97716296e-01 6.98499918e-01 6.99268579e-01 7.00029790e-01 7.00781703e-01 7.01514900e-01 7.02238798e-01 7.02962697e-01 7.03686595e-01 7.04431951e-01 7.05228627e-01 7.06063509e-01 7.06902862e-01 7.07736135e-01 7.08586931e-01 7.09476531e-01 7.10363805e-01 7.11173236e-01 7.11897671e-01 7.12608039e-01 7.13343740e-01 7.14090049e-01 7.14836299e-01 7.15582609e-01 7.16344774e-01 7.17138588e-01 7.17948318e-01 7.18758047e-01 7.19567776e-01 7.20340192e-01 7.21037984e-01 7.21698403e-01 7.22358882e-01 7.23063171e-01 7.23872900e-01 7.24753499e-01 7.25600541e-01 7.26370156e-01 7.27105260e-01 7.27840364e-01 7.28584766e-01 7.29347825e-01 7.30120242e-01 7.30892658e-01 7.31649220e-01 7.32374012e-01 7.33083010e-01 7.33777046e-01 7.34458029e-01 7.35140860e-01 7.35823750e-01 7.36444116e-01 7.37038553e-01 7.37756371e-01 7.38551438e-01 7.39365816e-01 7.40218401e-01 7.41080403e-01 7.41942346e-01 7.42804289e-01 7.43643641e-01 7.44424701e-01 7.45144844e-01 7.45824873e-01 7.46479988e-01 7.47117817e-01 7.47758567e-01 7.48385608e-01 7.48949051e-01 7.49490082e-01 7.50107229e-01 7.50842392e-01 7.51668632e-01 7.52535582e-01 7.53408790e-01 7.54261017e-01 7.55072176e-01 7.55838513e-01 7.56568909e-01 7.57285357e-01 7.57988989e-01 7.58666933e-01 7.59332061e-01 7.59997189e-01 7.60673285e-01 7.61371255e-01 7.62080252e-01 7.62789190e-01 7.63498187e-01 7.64207125e-01 7.64950573e-01 7.65767694e-01 7.66604364e-01 7.67342210e-01 7.67946899e-01 7.68497229e-01 7.69047618e-01 7.69598007e-01 7.70180583e-01 7.70827532e-01 7.71506667e-01 7.72185802e-01 7.72864878e-01 7.73544014e-01 7.74223149e-01 7.74891973e-01 7.75540352e-01 7.76175857e-01 7.76809037e-01 7.77443349e-01 7.78078616e-01 7.78714836e-01 7.79352903e-01 7.80022681e-01 7.80753613e-01 7.81530917e-01 7.82345533e-01 7.83186018e-01 7.84019053e-01 7.84824133e-01 7.85607696e-01 7.86378741e-01 7.87135720e-01 7.87885725e-01 7.88632035e-01 7.89370835e-01 7.90105939e-01 7.90833592e-01 7.91546285e-01 7.92251527e-01 7.92956769e-01 7.93695569e-01 7.94501603e-01 7.95341134e-01 7.96180725e-01 7.96993256e-01 7.97751665e-01 7.98483014e-01 7.99191952e-01 7.99856186e-01 8.00500274e-01 8.01113069e-01 8.01654100e-01 8.02186430e-01 8.02825749e-01 8.03607583e-01 8.04466367e-01 8.05287421e-01 8.06007564e-01 8.06672394e-01 8.07374001e-01 8.08162451e-01 8.08990955e-01 8.09760392e-01 8.10424209e-01 8.11030924e-01 8.11673403e-01 8.12388062e-01 8.13134372e-01 8.13880622e-01 8.14599872e-01 8.15251768e-01 8.15851033e-01 8.16455603e-01 8.17095399e-01 8.17750931e-01 8.18398476e-01 8.19019616e-01 8.19602013e-01 8.20187867e-01 8.20850194e-01 8.21593463e-01 8.22374701e-01 8.23184311e-01 8.24020743e-01 8.24880242e-01 8.25749636e-01 8.26597929e-01 8.27401340e-01 8.28144670e-01 8.28832030e-01 8.29482138e-01 8.30108106e-01 8.30724716e-01 8.31341326e-01 8.31961215e-01 8.32647324e-01 8.33459377e-01 8.34334433e-01 8.35209429e-01 8.36078823e-01 8.36907208e-01 8.37659836e-01 8.38361561e-01 8.39042544e-01 8.39694619e-01 8.40317130e-01 8.40928912e-01 8.41552734e-01 8.42197061e-01 8.42850029e-01 8.43503058e-01 8.44215930e-01 8.45065594e-01 8.46007168e-01 8.46939981e-01 8.47759962e-01 8.48405778e-01 8.48952949e-01 8.49512577e-01 8.50120723e-01 8.50751340e-01 8.51398766e-01 8.52107704e-01 8.52889478e-01 8.53705466e-01 8.54536176e-01 8.55334222e-01 8.56033385e-01 8.56660068e-01 8.57272029e-01 8.57883990e-01 8.58495951e-01 8.59171331e-01 8.59973550e-01 8.60839248e-01 8.61704946e-01 8.62548232e-01 8.63326252e-01 8.64040852e-01 8.64734888e-01 8.65428925e-01 8.66118789e-01 8.66800189e-01 8.67477477e-01 8.68154705e-01 8.68833840e-01 8.69526982e-01 8.70248795e-01 8.70995104e-01 8.71741414e-01 8.72449756e-01 8.73107553e-01 8.73744845e-01 8.74388874e-01 8.75046372e-01 8.75724554e-01 8.76430690e-01 8.77150893e-01 8.77871037e-01 8.78553271e-01 8.79144907e-01 8.79677117e-01 8.80242348e-01 8.80878448e-01 8.81545961e-01 8.82266581e-01 8.83092940e-01 8.83971334e-01 8.84849191e-01 8.85711133e-01 8.86486053e-01 8.87109995e-01 8.87635767e-01 8.88186395e-01 8.88822973e-01 8.89512897e-01 8.90218973e-01 8.90949190e-01 8.91721725e-01 8.92512202e-01 8.93263042e-01 8.93955290e-01 8.94623220e-01 8.95291150e-01 8.95953715e-01 8.96605670e-01 8.97252440e-01 8.97898138e-01 8.98541331e-01 8.99183154e-01 8.99836481e-01 9.00512755e-01 9.01213229e-01 9.01881576e-01 9.02441323e-01 9.02972400e-01 9.03655887e-01 9.04562354e-01 9.05584276e-01 9.06513393e-01 9.07227337e-01 9.07788813e-01 9.08339322e-01 9.08952653e-01 9.09623384e-01 9.10344481e-01 9.11083281e-01 9.11764264e-01 9.12363172e-01 9.12934959e-01 9.13536370e-01 9.14184272e-01 9.14864480e-01 9.15579379e-01 9.16355491e-01 9.17167723e-01 9.17943299e-01 9.18651879e-01 9.19331014e-01 9.20010090e-01 9.20689225e-01 9.21397805e-01 9.22165334e-01 9.22989368e-01 9.23869967e-01 9.24766421e-01 9.25586402e-01 9.26296949e-01 9.26960886e-01 9.27625000e-01 9.28333521e-01 9.29148555e-01 9.30035055e-01 9.30887401e-01 9.31661189e-01 9.32399988e-01 9.33138847e-01 9.33892548e-01 9.34676170e-01 9.35480297e-01 9.36295629e-01 9.37116504e-01 9.37943757e-01 9.38784301e-01 9.39612687e-01 9.40362096e-01 9.41011548e-01 9.41625535e-01 9.42248940e-01 9.42908823e-01 9.43646371e-01 9.44441140e-01 9.45226610e-01 9.45972621e-01 9.46698070e-01 9.47421968e-01 9.48153317e-01 9.48902190e-01 9.49656785e-01 9.50384498e-01 9.51069534e-01 9.51727509e-01 9.52376783e-01 9.53026652e-01 9.53681231e-01 9.54337955e-01 9.54997480e-01 9.55662608e-01 9.56330538e-01 9.57021773e-01 9.57755029e-01 9.58502233e-01 9.59248483e-01 9.60002244e-01 9.60759759e-01 9.61517215e-01 9.62262571e-01 9.62983668e-01 9.63692665e-01 9.64401603e-01 9.65076983e-01 9.65685248e-01 9.66350377e-01 9.67196465e-01 9.68021095e-01 9.68621850e-01 9.69184577e-01 9.69895184e-01 9.70690012e-01 9.71507192e-01 9.72331822e-01 9.73130345e-01 9.73861575e-01 9.74516094e-01 9.75121558e-01 9.75688696e-01 9.76238608e-01 9.76821899e-01 9.77461755e-01 9.78137791e-01 9.78835762e-01 9.79545057e-01 9.80245173e-01 9.80930269e-01 9.81609404e-01 9.82290149e-01 9.82972562e-01 9.83655393e-01 9.84338284e-01 9.85031366e-01 9.85745013e-01 9.86472666e-01 9.87207711e-01 9.87946570e-01 9.88685369e-01 9.89411116e-01 9.90109861e-01 9.90790844e-01 9.91465271e-01 9.92108285e-01 9.92693841e-01 9.93250787e-01 9.93807673e-01 9.94391918e-01 9.95030642e-01 9.95756209e-01 9.96547282e-01 9.97290969e-01 9.97981310e-01 9.98665094e-01 9.99335825e-01 1.00000000e+00 
            </Histogram>
            <HistogramBinning NBins="1437">
