<?xml version="1.0"?>
<MethodSetup Method="MLP::MLP_2">
  <GeneralInfo>
    <Info name="TMVA Release" value="4.2.1 [262657]"/>
    <Info name="ROOT Release" value="6.12/07 [396295]"/>
    <Info name="Creator" value="addropul"/>
    <Info name="Date" value="Tue Aug 27 21:17:28 2019"/>
    <Info name="Host" value="Linux cmsbuild89.cern.ch 2.6.32-696.30.1.el6.x86_64 #1 SMP Tue May 22 06:09:36 CEST 2018 x86_64 x86_64 x86_64 GNU/Linux"/>
    <Info name="Dir" value="/afs/cern.ch/user/a/addropul/CMSSW_10_6_0_pre4/src/L1Trigger/Run3Ntuplizer/test/June_July_2019"/>
    <Info name="Training events" value="370753"/>
    <Info name="TrainingTime" value="1.24610966e+03"/>
    <Info name="AnalysisType" value="Classification"/>
  </GeneralInfo>
  <Options>
    <Option name="NCycles" modified="Yes">600</Option>
    <Option name="HiddenLayers" modified="Yes">N+5</Option>
    <Option name="NeuronType" modified="Yes">tanh</Option>
    <Option name="RandomSeed" modified="No">1</Option>
    <Option name="EstimatorType" modified="No">CE</Option>
    <Option name="NeuronInputType" modified="No">sum</Option>
    <Option name="V" modified="Yes">False</Option>
    <Option name="VerbosityLevel" modified="No">Default</Option>
    <Option name="VarTransform" modified="Yes">N</Option>
    <Option name="H" modified="Yes">True</Option>
    <Option name="CreateMVAPdfs" modified="No">False</Option>
    <Option name="IgnoreNegWeightsInTraining" modified="No">False</Option>
    <Option name="TrainingMethod" modified="No">BP</Option>
    <Option name="LearningRate" modified="No">2.000000e-02</Option>
    <Option name="DecayRate" modified="No">1.000000e-02</Option>
    <Option name="TestRate" modified="Yes">5</Option>
    <Option name="EpochMonitoring" modified="No">False</Option>
    <Option name="Sampling" modified="No">1.000000e+00</Option>
    <Option name="SamplingEpoch" modified="No">1.000000e+00</Option>
    <Option name="SamplingImportance" modified="Yes">1.000000e+00</Option>
    <Option name="SamplingTraining" modified="No">True</Option>
    <Option name="SamplingTesting" modified="No">False</Option>
    <Option name="ResetStep" modified="No">50</Option>
    <Option name="Tau" modified="No">3.000000e+00</Option>
    <Option name="BPMode" modified="No">sequential</Option>
    <Option name="BatchSize" modified="No">-1</Option>
    <Option name="ConvergenceImprove" modified="No">1.000000e-30</Option>
    <Option name="ConvergenceTests" modified="No">-1</Option>
    <Option name="UseRegulator" modified="Yes">False</Option>
    <Option name="UpdateLimit" modified="No">10000</Option>
    <Option name="CalculateErrors" modified="No">False</Option>
    <Option name="WeightRange" modified="No">1.000000e+00</Option>
  </Options>
  <Variables NVar="5">
    <Variable VarIndex="0" Expression="l1Pt_1" Label="l1Pt_1" Title="l1Pt_1" Unit="" Internal="l1Pt_1" Type="D" Min="5.50000000e+00" Max="5.11500000e+02"/>
    <Variable VarIndex="1" Expression="l1Pt_2" Label="l1Pt_2" Title="l1Pt_2" Unit="" Internal="l1Pt_2" Type="D" Min="5.50000000e+00" Max="5.11500000e+02"/>
    <Variable VarIndex="2" Expression="l1DeltaEta" Label="l1DeltaEta" Title="l1DeltaEta" Unit="" Internal="l1DeltaEta" Type="D" Min="-9.32750034e+00" Max="1.01850004e+01"/>
    <Variable VarIndex="3" Expression="l1DeltaPhi" Label="l1DeltaPhi" Title="l1DeltaPhi" Unit="" Internal="l1DeltaPhi" Type="D" Min="-6.19119978e+00" Max="6.19119978e+00"/>
    <Variable VarIndex="4" Expression="l1Mass" Label="l1Mass" Title="l1Mass" Unit="" Internal="l1Mass" Type="D" Min="6.71710211e-07" Max="7.86377637e+03"/>
  </Variables>
  <Spectators NSpec="0"/>
  <Classes NClass="2">
    <Class Name="Signal" Index="0"/>
    <Class Name="Background" Index="1"/>
  </Classes>
  <Transformations NTransformations="1">
    <Transform Name="Normalize">
      <Selection>
        <Input NInputs="5">
          <Input Type="Variable" Label="l1Pt_1" Expression="l1Pt_1"/>
          <Input Type="Variable" Label="l1Pt_2" Expression="l1Pt_2"/>
          <Input Type="Variable" Label="l1DeltaEta" Expression="l1DeltaEta"/>
          <Input Type="Variable" Label="l1DeltaPhi" Expression="l1DeltaPhi"/>
          <Input Type="Variable" Label="l1Mass" Expression="l1Mass"/>
        </Input>
        <Output NOutputs="5">
          <Output Type="Variable" Label="l1Pt_1" Expression="l1Pt_1"/>
          <Output Type="Variable" Label="l1Pt_2" Expression="l1Pt_2"/>
          <Output Type="Variable" Label="l1DeltaEta" Expression="l1DeltaEta"/>
          <Output Type="Variable" Label="l1DeltaPhi" Expression="l1DeltaPhi"/>
          <Output Type="Variable" Label="l1Mass" Expression="l1Mass"/>
        </Output>
      </Selection>
      <Class ClassIndex="0">
        <Ranges>
          <Range Index="0" Min="5.5000000000000000e+00" Max="5.1150000000000000e+02"/>
          <Range Index="1" Min="5.5000000000000000e+00" Max="5.1150000000000000e+02"/>
          <Range Index="2" Min="-9.3275003433227539e+00" Max="1.0185000419616699e+01"/>
          <Range Index="3" Min="-6.1911997795104980e+00" Max="6.1911997795104980e+00"/>
          <Range Index="4" Min="6.7171021100875805e-07" Max="7.8637763671875000e+03"/>
        </Ranges>
      </Class>
      <Class ClassIndex="1">
        <Ranges>
          <Range Index="0" Min="6.0000000000000000e+00" Max="4.7250000000000000e+02"/>
          <Range Index="1" Min="5.5000000000000000e+00" Max="5.1150000000000000e+02"/>
          <Range Index="2" Min="-8.2399997711181641e+00" Max="8.7600002288818359e+00"/>
          <Range Index="3" Min="-5.9295997619628906e+00" Max="6.0167999267578125e+00"/>
          <Range Index="4" Min="8.6679096221923828e+00" Max="3.0111108398437500e+03"/>
        </Ranges>
      </Class>
      <Class ClassIndex="2">
        <Ranges>
          <Range Index="0" Min="5.5000000000000000e+00" Max="5.1150000000000000e+02"/>
          <Range Index="1" Min="5.5000000000000000e+00" Max="5.1150000000000000e+02"/>
          <Range Index="2" Min="-9.3275003433227539e+00" Max="1.0185000419616699e+01"/>
          <Range Index="3" Min="-6.1911997795104980e+00" Max="6.1911997795104980e+00"/>
          <Range Index="4" Min="6.7171021100875805e-07" Max="7.8637763671875000e+03"/>
        </Ranges>
      </Class>
    </Transform>
  </Transformations>
  <MVAPdfs/>
  <Weights>
    <Layout NLayers="3">
      <Layer Index="0" NNeurons="6">
        <Neuron NSynapses="10">
          -3.8622045179167728e+01 4.3591734672655711e+01 8.1333475919299794e+00 8.2893617338704914e+01 -6.9161509541556555e+01 -3.4652656262708675e+01 5.4920892249805613e+00 1.1309248900700396e+01 1.7087740526493131e+00 -9.5422965406547924e+00 
        </Neuron>
        <Neuron NSynapses="10">
          5.4928446532223312e+00 1.0884945108747463e+01 -9.6492865291862892e-02 -6.3344979582440775e-01 4.9599950621709121e+00 -8.5249202077902826e+00 5.5712321472214823e+00 7.1846762850767965e+00 3.5926260959115103e-01 -1.0138108852660723e+01 
        </Neuron>
        <Neuron NSynapses="10">
          -4.9547580452776774e-01 -1.6888049880951448e+00 3.6928527361099981e+01 -1.1641275500882260e+02 -1.0875279908566529e+02 -1.1786887292452798e+01 3.9955781082444382e+01 -5.2815139638956865e+01 -2.8205531538033664e+01 5.8623700645448533e+00 
        </Neuron>
        <Neuron NSynapses="10">
          -1.2987193723416738e+01 1.1912325684584552e+01 -3.1460432250164832e+01 2.0739564623167697e+00 2.1231610802090271e+00 8.6901348823674029e-01 -4.4734717201666548e+01 2.1324784602603685e+01 -5.4274232625763510e+01 8.7646782483359633e+00 
        </Neuron>
        <Neuron NSynapses="10">
          -1.6461351347827801e+01 3.2459759132629257e-01 1.3289937943439467e+01 5.2224082116849990e-01 -1.0723513536351597e+01 1.3780303452619926e+01 -2.0112937929319656e+00 6.2310059128358235e+00 1.6778763357253151e+01 3.8867669198169210e+00 
        </Neuron>
        <Neuron NSynapses="10">
          -3.5318066266436901e+01 5.0805796081384763e+01 -4.7349195410250147e+00 4.2760041342473272e+01 -4.9382056661270347e+01 2.2951545296214597e+00 2.2600252399328522e+01 -5.1143427171954885e+00 -1.8023691755197564e+01 8.2493775111064664e+00 
        </Neuron>
      </Layer>
      <Layer Index="1" NNeurons="11">
        <Neuron NSynapses="1">
          -6.9565701430690285e-01 
        </Neuron>
        <Neuron NSynapses="1">
          7.1439457067485757e-01 
        </Neuron>
        <Neuron NSynapses="1">
          5.6262517925822231e-01 
        </Neuron>
        <Neuron NSynapses="1">
          7.3209596326409077e-01 
        </Neuron>
        <Neuron NSynapses="1">
          -6.6131905661055779e-01 
        </Neuron>
        <Neuron NSynapses="1">
          1.2132206294773604e+00 
        </Neuron>
        <Neuron NSynapses="1">
          6.7200866543722670e-01 
        </Neuron>
        <Neuron NSynapses="1">
          5.3397314561024667e-01 
        </Neuron>
        <Neuron NSynapses="1">
          5.7579554254248067e-01 
        </Neuron>
        <Neuron NSynapses="1">
          9.6100616967861607e-01 
        </Neuron>
        <Neuron NSynapses="1">
          -1.7939867248316341e-02 
        </Neuron>
      </Layer>
      <Layer Index="2" NNeurons="1">
        <Neuron NSynapses="0"/>
      </Layer>
    </Layout>
  </Weights>
</MethodSetup>
