<?xml version="1.0"?>
<MethodSetup Method="MLP::MLP_3">
  <GeneralInfo>
    <Info name="TMVA Release" value="4.2.1 [262657]"/>
    <Info name="ROOT Release" value="6.12/07 [396295]"/>
    <Info name="Creator" value="addropul"/>
    <Info name="Date" value="Tue Aug 27 21:19:30 2019"/>
    <Info name="Host" value="Linux cmsbuild89.cern.ch 2.6.32-696.30.1.el6.x86_64 #1 SMP Tue May 22 06:09:36 CEST 2018 x86_64 x86_64 x86_64 GNU/Linux"/>
    <Info name="Dir" value="/afs/cern.ch/user/a/addropul/CMSSW_10_6_0_pre4/src/L1Trigger/Run3Ntuplizer/test/June_July_2019"/>
    <Info name="Training events" value="370753"/>
    <Info name="TrainingTime" value="1.20698675e+02"/>
    <Info name="AnalysisType" value="Classification"/>
  </GeneralInfo>
  <Options>
    <Option name="NCycles" modified="Yes">600</Option>
    <Option name="HiddenLayers" modified="Yes">N+5</Option>
    <Option name="NeuronType" modified="Yes">tanh</Option>
    <Option name="RandomSeed" modified="No">1</Option>
    <Option name="EstimatorType" modified="No">CE</Option>
    <Option name="NeuronInputType" modified="No">sum</Option>
    <Option name="V" modified="Yes">False</Option>
    <Option name="VerbosityLevel" modified="No">Default</Option>
    <Option name="VarTransform" modified="Yes">Decorrelate</Option>
    <Option name="H" modified="Yes">True</Option>
    <Option name="CreateMVAPdfs" modified="No">False</Option>
    <Option name="IgnoreNegWeightsInTraining" modified="No">False</Option>
    <Option name="TrainingMethod" modified="No">BP</Option>
    <Option name="LearningRate" modified="No">2.000000e-02</Option>
    <Option name="DecayRate" modified="No">1.000000e-02</Option>
    <Option name="TestRate" modified="Yes">5</Option>
    <Option name="EpochMonitoring" modified="No">False</Option>
    <Option name="Sampling" modified="No">1.000000e+00</Option>
    <Option name="SamplingEpoch" modified="No">1.000000e+00</Option>
    <Option name="SamplingImportance" modified="No">1.000000e+00</Option>
    <Option name="SamplingTraining" modified="No">True</Option>
    <Option name="SamplingTesting" modified="No">False</Option>
    <Option name="ResetStep" modified="No">50</Option>
    <Option name="Tau" modified="No">3.000000e+00</Option>
    <Option name="BPMode" modified="No">sequential</Option>
    <Option name="BatchSize" modified="No">-1</Option>
    <Option name="ConvergenceImprove" modified="No">1.000000e-30</Option>
    <Option name="ConvergenceTests" modified="Yes">10</Option>
    <Option name="UseRegulator" modified="Yes">False</Option>
    <Option name="UpdateLimit" modified="No">10000</Option>
    <Option name="CalculateErrors" modified="No">False</Option>
    <Option name="WeightRange" modified="No">1.000000e+00</Option>
  </Options>
  <Variables NVar="5">
    <Variable VarIndex="0" Expression="l1Pt_1" Label="l1Pt_1" Title="l1Pt_1" Unit="" Internal="l1Pt_1" Type="D" Min="5.50000000e+00" Max="5.11500000e+02"/>
    <Variable VarIndex="1" Expression="l1Pt_2" Label="l1Pt_2" Title="l1Pt_2" Unit="" Internal="l1Pt_2" Type="D" Min="5.50000000e+00" Max="5.11500000e+02"/>
    <Variable VarIndex="2" Expression="l1DeltaEta" Label="l1DeltaEta" Title="l1DeltaEta" Unit="" Internal="l1DeltaEta" Type="D" Min="-9.32750034e+00" Max="1.01850004e+01"/>
    <Variable VarIndex="3" Expression="l1DeltaPhi" Label="l1DeltaPhi" Title="l1DeltaPhi" Unit="" Internal="l1DeltaPhi" Type="D" Min="-6.19119978e+00" Max="6.19119978e+00"/>
    <Variable VarIndex="4" Expression="l1Mass" Label="l1Mass" Title="l1Mass" Unit="" Internal="l1Mass" Type="D" Min="6.71710211e-07" Max="7.86377637e+03"/>
  </Variables>
  <Spectators NSpec="0"/>
  <Classes NClass="2">
    <Class Name="Signal" Index="0"/>
    <Class Name="Background" Index="1"/>
  </Classes>
  <Transformations NTransformations="1">
    <Transform Name="Decorrelation">
      <Selection>
        <Input NInputs="5">
          <Input Type="Variable" Label="l1Pt_1" Expression="l1Pt_1"/>
          <Input Type="Variable" Label="l1Pt_2" Expression="l1Pt_2"/>
          <Input Type="Variable" Label="l1DeltaEta" Expression="l1DeltaEta"/>
          <Input Type="Variable" Label="l1DeltaPhi" Expression="l1DeltaPhi"/>
          <Input Type="Variable" Label="l1Mass" Expression="l1Mass"/>
        </Input>
        <Output NOutputs="5">
          <Output Type="Variable" Label="l1Pt_1" Expression="l1Pt_1"/>
          <Output Type="Variable" Label="l1Pt_2" Expression="l1Pt_2"/>
          <Output Type="Variable" Label="l1DeltaEta" Expression="l1DeltaEta"/>
          <Output Type="Variable" Label="l1DeltaPhi" Expression="l1DeltaPhi"/>
          <Output Type="Variable" Label="l1Mass" Expression="l1Mass"/>
        </Output>
      </Selection>
      <Matrix Rows="5" Columns="5">
        2.294501311364246e-02 -9.960130636480345e-03 -8.466967258065972e-05 -7.365723431571390e-05 -6.605719327802657e-04 -9.960130636480342e-03 3.483635557248362e-02 1.578674910362260e-04 -3.611471708946681e-06 -6.478337378159480e-04 -8.466967258065968e-05 1.578674910362259e-04 3.451071266926126e-01 -5.691254148423739e-04 -1.355317913901284e-05 -7.365723431571388e-05 -3.611471708946673e-06 -5.691254148423707e-04 3.353179603428022e-01 8.677560333770055e-06 -6.605719327802658e-04 -6.478337378159480e-04 -1.355317913901284e-05 8.677560333770055e-06 2.601772059399072e-03 
      </Matrix>
      <Matrix Rows="5" Columns="5">
        4.280338875045531e-02 -1.761184121731973e-02 -1.503149734459621e-05 5.271029077527887e-04 -2.034457476717993e-03 -1.761184121731973e-02 5.593551716102963e-02 -1.710865850807479e-04 -2.208716763561383e-04 -1.562310175253769e-03 -1.503149734459618e-05 -1.710865850807479e-04 5.767891048164900e-01 1.942723990889676e-03 -2.282579507731145e-04 5.271029077527887e-04 -2.208716763561383e-04 1.942723990889676e-03 3.292723143148952e-01 2.653151284567834e-05 -2.034457476717993e-03 -1.562310175253770e-03 -2.282579507731145e-04 2.653151284567834e-05 7.264397982627790e-03 
      </Matrix>
      <Matrix Rows="5" Columns="5">
        2.760401887010053e-02 -1.213149799986451e-02 -8.619592136730641e-05 7.642026237741351e-05 -1.104977223012638e-03 -1.213149799986451e-02 4.167710180560874e-02 7.488804617983436e-05 -4.470149860815656e-05 -8.288450927278742e-04 -8.619592136730638e-05 7.488804617983436e-05 4.187562887533575e-01 2.703742469027488e-04 -3.046403936339786e-05 7.642026237741351e-05 -4.470149860815655e-05 2.703742469027492e-04 3.322282667471054e-01 9.803679139328853e-06 -1.104977223012638e-03 -8.288450927278741e-04 -3.046403936339786e-05 9.803679139328854e-06 3.308608146369330e-03 
      </Matrix>
    </Transform>
  </Transformations>
  <MVAPdfs/>
  <Weights>
    <Layout NLayers="3">
      <Layer Index="0" NNeurons="6">
        <Neuron NSynapses="10">
          -6.2718718429913229e+00 1.5376976437155299e+01 4.9672575207623133e+00 1.1886427282015651e+01 9.3855475871272525e+00 -1.8813875370302416e+01 2.0936313125272953e+01 3.1643802678841801e+01 6.0704748894077003e+00 8.9584067781086389e+00 
        </Neuron>
        <Neuron NSynapses="10">
          -1.0135649281638845e+01 8.5812485799146128e+00 6.2050460078476073e+00 -1.5798689016413874e+01 6.9638185882091594e+00 -9.1523247840547928e+00 -1.6227911095789185e+01 2.5133285917353547e+01 -1.2102578871689127e+01 1.0456000799174443e-01 
        </Neuron>
        <Neuron NSynapses="10">
          -9.5765205503082085e-01 3.5283245686746234e+01 -5.5478282251278772e+00 2.3097571201863929e+01 -1.3504769588810199e+00 -2.5449946732135277e+01 -3.3620342360059063e+01 2.7004861205231922e+01 4.3596305360136389e+00 -2.4898820888336282e+01 
        </Neuron>
        <Neuron NSynapses="10">
          1.9907134120296657e+00 5.6436234537935626e+01 2.1153225663461535e+00 2.3669472707993284e+00 5.1416331265396158e+00 5.0011777844030412e+01 3.6679166439333417e+00 -6.7582593088276859e+00 -3.9576175701350486e+01 -4.8570392349847900e+01 
        </Neuron>
        <Neuron NSynapses="10">
          -8.7234319451261371e+00 2.9634218869267983e+01 1.1610456832390609e+02 5.1732618303994258e+01 9.9588757630647038e+00 -3.6555536132877975e+01 5.3188229149541478e+01 1.7456545475168671e+01 2.7004480242376228e+01 2.2471702349710625e+01 
        </Neuron>
        <Neuron NSynapses="10">
          -3.2400445865712322e+00 -6.1235482108300721e+00 -4.8778732755582759e+01 -3.1328723372231099e+01 9.4753018937995055e+00 8.0625489523213485e+00 -3.9856002461929300e+01 1.4375595764645922e+01 -2.1769991518224508e+01 9.0198731190448491e+00 
        </Neuron>
      </Layer>
      <Layer Index="1" NNeurons="11">
        <Neuron NSynapses="1">
          -1.5787610652477309e+00 
        </Neuron>
        <Neuron NSynapses="1">
          2.6752309735133067e-01 
        </Neuron>
        <Neuron NSynapses="1">
          2.0963548944221562e+00 
        </Neuron>
        <Neuron NSynapses="1">
          1.1197809939049949e-01 
        </Neuron>
        <Neuron NSynapses="1">
          1.9550027515184024e-01 
        </Neuron>
        <Neuron NSynapses="1">
          1.3659287762455138e-01 
        </Neuron>
        <Neuron NSynapses="1">
          1.3027996978880678e+00 
        </Neuron>
        <Neuron NSynapses="1">
          9.0865486901393555e-01 
        </Neuron>
        <Neuron NSynapses="1">
          -4.4505845713990144e-01 
        </Neuron>
        <Neuron NSynapses="1">
          -7.6570353424213672e-02 
        </Neuron>
        <Neuron NSynapses="1">
          -1.9224280664020306e+00 
        </Neuron>
      </Layer>
      <Layer Index="2" NNeurons="1">
        <Neuron NSynapses="0"/>
      </Layer>
    </Layout>
  </Weights>
</MethodSetup>
